tree
version=v2
num_class=1
num_tree_per_iteration=1
label_index=0
max_feature_idx=461
objective=binary sigmoid:1
feature_names=register_day register_type device_type register_rest_day launch_total_count_x launch_total_count_y launch_total_count_x.1 launch_total_count_y.1 launch_total_count_x.2 launch_total_count_y.2 launch_total_count launch_day_diff_max launch_day_diff_min launch_day_diff_mean launch_day_diff_std launch_day_diff_kurt launch_day_diff_skew launch_day_diff_last launch_last_day launch_rest_day launch_count_max launch_count_min launch_count_mean launch_count_std launch_count_kurt launch_count_skew launch_count_last launch_day_mode most_launch_day most_launch_day_sub_end_day video_total_count_all video_total_count_1 video_total_count_2 video_total_count_3 video_total_count_5 video_total_count_7 video_total_count_10 video_day_diff_max video_day_diff_min video_day_diff_mean video_day_diff_std video_day_diff_kurt video_day_diff_skew video_day_diff_last video_day_unique_diff_max video_day_unique_diff_min video_day_unique_diff_mean video_day_unique_diff_std video_day_unique_diff_kurt video_day_unique_diff_skew video_day_unique_diff_last video_last_day video_rest_day video_count_max video_count_min video_count_mean video_count_std video_count_kurt video_count_skew video_count_last video_day_mode most_video_day most_video_day_sub_end_day activity_day_diff_max activity_day_diff_min activity_day_diff_mean activity_day_diff_std activity_day_diff_kurt activity_day_diff_skew activity_day_diff_last activity_last_day activity_rest_day activity_total_count_x page0_count_x page1_count_x page2_count_x page3_count_x page4_count_x page0_pct_x page1_pct_x page2_pct_x page3_pct_x page4_pct_x action0_count_x action1_count_x action2_count_x action3_count_x action0_pct_x action1_pct_x action2_pct_x action3_pct_x video_id_most_x author_id_most_x author_video_count_all author_get_activity_count_x author_get_activity_count_y author_get_action0_count_x author_get_action1_count_x author_get_action2_count_x author_get_action3_count_x author_get_action0_pct_x author_get_action1_pct_x author_get_action2_pct_x author_get_action3_pct_x author_get_activity_count_x.1 author_get_page0_count_x author_get_page1_count_x author_get_page2_count_x author_get_page3_count_x author_get_page4_count_x author_get_page0_pct_x author_get_page1_pct_x author_get_page2_pct_x author_get_page3_pct_x author_get_page4_pct_x activity_total_count_y page0_count_y page1_count_y page2_count_y page3_count_y page4_count_y page0_pct_y page1_pct_y page2_pct_y page3_pct_y page4_pct_y action0_count_y action1_count_y action2_count_y action3_count_y action0_pct_y action1_pct_y action2_pct_y action3_pct_y video_id_most_y author_id_most_y author_video_count_1 author_get_activity_count_y.1 author_get_activity_count_x.2 author_get_action0_count_y author_get_action1_count_y author_get_action2_count_y author_get_action3_count_y author_get_action0_pct_y author_get_action1_pct_y author_get_action2_pct_y author_get_action3_pct_y author_get_activity_count_y.2 author_get_page0_count_y author_get_page1_count_y author_get_page2_count_y author_get_page3_count_y author_get_page4_count_y author_get_page0_pct_y author_get_page1_pct_y author_get_page2_pct_y author_get_page3_pct_y author_get_page4_pct_y activity_total_count_x.1 page0_count_x.1 page1_count_x.1 page2_count_x.1 page3_count_x.1 page4_count_x.1 page0_pct_x.1 page1_pct_x.1 page2_pct_x.1 page3_pct_x.1 page4_pct_x.1 action0_count_x.1 action1_count_x.1 action2_count_x.1 action3_count_x.1 action0_pct_x.1 action1_pct_x.1 action2_pct_x.1 action3_pct_x.1 video_id_most_x.1 author_id_most_x.1 author_video_count_2 author_get_activity_count_x.3 author_get_activity_count_y.3 author_get_action0_count_x.1 author_get_action1_count_x.1 author_get_action2_count_x.1 author_get_action3_count_x.1 author_get_action0_pct_x.1 author_get_action1_pct_x.1 author_get_action2_pct_x.1 author_get_action3_pct_x.1 author_get_activity_count_x.4 author_get_page0_count_x.1 author_get_page1_count_x.1 author_get_page2_count_x.1 author_get_page3_count_x.1 author_get_page4_count_x.1 author_get_page0_pct_x.1 author_get_page1_pct_x.1 author_get_page2_pct_x.1 author_get_page3_pct_x.1 author_get_page4_pct_x.1 activity_total_count_y.1 page0_count_y.1 page1_count_y.1 page2_count_y.1 page3_count_y.1 page4_count_y.1 page0_pct_y.1 page1_pct_y.1 page2_pct_y.1 page3_pct_y.1 page4_pct_y.1 action0_count_y.1 action1_count_y.1 action2_count_y.1 action3_count_y.1 action0_pct_y.1 action1_pct_y.1 action2_pct_y.1 action3_pct_y.1 video_id_most_y.1 author_id_most_y.1 author_video_count_3 author_get_activity_count_y.4 author_get_activity_count_x.5 author_get_action0_count_y.1 author_get_action1_count_y.1 author_get_action2_count_y.1 author_get_action3_count_y.1 author_get_action0_pct_y.1 author_get_action1_pct_y.1 author_get_action2_pct_y.1 author_get_action3_pct_y.1 author_get_activity_count_y.5 author_get_page0_count_y.1 author_get_page1_count_y.1 author_get_page2_count_y.1 author_get_page3_count_y.1 author_get_page4_count_y.1 author_get_page0_pct_y.1 author_get_page1_pct_y.1 author_get_page2_pct_y.1 author_get_page3_pct_y.1 author_get_page4_pct_y.1 activity_total_count_x.2 page0_count_x.2 page1_count_x.2 page2_count_x.2 page3_count_x.2 page4_count_x.2 page0_pct_x.2 page1_pct_x.2 page2_pct_x.2 page3_pct_x.2 page4_pct_x.2 action0_count_x.2 action1_count_x.2 action2_count_x.2 action3_count_x.2 action0_pct_x.2 action1_pct_x.2 action2_pct_x.2 action3_pct_x.2 video_id_most_x.2 author_id_most_x.2 author_video_count_5 author_get_activity_count_x.6 author_get_activity_count_y.6 author_get_action0_count_x.2 author_get_action1_count_x.2 author_get_action2_count_x.2 author_get_action3_count_x.2 author_get_action0_pct_x.2 author_get_action1_pct_x.2 author_get_action2_pct_x.2 author_get_action3_pct_x.2 author_get_activity_count_x.7 author_get_page0_count_x.2 author_get_page1_count_x.2 author_get_page2_count_x.2 author_get_page3_count_x.2 author_get_page4_count_x.2 author_get_page0_pct_x.2 author_get_page1_pct_x.2 author_get_page2_pct_x.2 author_get_page3_pct_x.2 author_get_page4_pct_x.2 activity_total_count_y.2 page0_count_y.2 page1_count_y.2 page2_count_y.2 page3_count_y.2 page4_count_y.2 page0_pct_y.2 page1_pct_y.2 page2_pct_y.2 page3_pct_y.2 page4_pct_y.2 action0_count_y.2 action1_count_y.2 action2_count_y.2 action3_count_y.2 action0_pct_y.2 action1_pct_y.2 action2_pct_y.2 action3_pct_y.2 video_id_most_y.2 author_id_most_y.2 author_video_count_7 author_get_activity_count_y.7 author_get_activity_count_x.8 author_get_action0_count_y.2 author_get_action1_count_y.2 author_get_action2_count_y.2 author_get_action3_count_y.2 author_get_action0_pct_y.2 author_get_action1_pct_y.2 author_get_action2_pct_y.2 author_get_action3_pct_y.2 author_get_activity_count_y.8 author_get_page0_count_y.2 author_get_page1_count_y.2 author_get_page2_count_y.2 author_get_page3_count_y.2 author_get_page4_count_y.2 author_get_page0_pct_y.2 author_get_page1_pct_y.2 author_get_page2_pct_y.2 author_get_page3_pct_y.2 author_get_page4_pct_y.2 activity_total_count page0_count page1_count page2_count page3_count page4_count page0_pct page1_pct page2_pct page3_pct page4_pct action0_count action1_count action2_count action3_count action0_pct action1_pct action2_pct action3_pct video_id_most author_id_most author_video_count_10 author_get_activity_count_x.9 author_get_activity_count_y.9 author_get_action0_count author_get_action1_count author_get_action2_count author_get_action3_count author_get_action0_pct author_get_action1_pct author_get_action2_pct author_get_action3_pct author_get_activity_count author_get_page0_count author_get_page1_count author_get_page2_count author_get_page3_count author_get_page4_count author_get_page0_pct author_get_page1_pct author_get_page2_pct author_get_page3_pct author_get_page4_pct activity_count_max activity_count_min activity_count_mean activity_count_std activity_count_kurt activity_count_skew activity_count_last activity_count_diff_max activity_count_diff_min activity_count_diff_mean activity_count_diff_std activity_count_diff_kurt activity_count_diff_skew activity_count_diff_last page0_max page0_min page0_mean page0_std page0_kurt page0_skew page0_last page1_max page1_min page1_mean page1_std page1_kurt page1_skew page1_last page2_max page2_min page2_mean page2_std page2_kurt page2_skew page2_last page3_max page3_min page3_mean page3_std page3_kurt page3_skew page3_last page4_max page4_min page4_mean page4_std page4_kurt page4_skew page4_last action0_max action0_min action0_mean action0_std action0_kurt action0_skew action0_last action1_max action1_min action1_mean action1_std action1_kurt action1_skew action1_last action2_max action2_min action2_mean action2_std action2_kurt action2_skew action2_last action3_max action3_min action3_mean action3_std action3_kurt action3_skew action3_last most_activity_day most_activity_day_sub_end_day last_launch_sub_register last_video_sub_register last_activity_sub_register author_video_pct_all author_video_pct_1 author_video_pct_2 author_video_pct_3 author_video_pct_5 author_video_pct_7 author_video_pct_10
feature_infos=[1:23] [0:11] [0:93538] [-22:0] [0:16] [0:1] [0:2] [0:3] [0:5] [0:7] [0:10] [0:15] [0:15] [0:15] [0:9.1923881554251174] [-6:14.000000000000016] [-2.449489742783177:3.7416573867739431] [0:15] [0:23] [-15:0] [0:1] [0:1] [0:1] none none none [0:1] [0:1] [0:23] [-15:0] [0:145] [0:30] [0:47] [0:62] [0:70] [0:72] [0:107] [0:15] [0:15] [0:15] [0:9.1923881554251174] [-6:46.000000000000036] [-3.4641016151377548:6.7823299831252735] [0:15] [0:15] [0:15] [0:15] [0:8.4852813742385695] [-6:14.000000000000016] [-2.2360679774997902:3.7416573867739431] [0:15] [0:23] [-15:0] [0:58] [0:30] [0:30] [0:24.748737341529164] [-6:14.000000000000005] [-2.2360679774997889:3.7416573867739431] [0:30] [0:30] [0:23] none [0:15] [0:15] [0:15] [0:9.1923881554251174] [-6:14.000000000000016] [-2.6457513110645907:3.7416573867739431] [0:15] [0:23] [-15:0] [0:22118] [0:9151] [0:4597] [0:2920] [0:16030] [0:980] [0:1] [0:1] [0:1] [0:1] [0:1] [0:20531] [0:7490] [0:834] [0:383] [0:1] [0:1] [0:0.83333333333333337] [0:0.75] [0:3666] [0:4807] [0:175] [0:3405] [0:3405] [0:3371] [0:383] none [0:114] [0:1] [0:0.94444444444444442] none [0:1] [0:3405] none [0:951] [0:276] [0:2834] [0:646] none [0:1] [0:1] [0:1] [0:1] [0:1970] [0:1025] [0:595] [0:297] [0:1333] [0:236] [0:1] [0:1] [0:1] [0:1] [0:1] [0:1956] [0:527] [0:131] [0:85] [0:1] [0:1] [0:0.75] [0:1] [0:591] [0:682] [0:47] [0:684] [0:684] [0:664] [0:34] none [0:16] [0:1] [0:0.66666666666666663] none [0:0.5] [0:684] none [0:130] [0:44] [0:514] [0:71] none [0:1] [0:1] [0:1] [0:1] [0:3106] [0:1925] [0:1383] [0:669] [0:2586] [0:303] [0:1] [0:1] [0:1] [0:1] [0:1] [0:2888] [0:1201] [0:194] [0:245] [0:1] [0:0.96875] [0:0.75] [0:1] [0:1322] [0:1383] [0:50] [0:1044] [0:1044] [0:989] [0:73] none [0:24] [0:1] [0:0.69565217391304346] none [0:0.5] [0:1044] none [0:328] [0:44] [0:592] [0:174] none [0:1] [0:1] [0:1] [0:1] [0:4387] [0:2586] [0:1460] [0:753] [0:2738] [0:347] [0:1] [0:1] [0:1] [0:1] [0:1] [0:4043] [0:1649] [0:403] [0:245] [0:1] [0:1] [0:0.83333333333333337] [0:1] [0:1322] [0:1468] [0:59] [0:1147] [0:1147] [0:1088] [0:114] none [0:28] [0:1] [0:0.75] none [0:0.59999999999999998] [0:1147] none [0:515] [0:92] [0:599] [0:246] none [0:1] [0:1] [0:1] [0:1] [0:6827] [0:3409] [0:2148] [0:1920] [0:4594] [0:507] [0:1] [0:1] [0:1] [0:1] [0:1] [0:6289] [0:2203] [0:403] [0:245] [0:1] [0:1] [0:0.83333333333333337] [0:0.66666666666666663] [0:1322] [0:2180] [0:71] [0:1149] [0:1149] [0:1090] [0:236] none [0:60] [0:1] [0:0.90666666666666662] none [0:0.59999999999999998] [0:1149] none [0:743] [0:215] [0:832] [0:404] none [0:1] [0:1] [0:1] [0:1] [0:10104] [0:4237] [0:4501] [0:1920] [0:6938] [0:600] [0:1] [0:1] [0:1] [0:1] [0:1] [0:9352] [0:4604] [0:521] [0:245] [0:1] [0:1] [0:0.83333333333333337] [0:0.66666666666666663] [0:3666] [0:4658] [0:134] [0:1315] [0:1315] [0:1304] [0:268] none [0:79] [0:1] [0:0.90666666666666662] none [0:0.59999999999999998] [0:1315] none [0:784] [0:253] [0:1176] [0:467] none [0:1] [0:1] [0:1] [0:1] [0:15562] [0:5390] [0:4561] [0:1920] [0:11246] [0:719] [0:1] [0:1] [0:1] [0:1] [0:1] [0:14498] [0:4610] [0:831] [0:264] [0:1] [0:1] [0:0.83333333333333337] [0:0.75] [0:3666] [0:4768] [0:141] [0:2027] [0:2027] [0:2005] [0:323] none [0:88] [0:1] [0:0.77777777777777779] none [0:1] [0:2027] none [0:785] [0:271] [0:1766] [0:495] none [0:1] [0:1] [0:1] [0:1] [0:3956] [0:1970] [0:1970] [0:1672.0108402758638] [-6:13.123279440068085] [-2.2188116951945447:3.5658566127233917] [0:1970] [-1665:3883] [-3387:1467] [-1665:1467] [0:3351.0509296836021] [-6:10.633331427471774] [-3.0420807032577728:3.1343046770605016] [-1665:1467] [0:2270] [0:758] [0:758] [0:799.36245429300288] [-6:11.983501497450655] [-2.301560357457523:3.3890410386517411] [0:1025] [0:3924] [0:1184] [0:1184] [0:1292.2527595035133] [-6:13.825342039043006] [-2.449489742783177:3.660112494692501] [0:1184] [0:1917] [0:253] [0:960] [0:1353.402379191052] [-6:14.469462089437235] [-2:3.7769606412280101] [0:1917] [0:1734] [0:1333] [0:1333] [0:948.23019357116038] [-6:13.948513413201393] [-2.1600657609858018:3.6646132664937503] [0:1333] [0:293] [0:135] [0:135] [0:164.04877323527901] [-6:9.6665668454070914] [-2.2360679774997889:2.9730806365775417] [0:293] [0:3415] [0:1956] [0:1956] [0:1670.955889104597] [-6:13.188480292197996] [-2.2921469347233407:3.5743297076674576] [0:1956] [0:3913] [0:198] [0:577.25] [0:1361.6683831661385] [-6:13.900975563135331] [-2.6457513110645907:3.674239644718448] [0:527] [0:459] [0:403] [0:403] [0:183.06610827785681] [-6:11.654915999215262] [-2.2360679774997902:3.3155073405513864] [0:403] [0:160] [0:85] [0:122.5] [0:57.27564927611035] [-6:9.1876851012883431] [-2.2360679774997898:2.9928842665852016] [0:150] [0:23] [-15:0] [0:22] [0:22] [0:22] [0:13] [0:20] [0:28] [0:21] [0:26] [0:26] [0:18]
tree_sizes=2648 2578 2651 2576 2591 2653 2651 2664 2669 2578 2430 2597 2599 2669 2582 2504 2418 2605 2435 2589 2580 2664 2683 2598 2581 2585 2341 2417 2365 2331 2599 2431 2349 2691 2450 2335 2392 2407 2196 2422 2362 2500 2033 2177 2375 2310 2087 2447 2482 2308 2311 2151 2127 2120 2235 2063 2183 2222 2414 2233 2239 2489 2031 2476 1975 2092 2242 2091 2101 1657 1767 1464 2119 2156 1615 2433 2372 2153 1943 1592 1686 1963 1828 1625 958 1988 1944 1524 1881 1698 1746 1701 1432 1349 1420 1935 1864 1927 1421 1365 1383 1966 1779 1386 1523 1401 2107 1408 1152 1343 1919 1784 1121 1741 1643 2035 2286 1620 1154 2117 1951 1041 1080 1144 1291 1854 1873 1366 1081 1334 1763 1517 1364 1520 2033 2131 1829 916 913

Tree=0
num_leaves=32
num_cat=0
split_feature=216 10 7 83 8 71 130 8 11 130 3 380 350 10 383 9 66 63 5 83 72 454 83 298 375 454 10 9 2 83 336
split_gain=21449.8 3241.32 2402.75 681.26 588.936 342.647 282.459 281.982 279.701 241.938 199.357 196.198 172.162 169.994 148.517 110.962 99.0833 78.8818 57.7645 53.6285 32.6263 29.2324 23.6102 23.5819 19.3415 11.7641 10.2529 9.78895 9.23637 8.32731 6.71746
threshold=0.58397435897435912 1.5000000000000002 1.5000000000000002 28.500000000000004 2.5000000000000004 -1.0000000180025095e-35 0.76975051975051989 1.0000000180025095e-35 2.5000000000000004 0.60070754716981145 -1.0000000180025095e-35 1.0000000180025095e-35 1.5000000000000002 3.5000000000000004 1.0000000180025095e-35 3.5000000000000004 0.44095855184409849 1.5000000000000002 1.0000000180025095e-35 47.500000000000007 10.500000000000002 9.5000000000000018 11.500000000000002 83.500000000000014 6.5227272727272743 3.5000000000000004 6.5000000000000009 4.5000000000000009 32.500000000000007 317.50000000000006 0.24989545581265685
decision_type=2 2 2 2 2 2 2 2 2 2 2 2 2 2 2 2 2 2 2 2 2 2 2 2 2 2 2 2 2 2 2
left_child=1 8 3 9 7 13 11 16 10 17 12 -5 -1 22 -9 19 -3 -2 25 -7 -11 24 -4 -8 -10 -6 -15 -20 -12 -17 -23
right_child=2 4 5 6 18 15 23 14 21 20 28 -13 -14 26 -16 29 -18 -19 27 -21 -22 30 -24 -25 -26 -27 -28 -29 -30 -31 -32
leaf_value=-0.11039230199851961 -0.044724750758560902 -0.062682215743440239 0.0047908745247148294 0.0068073394495412852 0.016800000000000002 0.072870662460567823 0.078518014955812385 -0.017871304347826088 -0.077660377358490573 0.012192192192192192 -0.055300000000000009 0.061758100737888996 -0.082186234817813772 0.091573472041612494 0.028257866462010749 0.12085189527159047 -0.0090228690228690237 0.017796610169491526 0.088451882845188304 0.11158915692613779 0.049029535864978907 0.0069306930693069316 0.051624459542927735 0.10517241379310346 -0.043590633130962717 0.074344827586206891 0.1129672276350753 0.1329263157894737 -0.02554385964912281 0.13337319382162433 -0.031315789473684214
leaf_count=18910 2303 2397 259 2176 171 947 1467 2871 526 995 396 3113 5677 1534 2602 2555 958 468 235 4017 944 198 1615 1620 1149 141 1125 471 566 8024 148
internal_value=0 -1.04073 1.1683 0.50084 -0.0552284 1.60299 0.842959 -0.22192 -1.39247 -0.106916 -1.4493 0.560363 -1.48436 1.11483 0.0573307 1.74477 -0.678178 -0.486486 1.3816 1.49034 0.43335 -0.670617 0.647497 1.32449 -0.780226 0.632911 1.44123 1.70141 -0.546584 1.86318 -0.125714
internal_count=70578 37416 33162 13086 9846 20076 8376 8828 27570 4710 25549 5289 24587 4533 5473 15543 3355 2771 1018 4964 1939 2021 1874 3087 1675 312 2659 706 962 10579 346
shrinkage=0.07


Tree=1
num_leaves=31
num_cat=0
split_feature=8 302 126 5 65 13 383 9 5 6 83 6 454 424 7 212 452 126 454 330 345 2 14 9 395 10 450 126 2 72
split_gain=18631.9 3514.23 1241.8 1203.91 525.652 434.182 296.287 204.813 202.245 179.612 114.68 104.258 83.5486 82.3459 70.2575 66.7941 64.0083 35.3687 32.3962 26.9399 23.495 22.1804 21.9194 19.0021 15.1558 14.4103 14.2317 12.2337 8.18077 7.98443
threshold=1.5000000000000002 0.60050505050505065 5.5000000000000009 1.0000000180025095e-35 1.1742424242424245 1.1602564102564104 1.0000000180025095e-35 3.5000000000000004 1.0000000180025095e-35 1.0000000180025095e-35 19.500000000000004 1.0000000180025095e-35 1.0000000180025095e-35 41.031250000000007 1.0000000180025095e-35 12.500000000000002 9.5000000000000018 60.500000000000007 6.5000000000000009 2.5000000000000004 0.62082869855394895 141.50000000000003 0.44095855184409849 5.5000000000000009 2.5000000000000004 4.5000000000000009 15.500000000000002 110.50000000000001 32.500000000000007 236.50000000000003
decision_type=2 2 2 2 2 2 2 2 2 2 2 2 2 2 2 2 2 2 2 2 2 2 2 2 2 2 2 2 2 2
left_child=1 5 4 6 9 8 15 10 12 -3 20 18 -1 24 -6 21 19 -12 -8 -7 -5 -2 -18 29 -4 -13 -17 -15 -10 -9
right_child=3 2 13 7 14 16 11 23 28 -11 17 25 -14 27 -16 26 22 -19 -20 -21 -22 -23 -24 -25 -26 -27 -28 -29 -30 -31
leaf_value=-0.10412716923238372 0.0043811824532791503 -0.058030045228120594 0.036118885774348658 0.00079142894365447905 -0.0006698843420089196 -0.067509831752729191 0.025319155767072901 0.10307579746302241 -0.050902299528674852 -0.012586355397757643 0.087309255812944214 0.070184153577877217 -0.078931246834426122 0.075670593217109033 0.036131833054313209 0.04902201247051638 -0.045459577702551712 0.11149716825971551 0.058232490307195767 -0.039597100476422217 0.055261824733646006 -0.029564185233704722 0.0043384164700836086 0.1259455736845615 0.070114030156772297 0.091745890533692018 0.020047113616218831 0.10246592820037449 -0.023369819001695161 0.11821342875172652
leaf_count=18159 1141 6723 1264 210 2768 1665 1076 1825 413 2311 3361 1305 3220 974 1591 694 241 2239 1433 1306 736 552 564 7075 364 1853 743 819 584 3369
internal_value=0 -0.826795 -0.11301 1.28118 -0.387978 -1.28615 0.669153 1.56764 -1.39242 -0.663401 1.27739 0.942206 -1.4337 0.962302 0.181656 0.17339 -0.65556 1.38712 0.632724 -0.791392 0.621647 -0.0937873 -0.148155 1.72197 0.629202 1.18599 0.490465 1.26088 -0.502984 1.61471
internal_count=70578 42966 16814 27612 13393 26152 8797 18815 22376 9034 6546 5667 21379 3421 4359 3130 3776 5600 2509 2971 946 1693 805 12269 1628 3158 1437 1793 997 5194
shrinkage=0.07


Tree=2
num_leaves=32
num_cat=0
split_feature=216 10 9 126 9 10 5 13 5 14 3 350 19 341 5 452 9 83 4 9 452 158 6 126 9 70 91 71 167 2 65
split_gain=16235.5 2500.72 1847.42 820.93 448.575 310.287 276.585 213.227 172.824 168.902 157.941 133.484 70.7313 70.0581 64.956 49.1736 48.2481 46.5055 40.3461 33.8396 33.5594 23.1402 18.9073 16.4865 14.4743 13.674 13.0664 12.6213 10.8211 6.87686 2.40447
threshold=0.58397435897435912 1.5000000000000002 2.5000000000000004 11.500000000000002 2.5000000000000004 1.5000000000000002 1.0000000180025095e-35 1.2361111111111114 1.0000000180025095e-35 0.43129778659994128 -1.0000000180025095e-35 1.5000000000000002 -5.4999999999999991 41.500000000000007 1.0000000180025095e-35 6.5000000000000009 4.5000000000000009 12.500000000000002 4.5000000000000009 1.0000000180025095e-35 9.5000000000000018 59.500000000000007 1.0000000180025095e-35 110.50000000000001 4.5000000000000009 4.5000000000000009 2.5000000000000004 -1.4999999999999998 0.64230609459379273 32.500000000000007 1.7321428571428574
decision_type=2 2 2 2 2 2 2 2 2 2 2 2 2 2 2 2 2 2 2 2 2 2 2 2 2 2 2 2 2 2 2
left_child=1 7 3 5 9 14 18 10 20 12 11 -1 -3 28 -2 -11 21 -7 22 25 -6 -8 -4 -15 -10 -9 -21 -20 -5 -12 -18
right_child=2 4 6 13 8 17 16 19 24 15 29 -13 -14 23 -16 -17 30 -19 27 26 -22 -23 -24 -25 -26 -27 -28 -29 -30 -31 -32
leaf_value=-0.097685532989901097 -0.026644602516151382 -0.063604438695801138 0.028478277479419677 0.055569620754061216 0.010042633798883956 0.0013136199052707347 0.086977965056559886 -0.091278051491146858 0.074595186466430957 -0.019859585779961501 -0.048081055047790658 -0.072340040873156972 -0.025376653866756645 0.079587231617519127 0.012167107354903737 0.017631277921484289 0.11726465969770472 0.040700231011985499 0.065500980634707592 -0.047262543165791239 0.053977702251375992 0.10712845326393386 0.062077810375128967 0.10079732678375829 0.11727596033695251 -0.054054089140023749 -0.012879217248376122 0.087336971334845651 0.017661405987654571 -0.022157761719291496 0.099978927294026243
leaf_count=18290 3542 1508 564 1105 1329 717 2381 264 371 1054 396 5511 2710 2165 1097 1935 8498 3719 1070 374 468 3180 1001 1556 471 1573 596 1764 203 566 600
internal_value=0 -0.908192 1.02143 0.471914 -0.0422389 0.112471 1.43102 -1.21931 0.663932 -0.300913 -1.27923 -1.31175 -0.559006 1.12318 -0.248557 0.0615724 1.56508 0.491382 0.986274 -0.691432 0.310372 1.40865 0.717614 1.26596 1.41625 -0.85337 -0.379305 1.1325 0.713874 -0.475149 1.65999
internal_count=70578 37416 33162 14104 9846 9075 19058 27570 2639 7207 24763 23801 4218 5029 4639 2989 14659 4436 4399 2807 1797 5561 1565 3721 842 1837 970 2834 1308 962 9098
shrinkage=0.07


Tree=3
num_leaves=31
num_cat=0
split_feature=8 298 130 5 65 452 4 9 3 201 83 83 14 201 6 4 4 72 376 66 375 74 423 345 115 9 4 330 72 1
split_gain=14233.2 2725.78 973.222 968.365 439.72 330.881 221.455 166.816 144.833 135.149 119.831 89.9048 73.2157 69.3012 62.5537 49.0197 33.6341 31.6059 31.0667 22.4458 22.0272 20.2453 18.9634 18.8996 17.7205 16.3928 16.2419 14.5786 7.18956 2.56344
threshold=1.5000000000000002 1.0000000180025095e-35 0.60070754716981145 1.0000000180025095e-35 1.1742424242424245 1.5000000000000002 3.5000000000000004 3.5000000000000004 -1.0000000180025095e-35 16.500000000000004 30.500000000000004 47.500000000000007 0.7352534831998121 4.5000000000000009 1.0000000180025095e-35 4.5000000000000009 4.5000000000000009 13.500000000000002 1.4014718560159614 0.28301261635371383 10.04166666666667 13.500000000000002 72.500000000000014 0.94246417705755337 82.500000000000014 5.5000000000000009 6.5000000000000009 4.5000000000000009 225.50000000000003 1.5000000000000002
decision_type=2 2 2 2 2 2 2 2 2 2 2 2 2 2 2 2 2 2 2 2 2 2 2 2 2 2 2 2 2 2
left_child=1 5 4 6 9 8 13 11 17 -3 20 18 23 27 19 -6 -14 -1 -5 -8 -4 -15 -12 -7 -13 28 -16 -2 -9 -10
right_child=3 2 10 7 15 12 14 25 29 -11 22 24 16 21 26 -17 -18 -19 -20 -21 -22 -23 -24 -25 -26 -27 -28 -29 -30 -31
leaf_value=-0.095599418278384238 -0.032346298291457756 -0.053120731509233785 0.0097430969839325029 0.028315311390769992 -0.00037899857960030088 -0.064948875713024948 0.01783048908163231 0.090692034552074932 -0.037040431597220619 -0.010567783587282709 0.058794204054345704 0.081438166931985759 -0.034367662767021988 0.022000340883085064 0.063047735095824384 0.031519431200537108 0.017627534459828918 -0.080730533473383811 0.067293981795685714 0.051041179918731194 0.040565609474936232 0.052014679784621848 0.086327253004210458 -0.043372266942844753 0.10101723441859431 0.11254813191506122 0.086617600135090567 -0.00010768355761900687 0.10517955272998371 -0.016589794640772572
leaf_count=14390 383 7299 1028 728 2952 3403 585 1748 591 1862 1221 2888 879 1844 1432 1376 327 4205 1036 1566 867 617 1098 1230 1894 7075 1357 1013 3446 238
internal_value=0 -0.725511 -0.123063 1.1316 -0.385634 -1.15287 0.582478 1.39318 -1.28066 -0.635236 0.719776 1.12956 -0.731215 0.221726 0.865116 0.138788 -0.285792 -1.31802 0.734492 0.602484 0.343082 0.424392 1.02884 -0.847098 1.27573 1.53506 1.06707 -0.131748 1.43449 -0.451594
internal_count=70578 42966 17703 27612 13489 25263 8797 18815 19424 9161 4214 6546 5839 3857 4940 4328 1206 18595 1764 2151 1895 2461 2319 4633 4782 12269 2789 1396 5194 829
shrinkage=0.07


Tree=4
num_leaves=31
num_cat=0
split_feature=8 298 5 126 65 452 383 9 6 3 83 6 10 424 19 212 14 16 330 376 2 115 9 4 126 450 88 452 169 1
split_gain=12479.5 2410.77 880.209 836.03 374.369 300.29 210.005 156.774 136.781 130.818 81.6971 74.6454 66.156 59.0737 57.6315 44.6249 35.624 32.3934 30.1826 27.3857 19.0378 16.5081 15.8024 15.4196 14.558 12.5199 12.2817 9.21785 6.94092 2.17387
threshold=1.5000000000000002 1.0000000180025095e-35 1.0000000180025095e-35 6.5000000000000009 1.1742424242424245 1.5000000000000002 1.0000000180025095e-35 3.5000000000000004 1.0000000180025095e-35 -1.0000000180025095e-35 47.500000000000007 1.0000000180025095e-35 1.0000000180025095e-35 30.607692307692311 -3.4999999999999996 12.500000000000002 0.44095855184409849 1.0000000180025095e-35 13.500000000000002 1.4014718560159614 141.50000000000003 82.500000000000014 5.5000000000000009 6.5000000000000009 110.50000000000001 15.500000000000002 0.099277743012098477 4.5000000000000009 15.500000000000002 1.5000000000000002
decision_type=2 2 2 2 2 2 2 2 2 2 2 2 2 2 2 2 2 2 2 2 2 2 2 2 2 2 2 2 2 2
left_child=1 5 6 4 8 9 15 10 -3 18 19 17 27 26 -6 20 -14 -8 -1 -4 -2 -12 28 -13 -15 -17 -5 -7 -9 -11
right_child=2 3 7 13 14 12 11 22 -10 29 21 23 16 24 -16 25 -18 -19 -20 -21 -22 -23 -24 -25 -26 -27 -28 -29 -30 -31
leaf_value=-0.089128115725978313 0.0037918880558727107 -0.048394367554284452 0.026388084159955319 0.037697010183054484 -0.0074271001728617716 -0.078009554348432972 0.017768040634577403 0.082926638650371656 -0.010775295854885427 -0.034548578804545503 0.076753124456709662 0.059680498207987979 -0.04851343802935084 0.059403826059919652 0.024451327090808272 0.040886603330391041 -0.020321064327075429 0.050474785365618856 -0.067785053819688745 0.063108793605724245 -0.027655410359194856 0.095791493508220457 0.10728633344764416 0.081528243492647798 0.085899991785788818 0.01378980584565602 0.0021287049774478808 -0.056305214880863035 0.098883791753148376 -0.015461341825842818
leaf_count=16936 1141 7192 728 1008 1956 1138 1117 1201 2624 591 2888 1817 2162 1297 2546 694 1595 1392 1659 1036 552 1894 7075 1341 822 743 258 944 3993 238
internal_value=0 -0.68137 1.0682 -0.114803 -0.326204 -1.08703 0.544606 1.3211 -0.547091 -1.21014 1.06443 0.777219 -0.6845 0.788086 0.150395 0.127403 -0.522597 0.514853 -1.24618 0.687198 -0.0904914 1.20534 1.46057 0.986773 0.997978 0.387659 0.438478 -0.977639 1.36138 -0.421415
internal_count=70578 42966 27612 17703 14318 25263 8797 18815 9816 19424 6546 5667 5839 3385 4502 3130 3757 2509 18595 1764 1693 4782 12269 3158 2119 1437 1266 2082 5194 829
shrinkage=0.07


Tree=5
num_leaves=32
num_cat=0
split_feature=6 287 72 452 9 4 6 115 9 19 244 7 4 4 341 83 9 126 4 212 454 2 4 207 6 115 3 19 212 65 380
split_gain=10985.1 1634.29 1471.72 413.996 332.38 331.278 228.024 219.788 91.9381 82.5529 82.1294 79.1317 58.9467 54.8198 52.9819 51.4553 44.27 44.0854 33.9155 33.0801 30.4186 28.2736 24.9665 20.2602 18.3663 17.6559 11.5096 10.5006 4.20131 2.84171 1.83967
threshold=1.0000000180025095e-35 5.5000000000000009 57.500000000000007 1.5000000000000002 2.5000000000000004 2.5000000000000004 1.5000000000000002 1.0000000180025095e-35 1.5000000000000002 -8.4999999999999982 16.500000000000004 1.0000000180025095e-35 6.5000000000000009 4.5000000000000009 1.0000000180025095e-35 14.500000000000002 4.5000000000000009 82.500000000000014 5.5000000000000009 80.500000000000014 1.0000000180025095e-35 153.50000000000003 5.5000000000000009 0.24949054995903822 1.5000000000000002 1.5000000000000002 -5.4999999999999991 -11.499999999999998 3.5000000000000004 1.7321428571428574 2.5000000000000004
decision_type=2 2 2 2 2 2 2 2 2 2 2 2 2 2 2 2 2 2 2 2 2 2 2 2 2 2 2 2 2 2 2
left_child=1 3 4 14 7 10 12 8 -2 27 20 21 17 -11 26 -9 25 -4 24 -12 -3 -7 -13 -16 -6 -8 -1 -5 -14 -18 -20
right_child=2 5 6 9 18 11 16 15 -10 13 19 22 28 -15 23 -17 29 -19 30 -21 -22 -23 -24 -25 -26 -27 -28 -29 -30 -31 -32
leaf_value=-0.088263658902374961 -0.029868497631785503 -0.056097322113688099 0.050447710335128799 -0.071998908118148505 0.036302024339677233 0.011038996823264258 0.052469299373009474 0.012114626009454142 0.015026922862801006 -0.036619814953424742 -0.020031578062032745 0.025048230627983798 0.061352158834240299 0.0027379636607262605 -0.070971645299035838 0.047046852958196335 0.10281316065965736 0.080148826397865608 0.10365776241340935 0.019164310707083278 -0.025733855908712154 -0.018976052708059254 0.055665056595675652 -0.03104332359523581 0.071302290195965845 0.086578964029987229 -0.075623982288383004 -0.052045194009188805 0.086306845127283524 0.082874963808606733 0.076606193681785159
leaf_count=12578 3178 2100 4801 1029 684 2229 407 1615 1246 2932 2786 1428 293 900 4538 1803 7773 1394 441 491 1030 847 908 305 661 4983 2398 1827 2242 437 294
internal_value=0 -0.733032 0.884598 -1.01855 0.240779 -0.113954 1.18242 0.0524315 -0.243394 -0.583734 -0.424683 0.250508 0.924616 -0.389533 -1.16982 0.435928 1.35341 0.815259 0.968522 -0.200401 -0.659317 0.038154 0.529784 -0.978399 0.767219 1.20088 -1.23258 -0.848212 1.19427 1.4546 1.33731
internal_count=70578 38326 32252 26507 9922 11819 22330 7842 4424 6688 6407 5412 8730 3832 19819 3418 13600 6195 2080 3277 3130 3076 2336 4843 1345 5390 14976 2856 2535 8210 735
shrinkage=0.07


Tree=6
num_leaves=32
num_cat=0
split_feature=216 9 9 126 11 8 5 4 9 454 13 3 9 287 72 4 130 169 4 5 452 13 173 2 18 385 450 3 2 2 65
split_gain=9772.21 1403.75 1196.97 447.396 402.146 209.278 199.857 166.127 131.599 75.5531 72.0597 60.3036 58.4609 48.1601 47.46 35.9485 34.2704 32.398 30.8611 30.1032 28.7805 25.1717 20.5773 18.2478 12.5926 11.9034 11.0441 7.48311 7.48286 7.35789 5.52735
threshold=0.58397435897435912 1.5000000000000002 2.5000000000000004 11.500000000000002 1.5000000000000002 2.5000000000000004 1.0000000180025095e-35 1.5000000000000002 1.0000000180025095e-35 1.0000000180025095e-35 1.0954545454545457 -1.0000000180025095e-35 1.0000000180025095e-35 94.500000000000014 325.50000000000006 6.5000000000000009 0.83291032148900179 5.5000000000000009 5.5000000000000009 1.0000000180025095e-35 9.5000000000000018 1.9375000000000002 0.8709838709677421 281.50000000000006 22.500000000000004 0.082866545858231264 16.500000000000004 -6.4999999999999991 186.50000000000003 370.50000000000006 2.4500000000000006
decision_type=2 2 2 2 2 2 2 2 2 2 2 2 2 2 2 2 2 2 2 2 2 2 2 2 2 2 2 2 2 2 2
left_child=1 4 3 7 8 10 18 16 9 -1 23 -10 25 24 21 -12 -2 -9 22 27 -14 -8 -4 -3 -5 -6 -15 -7 -21 -20 -16
right_child=2 5 6 13 12 19 14 17 11 -11 15 -13 20 26 30 -17 -18 -19 29 28 -22 -23 -24 -25 -26 -27 -28 -29 -30 -31 -32
leaf_value=-0.082490419535621196 -0.018915306612611097 -0.013312549605048558 0.027346013267993012 0.059374135007490302 -0.047075629288317357 0.053860425295398008 0.083352150901674235 0.015230691223027384 -0.06007461203989381 -0.057092602223637691 0.0055236314738940154 -0.021120012363118858 -0.023364023495784671 0.089483593667904357 0.097065858000174907 0.043341687496310378 0.011992335109545541 0.03896793109876262 0.070540225795247213 0.059715007964066785 0.0062181281919454654 0.055930325523279707 0.055951582118583691 -0.045811005224891573 0.037620078245296527 -0.0087284252236099549 0.066728227689767106 0.0067951752367489083 0.099368321490205636 0.042658409739771905 0.069773530045073195
leaf_count=14044 3386 1640 1046 1038 2086 152 4042 2650 7973 3108 2488 909 1912 939 9372 627 876 2105 1936 222 958 994 1121 448 1504 197 1552 148 499 309 297
internal_value=0 -0.71584 0.817504 0.373469 -0.896985 0.155192 1.16345 0.108614 -1.00378 -1.11182 -0.00328733 -0.799594 -0.38318 0.868473 1.28475 0.189014 -0.17795 0.368081 0.781963 1.01376 -0.191189 1.11373 0.603383 -0.292653 0.667126 -0.626796 1.07962 0.452854 1.2548 0.955864 1.37532
internal_count=70578 37411 33167 14050 31187 6224 19117 9017 26034 17152 5203 8882 5153 5033 14705 3115 4262 4755 4412 1021 2870 5036 2167 2088 2542 2283 2491 300 721 2245 9669
shrinkage=0.07


Tree=7
num_leaves=32
num_cat=0
split_feature=216 10 9 115 8 5 10 10 14 72 5 259 452 72 452 130 298 8 4 4 5 13 173 338 83 19 18 2 3 19 65
split_gain=8603.04 1382.48 1094.16 397.204 257.145 191.545 147.561 143.54 126.157 84.7025 81.9883 52.5825 50.5593 46.7426 45.9717 38.6873 37.7647 31.2929 28.237 28.1539 27.8493 23.5751 18.399 15.2359 10.8503 10.258 8.84564 7.0978 6.55575 5.67991 5.40801
threshold=0.58397435897435912 1.5000000000000002 2.5000000000000004 16.500000000000004 2.5000000000000004 1.0000000180025095e-35 1.0000000180025095e-35 1.5000000000000002 0.29509323958628836 19.500000000000004 1.0000000180025095e-35 0.50268817204301086 1.0000000180025095e-35 325.50000000000006 9.5000000000000018 0.83291032148900179 101.50000000000001 1.0000000180025095e-35 4.5000000000000009 6.5000000000000009 1.0000000180025095e-35 1.9375000000000002 0.8709838709677421 0.0032599858654239577 1.5000000000000002 -11.499999999999998 22.500000000000004 186.50000000000003 -6.4999999999999991 -1.4999999999999998 2.4500000000000006
decision_type=2 2 2 2 2 2 2 2 2 2 2 2 2 2 2 2 2 2 2 2 2 2 2 2 2 2 2 2 2 2 2
left_child=1 6 3 7 8 19 12 15 11 10 -8 -3 24 21 -10 -2 23 -11 -9 22 28 -7 -4 -5 -1 -14 -18 -22 -6 -21 -15
right_child=2 4 5 16 20 13 9 18 14 17 -12 -13 25 30 -16 -17 26 -19 -20 29 27 -23 -24 -25 -26 -27 -28 -29 -30 -31 -32
leaf_value=-0.085393742279743043 -0.015830623870559196 -0.037542633893789971 0.029280894269865944 0.035689523192885139 0.050647923075745581 0.079588451712306066 -0.065783311758970578 0.021377420799663368 -0.0029317149960007591 -0.045603774530095488 -0.021209329029649757 -0.0064404113480883325 -0.068303894368683282 0.093465467013230927 0.027752387089014067 0.013870788412426276 0.088285532490833624 -0.018559712609177364 0.053745970835807191 0.05058027645235879 0.056552456727066207 0.052826606149194398 0.053899929633232264 0.059814855410766046 -0.073352259998912414 -0.049744588100884016 0.065618069740691717 0.095525381021448613 0.0063340946782060948 0.072598909820241531 0.066376543864420975
leaf_count=6537 3681 2887 1292 1331 152 4042 9516 3937 2641 2922 929 1767 1587 9372 1502 1118 776 1309 649 503 222 994 1374 1092 3281 1512 1466 499 148 1243 297
internal_value=0 -0.675791 0.774282 0.35004 -0.0292357 1.11097 -0.919912 0.11543 -0.137153 -0.777987 -0.880151 -0.366221 -1.08635 1.23231 0.115968 -0.126099 0.849637 -0.531653 0.371664 0.736272 0.964402 1.0612 0.600035 0.66761 -1.16328 -0.848103 1.05327 1.20116 0.424967 0.947776 1.32383
internal_count=70578 37411 33167 14050 9818 19117 27593 9385 8797 14676 10445 4654 12917 14705 4143 4799 4665 4231 4586 4412 1021 5036 2666 2423 9818 3099 2242 721 300 1746 9669
shrinkage=0.07


Tree=8
num_leaves=32
num_cat=0
split_feature=216 10 9 126 8 5 10 10 14 373 5 298 452 259 9 19 169 4 5 8 164 158 18 173 374 19 2 9 158 3 15
split_gain=7582.22 1236.48 1003.79 354.634 227.758 184.389 139.025 128.694 109.628 73.7651 74.9308 54.2549 48.2102 46.0551 45.5187 41.0592 29.3783 26.424 25.8855 25.4576 23.923 21.217 19.9044 16.505 10.4581 9.42543 8.64817 7.04406 6.92153 5.74863 4.904
threshold=0.58397435897435912 1.5000000000000002 2.5000000000000004 7.5000000000000009 2.5000000000000004 1.0000000180025095e-35 1.0000000180025095e-35 1.5000000000000002 0.29509323958628836 18.500000000000004 1.0000000180025095e-35 43.500000000000007 1.0000000180025095e-35 0.56330128205128216 4.5000000000000009 -3.4999999999999996 12.500000000000002 5.5000000000000009 1.0000000180025095e-35 1.0000000180025095e-35 0.022882253942529459 59.500000000000007 22.500000000000004 0.8709838709677421 29.500000000000004 -11.499999999999998 51.500000000000007 4.5000000000000009 9.5000000000000018 -6.4999999999999991 -2.3900118906064209
decision_type=2 2 2 2 2 2 2 2 2 2 2 2 2 2 2 2 2 2 2 2 2 2 2 2 2 2 2 2 2 2 2
left_child=1 6 3 7 8 17 12 20 13 10 -8 26 24 -3 21 -10 -9 23 29 -11 -2 -7 -13 -4 -1 -14 -5 -20 -19 -6 -16
right_child=2 4 5 11 18 14 9 16 15 19 -12 22 25 -15 30 -17 -18 28 27 -21 -22 -23 -24 -25 -26 -27 -28 -29 -30 -31 -32
leaf_value=-0.079874429606392336 -0.020353810121277634 -0.035007474670367529 0.023583874339913349 0.04161038583012442 0.047662857648949966 0.060630969647859051 -0.062202105237035912 0.014715839316498995 -0.0071550446800595149 -0.042930460502449246 -0.019500692220737335 0.07797961152695479 -0.064864748604450254 -0.0057688472993457441 0.058610114771783281 0.020770145572707982 0.040462406329877729 0.051267475085816402 0.054672204563128081 -0.018406000114049737 0.00066881960380971042 0.080483028001038417 0.053964125883841245 0.049443030040793215 -0.062043351701566836 -0.046904272558641158 0.021018737377910816 0.092917898143678443 0.070184980033917904 0.0059043000104252018 0.090622256523583175
leaf_count=8722 2557 2913 1046 990 152 2384 9533 2822 1946 2897 929 1340 1587 1741 204 2197 1347 1212 233 1317 1793 3222 2321 1121 1096 1512 880 488 1033 148 8895
internal_value=0 -0.638561 0.734141 0.328188 -0.0270774 1.06283 -0.872933 0.0748668 -0.12792 -0.734575 -0.830777 0.744073 -1.03688 -0.342056 1.18466 0.107883 0.32933 0.693902 0.918894 -0.503096 -0.165591 1.028 0.898235 0.528058 -1.11332 -0.802711 0.459213 1.15235 0.858118 0.399007 1.28504
internal_count=70578 37411 33167 14050 9818 19117 27593 8519 8797 14676 10462 5531 12917 4654 14705 4143 4169 4412 1021 4214 4350 5606 3661 2167 9818 3099 1870 721 2245 300 9099
shrinkage=0.07


Tree=9
num_leaves=31
num_cat=0
split_feature=6 10 83 70 8 6 255 83 255 13 452 10 397 9 5 115 336 2 288 8 452 4 380 2 3 216 0 71 65 452
split_gain=6714.48 1142.24 1004.66 220.355 206.912 204.679 159.354 132.993 123.279 68.7748 60.8336 53.6983 48.7062 45.7722 44.6274 41.94 36.5779 21.0587 18.9218 17.3711 17.261 17.1226 16.8399 16.4574 14.9122 14.3027 9.68482 5.07808 4.38851 1.14012
threshold=1.0000000180025095e-35 1.5000000000000002 47.500000000000007 3.5000000000000004 2.5000000000000004 1.5000000000000002 1.5000000000000002 7.5000000000000009 10.500000000000002 1.3875000000000002 4.5000000000000009 3.5000000000000004 1.0000000180025095e-35 4.5000000000000009 1.0000000180025095e-35 108.50000000000001 0.4990874912099047 35.500000000000007 3.5000000000000004 4.5000000000000009 4.5000000000000009 2.5000000000000004 -10.499999999999998 153.50000000000003 -5.4999999999999991 0.8569101907864124 15.500000000000002 -3.4999999999999996 1.7321428571428574 10.500000000000002
decision_type=2 2 2 2 2 2 2 2 2 2 2 2 2 2 2 2 2 2 2 2 2 2 2 2 2 2 2 2 2 2
left_child=1 3 4 20 7 11 10 16 9 -5 18 15 21 22 -9 -4 -2 -14 -3 27 24 -8 -7 -12 -1 -10 -13 -6 -15 -22
right_child=2 6 5 8 19 13 12 14 25 -11 23 26 17 28 -16 -17 -18 -19 -20 -21 29 -23 -24 -25 -26 -27 -28 -29 -30 -31
leaf_value=-0.077862354107728085 -0.024455280908918541 -0.044319045805781436 0.033418861979144301 -0.056798581824060002 0.080466135338628939 0.050986478970456293 -0.0094510465380005914 0.0012732648310185371 -0.025044340236697962 -0.028174247916115704 0.0034311730790167463 0.066768376267306237 0.041298217453554519 0.089577533029161341 0.03230335282067149 0.068111233046578859 0.0070197065582528386 0.015363633232717458 -0.016474836753061883 0.092088000074687468 -0.050285628220978852 0.010465829204886777 0.073992093854027718 -0.024553605531648204 -0.062906914994983507 -0.0018930737573198601 0.044394833296582441 0.047191058705353069 0.067781427312436263 -0.026483397891021318
leaf_count=8972 2855 1906 3665 11280 160 1040 1541 1493 1490 2126 1510 3749 1171 7793 2549 1021 970 1473 726 388 321 1900 4463 565 2316 880 629 1032 445 149
internal_value=0 -0.585099 0.721659 -0.822354 0.16911 0.976913 -0.0352729 0.03923 -0.66265 -0.743319 -0.316215 0.734918 0.17901 1.15265 0.296218 0.5794 -0.231546 0.385677 -0.523946 0.87845 -1.05026 0.0203948 0.995051 -0.0581815 -1.06854 -0.234638 0.909079 0.744247 1.2635 -0.623921
internal_count=70578 38326 32252 27534 9447 22805 10792 7867 15776 13406 4707 9064 6085 13741 4042 4686 3825 2644 2632 1580 11758 3441 5503 2075 11288 2370 4378 1192 8238 470
shrinkage=0.07


Tree=10
num_leaves=29
num_cat=0
split_feature=6 10 83 6 70 9 66 130 244 244 10 13 10 9 19 126 1 5 380 4 2 290 422 373 246 2 9 18
split_gain=5895.97 1011.71 958.88 226.387 223.039 161.443 139.311 113.61 93.862 74.4806 65.3292 62.2285 50.1614 42.3065 38.4633 37.2598 26.8289 23.3508 22.7345 20.7754 20.4514 19.9132 18.3934 18.3102 15.8747 13.0362 12.4021 10.9325
threshold=1.0000000180025095e-35 1.5000000000000002 43.500000000000007 1.5000000000000002 3.5000000000000004 1.5000000000000002 0.28301261635371383 0.50373134328358227 16.500000000000004 20.500000000000004 5.5000000000000009 1.3875000000000002 3.5000000000000004 5.5000000000000009 -3.4999999999999996 18.500000000000004 2.5000000000000004 1.0000000180025095e-35 -6.4999999999999991 5.5000000000000009 23.500000000000004 11.500000000000002 52.500000000000007 13.500000000000002 3.5000000000000004 326.50000000000006 1.0000000180025095e-35 12.500000000000002
decision_type=2 2 2 2 2 2 2 2 2 2 2 2 2 2 2 2 2 2 2 2 2 2 2 2 2 2 2 2
left_child=1 4 5 12 26 7 9 23 11 20 17 -6 15 18 21 -4 -9 -7 -5 -16 -3 -8 -10 -2 -11 -14 -1 -28
right_child=2 6 3 13 8 10 14 16 22 24 -12 -13 25 -15 19 -17 -18 -19 -20 -21 -22 -23 -24 -25 -26 -27 27 -29
leaf_value=-0.074631733666535402 -0.029828532784053181 -0.014388742072659975 0.025703532614979905 0.048842300720295162 -0.053007230731878754 0.007646219382338241 -0.0057726144190758276 0.021921237299150277 -0.02755403577821797 -0.0056395746642886289 0.084454730901725575 -0.025904845220334195 0.062525635275580735 0.087894924655258527 0.01491325627359732 0.051656809221271326 -0.038069848317111264 0.033794298857056537 0.073589851952868879 0.040212773485796674 -0.03498193589232812 0.048856012881751329 -0.0001481209242390494 -0.0026133111550637822 0.018517183956955514 0.036546512115123365 -0.078984569368756322 -0.055291498699719763
leaf_count=8897 2554 1651 2700 1141 11493 1086 1445 2061 1125 1211 517 2159 3818 6387 1456 2251 153 2115 6320 1283 2664 140 920 641 952 594 746 2098
internal_value=0 -0.560223 0.674949 0.922491 -0.787964 0.121735 -0.0439422 -0.0991957 -0.626293 -0.232619 0.457705 -0.692248 0.67306 1.11204 0.235796 0.528539 0.25064 0.353496 0.99593 0.382265 -0.388248 -0.00925609 -0.219037 -0.347095 0.0691883 0.844704 -1.02124 -0.881835
internal_count=70578 38240 32338 23211 27438 9127 10802 5409 15697 6478 3718 13652 9363 13848 4324 4951 2214 3201 7461 2739 4315 1585 2045 3195 2163 4412 11741 2844
shrinkage=0.07


Tree=11
num_leaves=31
num_cat=0
split_feature=8 298 5 126 452 383 9 383 3 212 72 212 423 6 423 18 216 332 10 3 4 0 2 2 2 2 169 75 18 3
split_gain=5305.52 1118.58 537.215 311.392 207.282 149.361 132.298 89.7611 67.2138 64.793 59.0448 50.6219 46.5265 46.3375 33.702 28.4822 27.1488 24.409 21.5753 20.0749 19.7828 16.9123 16.1921 13.6579 13.351 13.1043 11.3426 11.0128 8.53531 7.46507
threshold=1.5000000000000002 1.0000000180025095e-35 1.0000000180025095e-35 2.5000000000000004 3.5000000000000004 1.0000000180025095e-35 3.5000000000000004 1.0000000180025095e-35 -1.4999999999999998 11.500000000000002 13.500000000000002 46.500000000000007 28.500000000000004 1.0000000180025095e-35 13.500000000000002 14.500000000000002 0.70044313146233395 1.5000000000000002 7.5000000000000009 -7.4999999999999991 2.5000000000000004 17.500000000000004 607.50000000000011 1412.5000000000002 290.50000000000006 192.50000000000003 23.500000000000004 1.0000000180025095e-35 22.500000000000004 -1.0000000180025095e-35
decision_type=2 2 2 2 2 2 2 2 2 2 2 2 2 2 2 2 2 2 2 2 2 2 2 2 2 2 2 2 2 2
left_child=1 4 7 5 8 9 11 14 10 -3 -1 23 22 19 24 17 -7 -6 26 -9 -17 -16 -5 -4 -2 -15 -8 -13 -14 -10
right_child=2 3 6 12 15 16 18 13 29 -11 -12 27 28 25 21 20 -18 -19 -20 -21 -22 -23 -24 -25 -26 -27 -28 -29 -30 -31
leaf_value=-0.067990295975583634 -0.001381563559855686 -0.030324251693699927 0.037175769610620878 0.02057701069713623 -0.040409592269419564 0.0028315582401212129 0.059257088502428557 0.029383160590076216 -0.042232736060190595 -0.0029550929851134846 -0.048940604217702285 0.051026021001753491 0.06207010603920364 0.052501431024727957 0.035501414167062852 -0.029005020406838198 0.03246082295048331 0.0011990979280025213 0.086428639323521295 0.0017525308691673798 0.0024646446680943795 0.0034885359798274337 -0.01901975042855068 -0.0071049300919587607 -0.031426349058078125 0.028010796337536854 0.076305107858636506 0.069067831257000903 0.039413216032967824 -0.020195362643042954
leaf_count=14305 1369 8001 2276 1761 2040 2611 1656 1695 691 2245 5426 1637 721 2494 758 668 824 324 5890 802 1023 622 226 144 378 698 4759 2509 1212 813
internal_value=0 -0.463808 0.748815 -0.0760861 -0.766233 -0.219093 0.976289 0.340381 -0.857394 -0.344763 -0.893742 0.731363 0.444279 0.499922 0.0677947 -0.339139 0.141996 -0.49034 1.12431 0.292541 -0.135342 0.304622 0.226436 0.491184 -0.115644 0.675012 1.02613 0.886432 0.686696 -0.428066
internal_count=70578 42891 27687 17601 25290 13681 18871 8816 21235 10246 19731 6566 3920 5689 3127 4055 3435 2364 12305 2497 1691 1380 1987 2420 1747 3192 6415 4146 1933 1504
shrinkage=0.07


Tree=12
num_leaves=31
num_cat=0
split_feature=8 298 5 115 452 383 9 383 3 244 72 212 6 424 423 10 216 9 3 293 381 70 65 2 2 18 2 2 115 3
split_gain=4692.9 1004.86 502.793 276.612 191.754 131.285 130.695 79.3509 62.8525 60.9235 56.5887 47.6892 41.8066 41.3357 29.3067 25.3512 23.7966 22.1933 17.5268 16.0912 14.1053 13.5844 13.3429 12.3322 12.0905 12.049 11.832 11.5521 9.21077 6.74476
threshold=1.5000000000000002 1.0000000180025095e-35 1.0000000180025095e-35 2.5000000000000004 3.5000000000000004 1.0000000180025095e-35 3.5000000000000004 1.0000000180025095e-35 -1.4999999999999998 19.500000000000004 13.500000000000002 46.500000000000007 1.0000000180025095e-35 28.966666666666669 13.500000000000002 1.5000000000000002 0.70044313146233395 5.5000000000000009 -7.4999999999999991 0.3682624810251432 -1.0000000180025095e-35 15.500000000000002 3.8750000000000004 607.50000000000011 1412.5000000000002 13.500000000000002 192.50000000000003 290.50000000000006 172.50000000000003 -1.0000000180025095e-35
decision_type=2 2 2 2 2 2 2 2 2 2 2 2 2 2 2 2 2 2 2 2 2 2 2 2 2 2 2 2 2 2
left_child=1 4 7 5 8 9 11 14 10 -3 -1 24 18 23 27 25 -7 21 -9 -16 -17 -8 -13 -5 -4 -6 -14 -2 -15 -10
right_child=2 3 6 13 15 16 17 12 29 -11 -12 22 26 28 19 20 -18 -19 -20 -21 -22 -23 -24 -25 -26 -27 -28 -29 -30 -31
leaf_value=-0.065247532625840196 -0.0012850655518431202 -0.030381535542993051 0.034934701291532741 0.017476588078065836 -0.039272193062795696 0.0025589189506784464 0.033005658508108916 0.027500956405675823 -0.039943783309041275 -0.0063695307643710144 -0.04639926630005492 0.061238577519520353 0.049759296472580726 0.037655902407662756 0.039629755019759065 0.007142525330781308 0.030368515176645582 0.082960351116144262 0.001630826359290834 0.0075454961421242842 -0.022352022095564299 0.07007169163277828 0.01377525566508646 -0.018632986778085104 -0.0066108601963802433 -0.018855947445897307 0.026310782359543046 -0.029250691561646953 0.063295225747354342 -0.018851442981937069
leaf_count=14305 1369 7057 2276 1531 1582 2607 309 1695 691 3147 5426 3976 2494 1730 519 714 824 7061 802 861 576 4935 170 205 144 1183 698 378 500 813
internal_value=0 -0.438126 0.713822 -0.0710453 -0.729337 -0.206924 0.939311 0.319102 -0.818815 -0.325602 -0.854739 0.694499 0.470362 0.418 0.0630461 -0.317745 0.131659 1.09031 0.273402 0.284318 -0.0827178 0.969476 0.847818 0.185286 0.461117 -0.434979 0.638598 -0.107783 0.618802 -0.402091
internal_count=70578 42891 27687 17601 25290 13635 18871 8816 21235 10204 19731 6566 5689 3966 3127 4055 3431 12305 2497 1380 1290 5244 4146 1736 2420 2765 3192 1747 2230 1504
shrinkage=0.07


Tree=13
num_leaves=32
num_cat=0
split_feature=212 10 9 126 126 6 10 452 425 452 3 7 1 13 70 1 4 126 2 13 9 397 251 2 298 452 396 6 80 14 452
split_gain=4114.23 776.336 646.14 190.747 139.628 134.17 130.559 67.6094 63.2826 60.5579 72.7124 41.2924 38.7934 38.1505 36.213 35.8444 30.4645 24.7772 22.8474 21.0466 19.0584 18.349 17.2985 13.2152 11.3248 11.0589 10.2593 5.70945 4.63971 2.82765 2.34156
threshold=2.5000000000000004 1.5000000000000002 2.5000000000000004 15.500000000000002 1.5000000000000002 1.0000000180025095e-35 1.0000000180025095e-35 6.5000000000000009 6.3705015936242964 1.5000000000000002 -3.4999999999999996 2.5000000000000004 2.5000000000000004 2.291666666666667 3.5000000000000004 1.0000000180025095e-35 6.5000000000000009 110.50000000000001 189.50000000000003 4.416666666666667 5.5000000000000009 0.7167949692216633 0.016543685998864795 37.500000000000007 69.500000000000014 4.5000000000000009 1.4500000000000002 1.0000000180025095e-35 0.0039732100370799871 0.51046137930191782 5.5000000000000009
decision_type=2 2 2 2 2 2 2 2 2 2 2 2 2 2 2 2 2 2 2 2 2 2 2 2 2 2 2 2 2 2 2
left_child=1 6 3 8 16 7 14 15 12 10 -8 19 -2 20 30 -3 23 22 -10 -7 -6 -9 -5 -4 -15 -16 -11 -18 -19 -13 -1
right_child=2 5 4 17 13 11 9 21 18 26 -12 29 -14 24 25 -17 27 28 -20 -21 -22 -23 -24 -25 -26 -27 -28 -29 -30 -31 -32
leaf_value=-0.067502865148596033 -0.0010245823780403473 -0.005704783028549992 0.042577007787693404 0.025588590205799941 0.067217617409882177 0.027499608911707097 -0.052237029442060365 -0.0027147392483495682 0.028846654017956174 -0.025318366241145078 -0.0285278362225228 0.047637873694020637 -0.05174874974110874 0.0029140959534151669 -0.052532224566063448 -0.029244208792683808 0.038735716493354451 0.048360334131282427 0.00063370791833119544 -0.014745349938565928 0.081284525767987253 0.020094970943300046 0.04915409485155902 0.022572141404629084 0.048064475586777677 -0.031420252831840002 -0.0064642049003400962 0.060948186336370849 0.069804527642474121 0.085869067392577311 -0.038334134041084759
leaf_count=7290 4936 2476 1505 1880 6358 1709 7655 1367 2293 1630 4978 164 320 203 4692 2915 444 737 822 264 6240 1402 1264 1656 480 774 1051 1792 810 329 142
internal_value=0 -0.471133 0.591028 0.250172 0.883194 -0.00780438 -0.673071 -0.129569 0.0738247 -0.541202 -0.606976 0.429661 -0.0600831 1.0236 -0.846715 -0.263848 0.594451 0.611643 0.306579 0.305404 1.05578 0.124526 0.501297 0.460086 0.491914 -0.705905 -0.256862 0.802257 0.856559 1.06105 -0.956631
internal_count=70578 38838 31740 13062 18678 10626 28212 8160 8371 15314 12633 2466 5256 13281 12898 5391 5397 4691 3115 1973 12598 2769 3144 3161 683 5466 2681 2236 1547 493 7432
shrinkage=0.07


Tree=14
num_leaves=31
num_cat=0
split_feature=8 298 5 130 452 9 72 3 383 126 74 72 173 10 19 424 374 10 14 293 452 404 79 169 81 2 351 75 3 2
split_gain=3692.82 821.428 443.739 218.299 166.086 125.863 108.837 63.5402 63.31 42.3414 37.6397 35.3264 34.7786 33.4312 32.0707 29.9568 25.6756 23.8925 18.8599 16.5568 15.2787 14.8279 14.0613 12.196 10.3611 9.43861 8.65543 7.12879 6.33291 5.04887
threshold=1.5000000000000002 1.0000000180025095e-35 1.0000000180025095e-35 0.78580424613170219 1.5000000000000002 3.5000000000000004 42.500000000000007 -1.4999999999999998 1.0000000180025095e-35 39.500000000000007 4.5000000000000009 13.500000000000002 0.86161378401280497 1.0000000180025095e-35 -3.4999999999999996 28.966666666666669 10.500000000000002 7.5000000000000009 1.1670049697357239 0.3682624810251432 5.5000000000000009 2.1276151179433684 0.061274300363170268 23.500000000000004 0.78271848924022858 300.50000000000006 1.5000000000000002 1.0000000180025095e-35 -1.0000000180025095e-35 14.500000000000002
decision_type=2 2 2 2 2 2 2 2 2 2 2 2 2 2 2 2 2 2 2 2 2 2 2 2 2 2 2 2 2 2
left_child=1 4 8 6 7 9 10 11 16 21 -3 -1 20 29 -8 22 25 23 -15 -18 -10 -4 -5 -7 -17 -2 -14 -11 -9 -6
right_child=2 3 5 15 13 17 14 28 12 27 -12 -13 26 18 -16 24 19 -19 -20 -21 -22 -23 -24 -25 -26 -27 -28 -29 -30 -31
leaf_value=-0.061094224067026817 -0.0031890142344635124 -0.028378263305380715 0.0289511078353916 0.0063342789384468233 -0.026881809706018413 0.051286303166288391 -0.0097937132692681797 -0.036216920277394822 0.0047600375057890807 0.04765259448510429 0.0028015059993758158 -0.043947272574655097 0.039377796444582239 -0.022595934386809114 0.010731821068676468 0.04258254171836727 0.034281772235468848 0.080690858210234639 0.0010728751326869112 0.0043525652315236007 0.026444669050189596 0.054746735705662387 0.036498525524508794 0.069440195655490811 0 -0.03047398102608774 0.070517619149432942 0.066982323160716423 -0.015694806057302491 -0.045956636500420513
leaf_count=13798 1197 6617 3043 1393 584 1656 2881 691 1038 1080 884 4177 2263 2862 3295 1966 626 5890 873 977 2108 697 420 4759 145 327 280 1746 813 1492
internal_value=0 -0.39197 0.650462 -0.0605227 -0.663404 0.872811 -0.180751 -0.771379 0.280412 0.63005 -0.350664 -0.813067 0.417746 -0.354568 0.0164414 0.380731 0.0519788 1.02914 -0.239296 0.232287 0.273704 0.481354 0.191942 0.92246 0.566228 -0.132619 0.614058 0.85331 -0.352086 -0.58314
internal_count=70578 42891 27687 17601 25290 18871 13677 19479 8816 6566 7501 17975 5689 5811 6176 3924 3127 12305 3735 1603 3146 3740 1813 6415 2111 1524 2543 2826 1504 2076
shrinkage=0.07


Tree=15
num_leaves=30
num_cat=0
split_feature=6 8 10 83 70 66 8 87 255 13 126 246 126 4 1 1 5 450 4 5 18 378 2 18 3 117 247 0 2
split_gain=3293 658.988 654.023 217.963 166.606 76.6841 73.1209 54.1316 49.3011 53.329 47.8213 38.5304 34.2125 24.3982 23.8958 23.0125 21.7909 21.396 18.2538 14.956 12.9628 12.5061 11.2029 8.9246 7.29638 7.03839 6.35245 3.82738 0.28416
threshold=1.0000000180025095e-35 2.5000000000000004 1.5000000000000002 27.500000000000004 4.5000000000000009 0.28301261635371383 4.5000000000000009 0.71432996990617814 42.500000000000007 1.4722222222222225 83.500000000000014 2.5000000000000004 10.500000000000002 5.5000000000000009 2.5000000000000004 1.0000000180025095e-35 1.0000000180025095e-35 16.500000000000004 6.5000000000000009 1.0000000180025095e-35 16.500000000000004 -0.57225627033005499 363.50000000000006 22.500000000000004 -3.4999999999999996 8.5000000000000018 2.5000000000000004 18.500000000000004 1282.5000000000002
decision_type=2 2 2 2 2 2 2 2 2 2 2 2 2 2 2 2 2 2 2 2 2 2 2 2 2 2 2 2 2
left_child=2 3 4 7 20 11 12 19 9 -6 15 14 18 21 -4 -5 -9 -13 -3 -2 24 -7 -15 -12 -1 -14 -10 -22 -8
right_child=1 6 5 10 8 13 28 16 26 -11 23 17 25 22 -16 -17 -18 -19 -20 -21 27 -23 -24 -25 -26 -27 -28 -29 -30
leaf_value=-0.06211104404704313 -0.03327972392647581 0.036655818351168448 -0.014041327485491558 0.036167313903605371 -0.040398355579922066 -0.01838673662091006 0.078073861047740403 -0.0054214868992865754 -0.011804933315197262 -0.015209561952057107 0.070618116471894019 0.025827552376054014 0.058508610785242943 0.030134998411391108 -0.057040237751930976 0.018199480776286043 0.015909606974520134 -0.01108482433388149 0.057182189234046797 -0.0097680634770464202 -0.030344407265834681 0.0086848307491334993 -0.00096254621004244491 0.046041500885293352 -0.041913649714818715 0.07384058438832268 0.011154887327865638 -0.050634674948799842 0.056318249579446485
leaf_count=10046 1090 3003 4913 3207 12014 399 6566 1571 731 2206 741 770 3364 1653 288 3365 2436 512 2040 1354 556 2064 258 1425 667 1869 354 863 253
internal_value=0 0.541314 -0.425375 0.241135 -0.624337 -0.0139425 0.890516 -0.0369439 -0.478601 -0.51549 0.471839 -0.155853 0.769266 0.193155 -0.235557 0.385494 0.10565 0.154711 0.636204 -0.283092 -0.838661 0.0592953 0.3685 0.779534 -0.869272 0.915586 -0.0575544 -0.613897 1.10547
internal_count=70578 32284 38294 15189 27437 10857 17095 6451 15305 14220 8738 6483 10276 4374 5201 6572 4007 1282 5043 2444 12132 2463 1911 2166 10713 5233 1085 1419 6819
shrinkage=0.07


Tree=16
num_leaves=29
num_cat=0
split_feature=8 302 8 130 4 115 63 3 66 201 19 8 337 380 19 389 18 2 3 4 70 13 65 2 126 1 210 2
split_gain=2933.74 655.758 379.528 197.342 162.281 157.742 81.499 64.6081 48.5226 40.8098 30.2991 25.5762 25.4688 23.0307 20.0357 19.7138 17.6829 17.6435 16.5137 15.7724 13.7432 12.2277 11.5994 11.3848 10.1939 6.84911 5.53243 0.354289
threshold=1.5000000000000002 1.0000000180025095e-35 3.5000000000000004 0.78580424613170219 1.5000000000000002 1.5000000000000002 1.5000000000000002 -1.0000000180025095e-35 0.2723056700125196 14.500000000000002 -3.4999999999999996 4.5000000000000009 0.018712234501708187 21.500000000000004 -10.499999999999998 45.03846153846154 19.500000000000004 514.50000000000011 -8.4999999999999982 6.5000000000000009 3.5000000000000004 3.291666666666667 2.291666666666667 195.50000000000003 44.500000000000007 1.5000000000000002 0.70153160897085265 1282.5000000000002
decision_type=2 2 2 2 2 2 2 2 2 2 2 2 2 2 2 2 2 2 2 2 2 2 2 2 2 2 2 2
left_child=1 4 5 6 7 8 9 20 16 -3 14 24 15 23 -6 -5 -2 -8 -12 -10 -1 -14 -15 -7 26 -9 -4 -13
right_child=2 3 11 12 10 13 17 25 19 -11 18 27 21 22 -16 -17 -18 -19 -20 -21 -22 -23 -24 -25 -26 -27 -28 -29
leaf_value=-0.056459388457709696 0.016013195377389003 -0.025006707666606023 0.053735516598446796 0.010688059683402487 -0.04183340540112896 0.042669477018135941 0.0070270186980388718 -0.019323620164920608 0.021318400644004042 -0.0023935642603938605 0.015526650503365734 0.076434200682015396 0.051161647402630149 0.062270350994884177 -0.021092613966016891 0.041139639225707979 -0.00058948834302798264 -0.022483559317010956 -0.035453795874505999 0.041427487358797893 -0.045973052592074792 0.0076586766367309307 0.038396609919597868 0.018053062857164463 0.070304028907591562 0.0087885380141380174 0.018558948217730093 0.054381578848503379
leaf_count=11815 2505 7231 3009 1992 1609 2174 3961 576 2386 2146 585 6566 1034 3017 4472 714 2703 443 161 1586 5779 190 832 679 1752 234 174 253
internal_value=0 -0.347211 0.600895 -0.0530454 -0.59806 0.399948 -0.166674 -0.720916 0.232571 -0.27914 -0.320687 0.968983 0.371124 0.684212 -0.374135 0.254841 0.104966 0.0567304 0.0587053 0.415346 -0.755757 0.635043 0.813271 0.528515 0.830555 -0.154 0.742026 1.08179
internal_count=70578 42942 27636 17711 25231 15882 13781 18404 9180 9377 6827 11754 3930 6702 6081 2706 5208 4404 746 3972 17594 1224 3849 2853 4935 810 3183 6819
shrinkage=0.07


Tree=17
num_leaves=31
num_cat=0
split_feature=6 8 454 83 9 9 8 255 396 5 87 115 383 65 4 83 2 18 1 7 71 452 134 2 87 2 13 452 9 117
split_gain=2595.96 567.842 528.037 172.544 116.172 100.146 73.19 42.9507 42.8319 40.8278 40.7096 32.1054 22.2137 21.682 21.1475 20.4524 20.0239 16.8626 15.6053 15.3946 14.291 13.867 12.2249 10.836 6.93594 6.47797 5.36658 4.92054 0.639091 0.764622
threshold=1.0000000180025095e-35 2.5000000000000004 1.0000000180025095e-35 27.500000000000004 1.0000000180025095e-35 1.0000000180025095e-35 4.5000000000000009 43.500000000000007 2.354166666666667 1.0000000180025095e-35 0.71432996990617814 43.500000000000007 31.447758664161217 4.5833333333333348 6.5000000000000009 3.5000000000000004 133.50000000000003 12.500000000000002 1.0000000180025095e-35 1.0000000180025095e-35 -10.499999999999998 4.5000000000000009 2.5000000000000004 23.500000000000004 0.97714890492172368 432.50000000000006 2.2250000000000005 1.5000000000000002 5.5000000000000009 1.0000000180025095e-35
decision_type=2 2 2 2 2 2 2 2 2 2 2 2 2 2 2 2 2 2 2 2 2 2 2 2 2 2 2 2 2 2
left_child=2 3 4 10 15 20 11 17 16 12 22 14 -5 -11 -3 27 -7 -6 -12 -10 21 -4 -2 -22 -9 -17 -13 -1 29 -8
right_child=1 6 5 9 7 8 28 24 19 13 18 26 -14 -15 -16 25 -18 -19 -20 -21 23 -23 -24 -25 -26 -27 -28 -29 -30 -31
leaf_value=-0.058830818981840997 -0.020639083605534791 0.035912187328373951 -0.044698591861163033 0.0077390079763470241 -0.046606657077960224 -0.001385930646929865 0.049788334320411035 0.0082552366863687301 0.0048524077373173179 0.040423429528087862 0.015860529201186354 0.066540997977099489 0.037768354192126111 0.0040541285323397423 0.055606082876360388 -0.040785529610999793 -0.02212070997447704 -0.029576716062156831 -0.0018557777930405214 0.021075767349534105 -0.0047418354810413212 -0.014977541118192455 0.014569457498630509 -0.023900786712411932 -0.015445203045203502 -0.059354478274259166 0.033127787858808787 -0.039225772022304511 0.075822259460827449 0.071908548322050778
leaf_count=9039 2238 4125 1302 2036 2028 3128 398 568 3053 5509 1884 3221 761 432 2707 4129 1366 6248 2123 2045 1053 611 206 2035 442 743 223 504 5915 506
internal_value=0 0.492132 -0.381706 0.215147 -0.609375 -0.0827054 0.831968 -0.424311 0.0328519 0.423878 -0.032228 0.709212 0.220634 0.537221 0.617413 -0.753623 -0.110946 -0.48065 0.0913179 0.161213 -0.339742 -0.499417 -0.247437 -0.248879 -0.0257978 -0.625215 0.920056 -0.824223 1.05932 0.899997
internal_count=70578 32284 38294 15189 23701 14593 17095 9286 9592 8738 6451 10276 2797 5941 6832 14415 4494 8276 4007 5098 5001 1913 2444 3088 1010 4872 3444 9543 6819 904
shrinkage=0.07


Tree=18
num_leaves=29
num_cat=0
split_feature=8 341 8 130 115 454 452 202 3 66 452 8 337 380 4 115 28 4 11 13 13 217 126 1 210 91 9 117
split_gain=2310.45 538.834 343.985 191.873 132.606 112.535 61.9124 60.8632 58.6533 39.0224 28.2751 26.6297 22.5402 21.5005 20.9169 17.4865 15.4995 13.7587 11.5849 11.3807 10.5984 10.5757 10.209 5.96547 5.36898 4.90472 0.807701 0.806437
threshold=1.5000000000000002 1.0000000180025095e-35 3.5000000000000004 0.78580424613170219 1.5000000000000002 1.5000000000000002 4.5000000000000009 1.0000000180025095e-35 -1.0000000180025095e-35 0.2723056700125196 8.5000000000000018 4.5000000000000009 0.018712234501708187 21.500000000000004 1.5000000000000002 105.50000000000001 19.500000000000004 8.5000000000000018 7.5000000000000009 1.9375000000000002 3.291666666666667 0.050021570319240732 44.500000000000007 1.5000000000000002 0.70153160897085265 1.5000000000000002 5.5000000000000009 1.0000000180025095e-35
decision_type=2 2 2 2 2 2 2 2 2 2 2 2 2 2 2 2 2 2 2 2 2 2 2 2 2 2 2 2
left_child=1 6 4 5 9 7 8 -3 14 16 -7 22 15 21 -1 -5 -2 -11 25 -15 -14 -6 24 -10 -4 -8 27 -13
right_child=2 3 11 12 13 10 18 -9 23 17 -12 26 20 19 -16 -17 -18 -19 -20 -21 -22 -23 -24 -25 -26 -27 -28 -29
leaf_value=-0.051613112905160526 0.014483695753638774 -0.029338529041385841 0.049635375380994697 0.0099598405775718664 0.039049060964719717 -0.0069214354422995929 -0.032789028147804787 -0.0045945247874187344 -0.016701122697111655 0.021381480939871932 0.011125389305728869 0.047888659540730676 0.047097553650071282 0.059812080254022737 -0.034312589231238158 0.043287676577245165 -0.0010959446283927388 0.04482534848575212 0.0086778579089903593 0.038050043919173215 0.0062916864161871467 0.015633839827757238 0.066743742352248989 0.0096233919433052692 0.014702416381197349 -0.014980412226263862 0.074398135482742586 0.07024062324668523
leaf_count=14729 2505 8948 3009 2181 2133 4566 712 2783 576 3161 2888 398 1034 2673 2310 525 2703 811 278 1176 190 720 1752 234 174 988 5915 506
internal_value=0 -0.310415 0.547312 -0.105225 0.357385 -0.190704 -0.614234 -0.326198 -0.664 0.204801 0.000896903 0.916492 0.329142 0.626073 -0.699958 0.219442 0.0905541 0.370959 -0.251247 0.75527 0.58127 0.474259 0.772501 -0.123333 0.683135 -0.322485 1.03796 0.87386
internal_count=70578 42942 27636 23115 15882 19185 19827 11731 17849 9180 7454 11754 3930 6702 17039 2706 5208 3972 1978 3849 1224 2853 4935 810 3183 1700 6819 904
shrinkage=0.07


Tree=19
num_leaves=31
num_cat=0
split_feature=8 341 8 130 126 454 18 202 4 66 8 2 380 423 1 5 11 7 4 204 454 126 13 18 2 88 210 2 399 9
split_gain=2041.96 486.003 327.628 167.524 118.675 99.1221 56.2841 53.4103 42.1661 32.7231 27.3095 23.58 23.5062 21.3753 17.4012 15.9726 16.533 15.0402 11.8622 11.7924 11.7687 10.2219 10.0113 9.36283 6.79494 6.02138 4.92472 0.981319 0.40692 0.162401
threshold=1.5000000000000002 1.0000000180025095e-35 3.5000000000000004 0.76975051975051989 1.0000000180025095e-35 1.5000000000000002 15.500000000000002 1.0000000180025095e-35 1.5000000000000002 0.2723056700125196 4.5000000000000009 523.50000000000011 21.500000000000004 83.500000000000014 2.5000000000000004 1.0000000180025095e-35 3.5000000000000004 1.0000000180025095e-35 6.5000000000000009 11.500000000000002 4.5000000000000009 44.500000000000007 1.9375000000000002 4.5000000000000009 77.500000000000014 0.0028581639946900854 0.70153160897085265 1282.5000000000002 -0.54514674162451515 5.5000000000000009
decision_type=2 2 2 2 2 2 2 2 2 2 2 2 2 2 2 2 2 2 2 2 2 2 2 2 2 2 2 2 2 2
left_child=1 6 4 5 9 7 8 -3 20 17 21 -7 19 14 -5 16 -8 -2 -11 -6 -1 26 -14 -10 -17 -15 -4 29 -23 -12
right_child=2 3 10 13 12 11 15 -9 23 18 27 -13 22 25 -16 24 -18 -19 -20 -21 -22 28 -24 -25 -26 -27 -28 -29 -30 -31
leaf_value=-0.05106756703295684 -0.011639111623755501 -0.027638044294155017 0.047564640350387384 0.018628177556370518 0.025078779047004358 0.0029265793304047022 -0.036546788569464375 -0.004305128489806625 -0.055870332363454914 0.017179372190002758 0.061089292731057961 -0.02259886994187324 0.05727672889978104 0.065166364806719446 -0.029305094484442032 -0.017908367508596583 -0.001882218973425148 0.0092703707960569617 0.035229164514194375 0.05133292370153799 -0.014165917566257052 0.038226751598620531 0.036697635582330045 -0.025621807656776897 0.0064764330237073887 0.033022674734183424 0.013818679210351755 0.04737233934794037 0.066873616856613888 0.073669863275521399
leaf_count=13035 802 8943 3009 2900 2398 6616 2130 2747 351 2312 862 834 2725 308 156 509 376 4281 1532 633 256 141 1199 2762 408 611 174 253 1611 5704
internal_value=0 -0.292753 0.521156 -0.0983931 0.336631 -0.178938 -0.585884 -0.307282 -0.650582 0.187886 0.89106 0.000528758 0.586195 0.306394 0.227009 -0.324925 -0.430685 0.0824264 0.343474 0.434631 -0.717777 0.743815 0.723559 -0.41239 -0.0953913 0.637579 0.654017 1.01746 0.928695 1.02907
internal_count=70578 42942 27636 23115 15882 19140 19827 11690 16404 8927 11754 7450 6955 3975 3056 3423 2506 5083 3844 3031 13291 4935 3924 3113 917 919 3183 6819 1752 6566
shrinkage=0.07


Tree=20
num_leaves=31
num_cat=0
split_feature=212 10 6 10 72 452 83 0 19 2 9 72 123 6 9 450 173 336 14 380 2 2 452 13 88 2 9 17 117 411
split_gain=1832.33 428.571 343.101 90.7581 90.202 79.9476 72.8993 44.056 49.5739 37.4049 34.6767 32.0322 26.903 23.9052 23.4723 19.7523 22.7792 19.6928 18.9159 17.1937 14.8529 14.7845 13.8412 12.8816 12.0123 9.22293 8.43419 8.34475 5.72927 2.76572
threshold=5.5000000000000009 1.5000000000000002 1.5000000000000002 1.0000000180025095e-35 142.50000000000003 9.5000000000000018 304.50000000000006 6.5000000000000009 -3.4999999999999996 357.50000000000006 2.5000000000000004 12.500000000000002 0.024257134451309208 1.5000000000000002 4.5000000000000009 18.500000000000004 0.57229965156794427 0.88611949998088624 0.28301261635371383 1.0000000180025095e-35 27.500000000000004 27.500000000000004 3.5000000000000004 1.9375000000000002 0.018191551489196031 23.500000000000004 5.5000000000000009 4.5000000000000009 10.500000000000002 2.516611478423584
decision_type=2 2 2 2 2 2 2 2 2 2 2 2 2 2 2 2 2 2 2 2 2 2 2 2 2 2 2 2 2 2
left_child=1 3 4 11 9 10 19 24 -9 12 21 22 -2 -12 18 27 -17 -11 -7 20 -4 -3 -1 -21 -5 -13 28 -6 -8 -16
right_child=2 5 6 7 15 14 26 8 -10 17 13 25 -14 -15 29 16 -18 -19 -20 23 -22 -23 -24 -25 -26 -27 -28 -29 -30 -31
leaf_value=-0.052709466097500698 0.0085922359001952622 -0.0021399119946259337 0.044543885542528604 -0.012420691133624854 0.04072343504409507 -0.016587962311310954 0.051822974560898141 -0.037103801005592657 -0.018098991129353051 -0.0030701757436190245 0.0042589725652006942 -0.020050725357448514 0.035020406568069526 0.048394389694403975 0.07618209462513903 -0.0058348592817051041 0.028973393126424472 -0.042787323241197654 0.023187998959635026 0.050489258817429161 0.010597375931083815 -0.016197310255361714 -0.023356109979296387 0.020011706883693286 0.012784888959646849 -0.037975880448467447 0.072254795545672879 0.017871421872998033 0.070525003653375537 0.035189814704155303
leaf_count=8469 5821 2671 569 1231 4087 264 2374 8361 5944 1052 1976 1390 1071 428 319 523 1845 357 2142 3380 902 3855 512 521 617 2484 5560 479 1230 144
internal_value=0 -0.302568 0.459787 -0.469731 0.255437 0.0206591 0.781588 -0.36299 -0.408254 0.11297 -0.0734004 -0.634678 0.178073 0.146153 0.334359 0.45428 0.282499 -0.193791 0.264529 0.559135 0.344378 -0.149447 -0.724563 0.657442 -0.0533568 -0.45246 0.947421 0.544692 0.833921 0.904055
internal_count=70578 40807 29771 29008 15235 11799 14536 16153 14305 8301 8930 12855 6892 2404 2869 6934 2368 1409 2406 5372 1471 6526 8981 3901 1848 3874 9164 4566 3604 463
shrinkage=0.07


Tree=21
num_leaves=32
num_cat=0
split_feature=212 10 6 70 83 83 452 7 2 19 394 9 123 9 6 332 5 14 450 380 388 19 2 13 13 452 9 117 28 411 210
split_gain=1614.93 381.323 321.743 87.0992 77.2035 72.0421 69.7924 68.5868 35.0943 32.4945 31.891 30.1495 22.2139 22.11 21.5052 18.792 17.0891 16.4917 16.433 16.0896 14.6692 14.0147 13.3476 12.0308 11.1936 10.7291 8.96049 5.71032 4.51125 2.77389 0.0480627
threshold=5.5000000000000009 1.5000000000000002 1.5000000000000002 3.5000000000000004 132.50000000000003 304.50000000000006 9.5000000000000018 1.0000000180025095e-35 357.50000000000006 -3.4999999999999996 1.5000000000000002 2.5000000000000004 0.024257134451309208 4.5000000000000009 1.5000000000000002 3.5000000000000004 1.0000000180025095e-35 0.28301261635371383 19.500000000000004 1.0000000180025095e-35 94.500000000000014 -5.4999999999999991 27.500000000000004 1.9375000000000002 2.7083333333333335 4.5000000000000009 5.5000000000000009 10.500000000000002 21.500000000000004 2.516611478423584 0.75617378048780493
decision_type=2 2 2 2 2 2 2 2 2 2 2 2 2 2 2 2 2 2 2 2 2 2 2 2 2 2 2 2 2 2 2
left_child=1 3 4 7 8 19 11 25 12 10 -5 21 -2 17 -13 -10 20 -8 -11 22 -6 -3 -4 -21 -18 -1 27 -7 -9 -15 -28
right_child=2 6 5 9 16 26 13 28 15 18 -12 14 -14 29 -16 -17 24 -19 -20 23 -22 -23 -24 -25 -26 -27 30 -29 -30 -31 -32
leaf_value=-0.050299481021221122 0.0084859149001439739 -0.020557107966742504 0.042361132235386768 -0.03320153137135809 0.026875426416675327 0.049943205798081293 -0.015470387654890555 -0.02387505895085279 -0.023324024207332927 -0.0015706050864183322 -0.014723813812242515 0.0039639695397127011 0.032781349748544061 0.074753467204577637 0.046328748466763221 0.014023974890600895 0.047104987411281579 0.021667116872461464 -0.02213632679261494 0.048524489707369618 -0.00399766024771811 -0.0055147588832776357 0.0099105825513962475 0.018836435082586204 0.01442778565668471 -0.022503072847106408 0.071656229775409058 0.068914572949721239 -0.0088498315546827692 0.033480418184542241 0.042877194566635295
leaf_count=10527 5795 1917 569 8862 4022 2374 264 1410 1031 1878 3442 1976 1056 319 428 392 2231 2142 1569 3380 328 4609 902 521 380 439 5401 1230 881 144 159
internal_value=0 -0.285248 0.436261 -0.445053 0.239438 0.755412 0.0194144 -0.603357 0.107564 -0.336474 -0.397328 -0.0683462 0.17134 0.313865 0.136791 -0.187492 0.424733 0.246952 -0.158136 0.532961 0.344687 -0.139265 0.324506 0.629984 0.597332 -0.699101 0.925245 0.807656 -0.253889 0.878662 1.01439
internal_count=70578 40807 29771 29008 15235 14536 11799 13257 8274 15751 12304 8930 6851 2869 2404 1423 6961 2406 3447 5372 4350 6526 1471 3901 2611 10966 9164 3604 2291 463 5560
shrinkage=0.07


Tree=22
num_leaves=32
num_cat=0
split_feature=212 4 6 9 7 450 83 375 1 18 4 2 159 2 341 288 287 78 5 1 450 331 80 80 330 118 9 452 115 117 210
split_gain=1425.98 372.701 258.375 148.049 73.5373 60.1428 59.2825 49.9016 42.2515 40.6146 32.2074 30.0076 26.022 25.3918 23.0657 22.4223 20.4118 19.4258 18.8281 17.2849 14.966 13.9281 12.7474 11.5663 10.8692 10.2625 9.52484 9.24052 7.26269 5.84956 0.131133
threshold=11.500000000000002 2.5000000000000004 1.5000000000000002 1.0000000180025095e-35 1.0000000180025095e-35 19.500000000000004 304.50000000000006 1.9000000000000001 1.0000000180025095e-35 12.500000000000002 5.5000000000000009 953.50000000000011 45.500000000000007 125.50000000000001 41.500000000000007 4.5000000000000009 5.5000000000000009 0.77836444692114803 1.0000000180025095e-35 1.0000000180025095e-35 21.500000000000004 28.500000000000004 0.003685958508851124 0.48145777019016461 38.500000000000007 1.0000000180025095e-35 5.5000000000000009 5.5000000000000009 1.5000000000000002 10.500000000000002 0.75617378048780493
decision_type=2 2 2 2 2 2 2 2 2 2 2 2 2 2 2 2 2 2 2 2 2 2 2 2 2 2 2 2 2 2 2
left_child=1 3 5 7 13 14 20 27 22 15 17 -11 -10 16 23 -5 -3 -6 -16 -15 28 -9 -7 -2 -12 -22 29 -1 -4 -8 -28
right_child=2 4 6 9 10 8 26 21 12 11 24 -13 -14 19 18 -17 -18 -19 -20 -21 25 -23 -24 -25 -26 -27 30 -29 -30 -31 -32
leaf_value=-0.050907347226932319 0.015744539540360619 -0.0076970334136346828 0.022369496903818464 -0.045500623263987121 0.0037156917422654567 0.010171291414989481 0.047904251214861047 -0.032242213736677419 -0.013900712847879181 -0.010445121714575716 0.051686472050732818 -0.035348875900605634 0.017780853083238329 -0.000929379452491206 0.02558211897563184 -0.013173134525369664 0.011803729832528849 0.034659698376903095 0.045302882917986696 -0.028286542395505796 0.014929510874224035 -0.0072057670868399433 0.033559204689992524 -0.021671980617558175 0.025902487431738817 0.043994460089507116 0.070431120462310856 -0.016971322449637994 0.049012375869780384 0.067354104830021244 0.041058535783030696
leaf_count=8278 1241 2358 448 1835 2137 1169 2362 7860 2212 11077 927 1264 869 843 3890 774 2133 589 2260 1254 1236 667 1125 196 1216 588 5378 267 2737 1230 158
internal_value=0 -0.24425 0.456188 -0.383541 0.077714 0.256202 0.746428 -0.557397 0.0817992 -0.235753 0.292317 -0.185653 -0.0811938 -0.0585552 0.387359 -0.498965 0.0280887 0.147893 0.453198 -0.24829 0.531167 -0.429957 0.307338 0.148566 0.526068 0.346485 0.902479 -0.70885 0.644841 0.780389 0.996527
internal_count=70578 43479 27099 32022 11457 12962 14137 17072 5375 14950 4869 12341 3081 6588 7587 2609 4491 2726 6150 2097 5009 8527 2294 1437 2143 1824 9128 8545 3185 3592 5536
shrinkage=0.07


Tree=23
num_leaves=31
num_cat=0
split_feature=6 8 330 83 452 8 397 1 259 126 118 2 450 70 130 2 438 302 3 373 63 397 2 83 458 80 78 122 65 429
split_gain=1264.59 359.279 321.166 86.8016 77.0513 69.8568 55.6298 40.6232 34.6822 34.061 28.0834 26.5405 22.5212 18.7118 16.8299 14.5496 13.9262 13.8665 13.4401 12.3791 11.6048 11.1352 10.8996 10.7298 7.9767 6.4569 5.94532 3.29036 5.0385 2.46217
threshold=1.0000000180025095e-35 2.5000000000000004 6.5000000000000009 23.500000000000004 1.5000000000000002 4.5000000000000009 0.7167949692216633 2.5000000000000004 0.82863756613756634 6.5000000000000009 1.0000000180025095e-35 35.500000000000007 16.500000000000004 2.5000000000000004 0.5727513227513229 953.50000000000011 2.8090909090909095 0.90469969829865338 -5.4999999999999991 118.50000000000001 2.5000000000000004 8.8138148630085649 139.50000000000003 117.50000000000001 0.30957446808510641 0.78598691384950936 0.092720525566301934 0.0045249795249795262 1.3875000000000002 2.5000000000000004
decision_type=2 2 2 2 2 2 2 2 2 2 2 2 2 2 2 2 2 2 2 2 2 2 2 2 2 2 2 2 2 2
left_child=2 3 4 14 13 9 7 8 -4 16 12 21 -5 18 22 -15 -3 -13 -1 -12 25 -8 -2 -11 -16 -6 -22 28 -7 -9
right_child=1 5 6 10 20 27 11 29 -10 23 19 17 -14 15 24 -17 -18 -19 -20 -21 26 -23 -24 -25 -26 -27 -28 -29 -30 -31
leaf_value=-0.049156811296198089 -0.013727649470896395 0.03225760208686404 -0.015801336537864072 0.025003399826073417 -0.022302054761893085 0.060877169875760355 0.031072362528035528 -0.059173568169416144 0.00056884940949432968 0.028472824887799963 0.027335002408141223 -0.015356625538797521 0.0070543585880458509 -0.030194524403523458 0.0051587309122005627 -0.057555736751273949 0.0056525368375924352 0.0081939477120537441 -0.032967707816173149 0.055011309657896017 0.014462508527364273 0.0062268823033646992 0.0023611646322814813 0.053500796912668125 0.040551590642341269 0.0030127832686633873 -0.01033342175803777 0.070273603708557689 0.025725052641436333 -0.028073969121491914
leaf_count=8437 2619 3923 6130 3473 3429 2110 1222 369 5282 766 1265 835 3430 6270 1943 671 717 1431 2392 918 309 600 1323 4904 144 235 581 4424 286 140
internal_value=0 0.366534 -0.273593 0.149733 -0.484068 0.673945 -0.061107 -0.136375 -0.109952 0.551704 0.296584 0.145104 0.229943 -0.57052 -0.0359931 -0.470873 0.404634 -0.00298962 -0.645927 0.541595 -0.234286 0.330412 -0.117726 0.709303 0.111044 -0.293452 -0.0183803 0.93721 0.811149 -0.734428
internal_count=70578 32245 38333 15115 22324 17130 16009 11921 11412 10310 9086 4088 6903 17770 6029 6941 4640 2266 10829 2183 4554 1822 3942 5670 2087 3664 890 6820 2396 509
shrinkage=0.07


Tree=24
num_leaves=31
num_cat=0
split_feature=212 452 7 3 19 330 72 8 5 1 450 5 9 66 1 0 13 126 257 123 63 76 18 70 386 117 1 66 384 210
split_gain=1117.78 298.487 222.099 111.252 83.4358 61.6461 51.7326 39.0954 36.6537 31.6563 29.8253 27.2813 25.7541 22.1196 16.7956 16.6278 15.4503 13.7886 15.4281 12.2481 11.8294 13.8062 9.80541 8.75174 8.5279 8.51385 6.97037 2.36918 2.04712 1.39878
threshold=11.500000000000002 1.5000000000000002 2.5000000000000004 -5.4999999999999991 -5.4999999999999991 143.50000000000003 13.500000000000002 3.5000000000000004 1.0000000180025095e-35 1.0000000180025095e-35 20.500000000000004 1.0000000180025095e-35 5.5000000000000009 0.3892494720807616 1.0000000180025095e-35 16.500000000000004 2.7083333333333335 67.500000000000014 8.5000000000000018 0.02363135459131439 2.5000000000000004 81.500000000000014 7.5000000000000009 4.5000000000000009 -1.0000000180025095e-35 1.0000000180025095e-35 1.5000000000000002 2.2267118800540682 -2.0384914157745384 0.75617378048780493
decision_type=2 2 2 2 2 2 2 2 2 2 2 2 2 2 2 2 2 2 2 2 2 2 2 2 2 2 2 2 2 2
left_child=1 3 5 6 20 9 23 13 14 19 -11 15 17 -6 -5 -7 -13 18 -4 -2 21 -3 -8 -1 -9 -10 -22 -19 -14 -30
right_child=2 4 12 8 7 11 22 24 25 10 -12 16 28 -15 -16 -17 -18 27 -20 -21 26 -23 -24 -25 -26 -27 -28 -29 29 -31
leaf_value=-0.048092474385201228 0.01627231296833526 -0.024262304760918955 0.039521112989545699 -0.011543413739026977 -0.00072359978716071455 0.027563920597091781 -0.010032089344063562 0.019223764771808628 -0.0019873193469549626 0.014514506421925691 -0.010171698354433274 0.04566012587449722 0.028851166094233622 0.013196586867818069 -0.026065128048615722 0.003287732909924648 0.0067251676301887447 0.060702484930493378 -0.00903837436435302 0.03857000989691705 -0.008876406195445127 -0 -0.027452681733709555 -0.036204478786311702 0.059328593092801613 0.027496581178079706 0.017969437021699397 0.024903367124998733 0.067418158720544852 0.031412198833322628
leaf_count=8440 3213 3377 2408 3463 5234 2817 1518 344 1924 2225 2241 3884 162 4501 5166 864 363 1809 256 843 983 663 3301 3430 666 217 252 148 5714 152
internal_value=0 -0.217365 0.412845 -0.382497 0.00496404 0.273682 -0.528922 0.110312 -0.218252 0.151503 0.0258607 0.436089 0.785492 0.0787464 -0.289662 0.305612 0.59787 0.630215 0.498746 0.293176 -0.224249 -0.286534 -0.321197 -0.632393 0.642438 0.0130491 -0.0443732 0.83119 0.939322 0.951722
internal_count=70578 43479 27099 27459 16020 16450 16689 10745 10770 8522 4466 7928 10649 9735 8629 3681 4247 4621 2664 4056 5275 4040 4819 11870 1010 2141 1235 1957 6028 5866
shrinkage=0.07


Tree=25
num_leaves=31
num_cat=0
split_feature=8 298 5 452 130 1 6 425 290 4 253 83 10 287 452 248 400 175 345 78 18 2 442 387 330 15 115 380 403 255
split_gain=1016.48 420.47 105.113 93.1033 83.8927 68.4465 46.799 43.6723 32.647 30.0349 25.5495 21.4618 21.0701 20.5428 19.9034 17.5802 16.1234 12.4677 11.4478 9.4251 9.0236 8.66818 6.31209 5.66131 5.49419 5.10903 3.4841 2.79443 2.32743 1.24113
threshold=2.5000000000000004 1.0000000180025095e-35 1.0000000180025095e-35 1.5000000000000002 0.54580419580419581 2.5000000000000004 1.0000000180025095e-35 1.4335899384433268 20.500000000000004 7.5000000000000009 0.96472564389697657 12.500000000000002 5.5000000000000009 1.5000000000000002 10.500000000000002 114.50000000000001 11.500000000000002 0.016698841698841702 0.88892627486167197 0.96834567272900796 15.500000000000002 135.50000000000003 2.5000000000000004 124.50000000000001 13.500000000000002 -1.4738292011019285 27.500000000000004 17.500000000000004 40.516666666666673 22.500000000000004
decision_type=2 2 2 2 2 2 2 2 2 2 2 2 2 2 2 2 2 2 2 2 2 2 2 2 2 2 2 2 2 2
left_child=1 3 5 6 12 7 11 -3 10 16 -4 -1 19 -7 18 22 17 -6 -5 20 -2 -8 -14 -17 -16 -11 -18 -27 -10 -21
right_child=4 2 8 14 9 13 21 -9 28 25 -12 -13 15 -15 24 23 26 -19 -20 29 -22 -23 -24 -25 -26 27 -28 -29 -30 -31
leaf_value=-0.040826393225355105 0.024848496848894831 -0.0093648606308904016 0.01640821093502887 -0.020291195829123282 0.040610224844312016 0.0095675470220876468 -0.017210816771670859 0.0054026582684034595 0.041102452412134678 0.018999197570460143 -0.02521754921241609 -0.025732655462051484 0.049644858268993119 -0.050379642094446148 0.014828611264096906 -0.013073502349266086 0.033524507801479767 0.0086242615926450054 -0.0047694125246596506 0.058936534508278821 0.0047564700716860552 0.0059132751902617542 0.01586080922444949 0.024708940833473896 -0.011245660968286676 0.027439481552324483 0.064875850958447834 0.066474601233626987 0.067590394710053944 0.027113794328532486
leaf_count=13932 872 8195 7245 3447 4052 143 1035 9121 674 147 318 4053 1786 859 731 222 270 579 1686 140 1567 549 244 246 206 150 1623 6084 261 141
internal_value=0 -0.138886 0.0347472 -0.382201 0.596312 -0.0493955 -0.481477 -0.0190201 0.249642 0.749666 0.203934 -0.527807 0.356566 -0.595161 -0.154141 0.541886 0.615492 0.52341 -0.210972 0.226228 0.178571 -0.125757 0.65057 0.0868474 0.121945 0.919413 0.861001 0.93583 0.700249 0.629222
internal_count=70578 52455 26816 25639 18123 18318 19569 17316 8498 12905 7563 17985 5218 1002 6070 2498 6524 4631 5133 2720 2439 1584 2030 468 937 6381 1893 6234 935 281
shrinkage=0.07


Tree=26
num_leaves=28
num_cat=0
split_feature=8 298 5 452 8 1 5 126 425 158 19 253 0 374 452 80 388 16 74 214 2 174 66 298 391 117 346
split_gain=905.301 371.771 91.756 85.1902 82.5151 59.8819 39.2959 38.2563 37.8563 32.108 23.4934 19.2046 17.079 16.7603 15.1278 11.5501 10.544 10.5259 8.81213 8.76059 8.19335 7.94927 5.34996 4.93448 3.37354 2.52248 4.31942
threshold=2.5000000000000004 1.0000000180025095e-35 1.0000000180025095e-35 1.0000000180025095e-35 4.5000000000000009 2.5000000000000004 1.0000000180025095e-35 5.5000000000000009 1.4335899384433268 118.50000000000001 -11.499999999999998 0.99568965517241392 8.5000000000000018 1.5000000000000002 10.500000000000002 0.55574980574980593 20.500000000000004 1.0000000180025095e-35 18.500000000000004 2.5000000000000004 137.50000000000003 0.0034812907135282536 2.4117543852608558 109.50000000000001 -2.4584343145980569 1.0000000180025095e-35 0.0053704174835862177
decision_type=2 2 2 2 2 2 2 2 2 2 2 2 2 2 2 2 2 2 2 2 2 2 2 2 2 2 2
left_child=1 3 5 6 7 8 16 12 -3 11 15 -4 17 -7 -12 -5 -1 -2 23 -14 -8 -11 -20 -9 -6 26 -26
right_child=4 2 9 10 24 13 20 18 -10 21 14 -13 19 -15 -16 -17 -18 -19 22 -21 -22 -23 -24 -25 25 -27 -28
leaf_value=-0.037533798072381559 0.006495177971341839 -0.008732169614045944 0.013477660725050005 -0.037248941976842649 0.025764734226992429 0 -0.01388106087349757 0.020585876216045629 0.0050273648136716365 0.053898741965918456 -0.0122298505792468 -0.024100374953972641 0.018663915049547449 -0.048532322769786113 0.0078988056958690135 0.01169080390490811 -0.018870264266565708 0.042840569438179169 0.055205300828749047 -0.0082634579839205614 0.016089315047631458 0.028125203835290231 0.013469435733052686 0.041345603019385599 0.064133436243819314 0.068003369735046226 0.039602155969303769
leaf_count=15518 303 8195 6029 1439 215 186 509 690 9121 682 5647 288 3279 816 937 142 1154 1523 2939 343 293 1499 165 2056 1360 4292 958
internal_value=0 -0.130455 0.03247 -0.36178 0.572098 -0.0460356 -0.479293 0.453866 -0.0177016 0.234212 -0.18233 0.163438 0.322048 -0.559204 -0.129131 -0.462899 -0.515631 0.524013 0.635691 0.229325 -0.033124 0.520407 0.755515 0.508618 0.888342 0.904031 0.777594
internal_count=70578 52455 26816 25639 18123 18318 17474 11298 17316 8498 8165 6317 5448 1002 6584 1581 16672 1826 5850 3622 802 2181 3104 2746 6825 6610 2318
shrinkage=0.07


Tree=27
num_leaves=29
num_cat=0
split_feature=8 298 122 8 452 1 0 6 339 126 83 65 10 452 385 259 2 253 0 3 74 2 382 2 117 346 392 160
split_gain=805.529 328.377 82.7663 80.8675 77.9733 66.3223 44.5986 40.8746 38.1558 36.1622 19.3601 17.2263 15.9898 14.9652 11.7785 11.439 11.0102 9.57705 9.26794 9.18353 8.50076 6.78013 5.32299 5.06632 3.08036 5.14298 7.05036 1.44966
threshold=2.5000000000000004 1.0000000180025095e-35 0.0045249795249795262 4.5000000000000009 1.5000000000000002 1.0000000180025095e-35 16.500000000000004 1.0000000180025095e-35 0.91694260485651224 5.5000000000000009 12.500000000000002 2.9000000000000004 5.5000000000000009 10.500000000000002 0.47765900034013781 0.98705800716640069 276.50000000000006 0.55360232328225423 12.500000000000002 -14.499999999999998 18.500000000000004 30.500000000000004 -20.958333333333332 865.50000000000011 1.0000000180025095e-35 0.0072342075874604582 0.31298749908709267 1.5000000000000002
decision_type=2 2 2 2 2 2 2 2 2 2 2 2 2 2 2 2 2 2 2 2 2 2 2 2 2 2 2 2
left_child=1 4 5 9 7 8 -7 10 -3 12 -1 16 18 14 -6 -13 -4 -14 -2 -15 23 -9 -22 -11 25 27 -27 -5
right_child=3 2 11 24 13 6 -8 21 -10 20 -12 15 17 19 -16 -17 -18 -19 -20 -21 22 -23 -24 -25 -26 26 -28 -29
leaf_value=-0.037488297905472069 0.023713415096106374 0.010299208755254158 0.039259498720837817 0.066399357320346616 -0.014693490782035438 -0.001288994238160877 -0.019645378532062534 -0.019621754497391362 -0.028345064709655355 0.036336076846678209 -0.022893563937409833 0.020623877196515872 0.038518891516517759 0.00028476922168110141 0.017137923638351121 -0.026887622359887772 0.0098731948126680093 0.004517895576101643 0.005928577521736535 0.039030848436763556 0.031726514669891161 0.00053510551007491592 0.056466655856307897 0 0.065958663717589336 0.0036199069275586015 0.049794121865539678 0.036683169350741958
leaf_count=13932 1468 10117 2134 1206 4867 8329 4609 631 601 2572 4053 331 1907 786 266 205 490 337 1736 151 659 953 2445 174 4419 294 602 304
internal_value=0 -0.122486 0.0303383 0.548361 -0.3422 -0.00838599 -0.110825 -0.436072 0.115816 0.431421 -0.481089 0.399609 0.30328 -0.133428 -0.183397 0.0172307 0.484064 0.47817 0.202121 0.104836 0.611817 -0.102359 0.732104 0.485921 0.870473 0.73947 0.501312 0.875333
internal_count=70578 52455 26816 18123 25639 23656 12938 19569 10718 11298 17985 3160 5448 6070 5133 536 2624 2244 3204 937 5850 1584 3104 2746 6825 2406 896 1510
shrinkage=0.07


Tree=28
num_leaves=28
num_cat=0
split_feature=8 298 8 5 452 1 126 3 83 158 19 287 204 0 452 80 388 16 2 74 8 75 66 87 391 122 346
split_gain=716.438 289.813 78.978 75.2382 71.7739 50.5618 33.9808 33.8705 32.7007 28.2794 20.5617 16.6466 15.5157 14.6589 11.1523 10.4841 10.4583 9.84378 8.34528 8.20088 7.79256 7.77103 5.41434 4.97295 3.58523 2.78028 4.28689
threshold=2.5000000000000004 1.0000000180025095e-35 4.5000000000000009 1.0000000180025095e-35 1.0000000180025095e-35 2.5000000000000004 5.5000000000000009 -1.4999999999999998 11.500000000000002 118.50000000000001 -11.499999999999998 1.5000000000000002 20.500000000000004 8.5000000000000018 10.500000000000002 0.55574980574980593 20.500000000000004 1.0000000180025095e-35 523.50000000000011 18.500000000000004 3.5000000000000004 1.0000000180025095e-35 2.4117543852608558 0.98734748950865059 -2.4584343145980569 1.0000000180025095e-35 0.0053704174835862177
decision_type=2 2 2 2 2 2 2 2 2 2 2 2 2 2 2 2 2 2 2 2 2 2 2 2 2 2 2
left_child=1 4 6 5 7 8 13 16 -3 12 15 -7 -5 17 -12 -6 -1 -2 -9 23 -15 -11 -21 -8 -4 26 -26
right_child=2 3 24 9 10 11 19 18 -10 21 14 -13 -14 20 -16 -17 -18 -19 -20 22 -22 -23 -24 -25 25 -27 -28
leaf_value=-0.03522913837557997 0.0040407698994297438 -0.013010630759204722 0.021942110955763344 0.008427395765970588 -0.034562480420015189 0.0096199043981189756 0.024095796218588872 -0.01411984142289549 0.0022525944946988801 0.020915131251034225 -0.010405252743728371 -0.044306060594100999 0.04426944901653846 0.0089419549148501178 0.0068626225257605988 0.012161040588336516 -0.016412888586612467 0.039511926531749945 0.01449899582485123 0.052066205920079336 0.026441453612459472 0.044823994074994856 0.0096559603111178345 0.043583739219897707 0.061731813219833766 0.065963111303548261 0.036587513073723717
leaf_count=14851 303 4176 215 5949 1439 143 1580 1187 13140 962 5647 859 368 2405 937 142 1154 1523 282 2939 1217 1219 165 1166 1360 4292 958
internal_value=0 -0.114845 0.525322 0.0282804 -0.323419 -0.0426179 0.409908 -0.434703 -0.016683 0.212417 -0.158613 -0.517659 0.146352 0.285698 -0.109028 -0.425579 -0.480894 0.477037 -0.117106 0.588254 0.199646 0.486195 0.708962 0.463601 0.852741 0.869655 0.736728
internal_count=70578 52455 18123 26816 25639 18318 11298 17474 17316 8498 8165 1002 6317 5448 6584 1581 16005 1826 1469 5850 3622 2181 3104 2746 6825 6610 2318
shrinkage=0.07


Tree=29
num_leaves=28
num_cat=0
split_feature=8 9 169 8 74 454 2 115 18 2 4 2 87 71 80 2 115 158 70 2 13 3 203 117 426 346 66
split_gain=636.904 256.137 85.5752 76.798 55.248 54.6875 32.1132 32.0488 27.8262 28.546 21.2877 17.3516 12.5654 12.0375 12.5348 11.4577 11.3735 10.1838 9.82387 9.69853 9.25925 8.73068 4.25023 3.30459 5.61343 4.47421 2.0837
threshold=2.5000000000000004 1.0000000180025095e-35 18.500000000000004 4.5000000000000009 3.5000000000000004 1.0000000180025095e-35 1514.5000000000002 41.500000000000007 21.500000000000004 23.500000000000004 6.5000000000000009 315.50000000000006 0.45993589743589752 -11.499999999999998 0.58842144452717815 33.500000000000007 40.500000000000007 9.5000000000000018 20.500000000000004 32.500000000000007 2.2250000000000005 -15.499999999999998 29.500000000000004 1.0000000180025095e-35 -0.9995814488661029 0.0076949991925499292 0.37674914055431635
decision_type=2 2 2 2 2 2 2 2 2 2 2 2 2 2 2 2 2 2 2 2 2 2 2 2 2 2 2
left_child=1 5 4 7 6 12 -3 10 16 -10 18 -6 21 14 -7 -15 -4 -12 -2 -14 22 -1 -9 24 25 -5 -26
right_child=3 2 8 23 11 13 -8 20 9 -11 17 -13 19 15 -16 -17 -18 -19 -20 -21 -22 -23 -24 -25 26 -27 -28
leaf_value=-0.03162392706287611 0.022387068590316018 -0.0068217759148059129 0.020151716362766237 0.042131581742925535 0.010610327530760029 -0.032151223320578445 -0.032404956241828001 0.042360474449688018 0.025460770059068275 -0.0010671811732224242 0.02245875625319476 -0.0085504619960472192 -0.01768324785498384 0.0029556172280888267 0.018529597130813966 -0.014712641572226817 0.043435509633549543 0.04599787209190509 0.0064902952745016212 -0.032987832421776511 0.0045019081992751864 -0.046320614019843678 0.062932365528083428 0.063837419435287299 0.061935316701963707 -0 0.035778332204618651
leaf_count=4327 2427 17700 1407 310 5509 1229 1274 2158 1650 3034 1285 1198 2786 1506 143 2138 1245 1753 2316 3613 231 3696 1128 4419 1396 217 483
internal_value=0 -0.107706 -0.00392085 0.502912 -0.0591721 -0.364543 -0.121556 0.389296 0.222343 0.114595 0.309576 0.101294 -0.466073 -0.16732 -0.372928 -0.102731 0.41873 0.49876 0.2123 -0.377443 0.657881 -0.550899 0.706192 0.834945 0.698014 0.333024 0.794752
internal_count=70578 52455 33017 18123 25681 19438 18974 11298 7336 4684 7781 6707 14422 5016 1372 3644 2652 3038 4743 6399 3517 8023 3286 6825 2406 527 1879
shrinkage=0.07


Tree=30
num_leaves=31
num_cat=0
split_feature=7 259 9 454 74 126 9 1 2 1 19 0 72 450 6 2 19 3 70 244 296 3 83 450 117 210 2 65 450 66
split_gain=590.089 193.275 107.45 77.3065 51.144 36.6574 33.6262 27.3035 25.1904 21.8773 20.481 20.1407 18.8227 17.532 14.887 14.1547 13.7865 12.9136 12.6767 12.5718 9.36404 9.28084 8.67161 8.46304 8.12742 7.93523 6.06167 3.89408 2.73394 1.76112
threshold=1.5000000000000002 0.66715045960328989 4.5000000000000009 1.0000000180025095e-35 8.5000000000000018 74.500000000000014 1.0000000180025095e-35 1.0000000180025095e-35 33.500000000000007 1.0000000180025095e-35 -1.0000000180025095e-35 17.500000000000004 13.500000000000002 20.500000000000004 1.0000000180025095e-35 2306.5000000000005 -10.499999999999998 -1.0000000180025095e-35 18.500000000000004 26.500000000000004 0.53805061052151093 -2.4999999999999996 317.50000000000006 20.500000000000004 3.5000000000000004 0.34151360032118849 139.50000000000003 1.7321428571428574 11.500000000000002 1.4110497577732273
decision_type=2 2 2 2 2 2 2 2 2 2 2 2 2 2 2 2 2 2 2 2 2 2 2 2 2 2 2 2 2 2
left_child=1 3 5 6 7 9 12 14 21 19 20 -9 -1 -11 -3 16 -5 -8 -10 -2 26 -6 25 29 -25 -12 -4 -24 -17 -7
right_child=2 4 10 15 8 23 17 11 18 13 22 -13 -14 -15 -16 28 -18 -19 -20 -21 -22 -23 27 24 -26 -27 -28 -29 -30 -31
leaf_value=-0.035083001992927271 0.0072590623409244373 -0.0017998194925421625 0.043100905062466846 -0.019268856689118 0.024589198306566695 0.061505684973133148 -0.019282843342782484 -0.0018606546790924238 0.017560381078175522 0.014711436883552354 0.046565114905527123 -0.018099570807034074 -0.018211459736198254 -0.007125698955746238 0.012651307959435835 -0.052581480883751246 -0.0019786536797194764 -0.0014203743077445786 -0.0027501642311742714 0.029969099588366317 -0.0070120749262024742 0.059847331368165724 0.06008779950334342 0.013029571756930874 0.045238617045079768 0.0085111101556870142 0.0062983771616037685 0.022508769033074767 -0.018390933096683975 0.026783658698777021
leaf_count=11358 899 3109 625 1689 1997 954 6944 4333 1250 2482 1867 2819 3125 1725 3179 177 6516 1065 1571 2769 212 239 6972 693 829 396 231 236 153 164
internal_value=0 -0.124096 0.421493 -0.255526 0.0385572 0.266194 -0.3477 -0.0284517 0.227034 0.195268 0.696813 -0.118106 -0.439906 0.0763677 0.0738061 -0.0867135 -0.0682237 -0.23215 0.089215 0.335273 0.355088 0.40277 0.766923 0.591508 0.43307 0.573562 0.478007 0.839363 -0.538798 0.811683
internal_count=70578 49524 21054 31027 18497 10515 22492 13440 5057 7875 10539 7152 14483 4207 6288 8535 8205 8009 2821 3668 1068 2236 9471 2640 1522 2263 856 7208 330 1118
shrinkage=0.07


Tree=31
num_leaves=29
num_cat=0
split_feature=7 259 9 454 74 126 9 1 72 2 5 6 1 72 251 2 19 71 15 3 244 209 296 392 18 341 336 2
split_gain=521.787 169.883 101.42 69.132 44.5402 33.8669 30.9517 24.4006 41.6388 22.1941 20.0045 19.8984 19.4074 17.4079 14.3873 12.6132 12.3918 12.0689 11.5161 11.3673 11.2623 8.86535 8.44536 8.43644 7.89303 9.21531 6.22333 5.50957
threshold=1.5000000000000002 0.66715045960328989 4.5000000000000009 1.0000000180025095e-35 8.5000000000000018 74.500000000000014 1.0000000180025095e-35 2.5000000000000004 1.5000000000000002 33.500000000000007 1.0000000180025095e-35 1.0000000180025095e-35 1.0000000180025095e-35 13.500000000000002 0.057714514123290116 885.50000000000011 -10.499999999999998 -1.4999999999999998 -2.3900118906064209 -1.0000000180025095e-35 26.500000000000004 0.04764815461636978 0.53805061052151093 -0.82967185289500678 22.500000000000004 363.50000000000006 0.55592783826592351 139.50000000000003
decision_type=2 2 2 2 2 2 2 2 2 2 2 2 2 2 2 2 2 2 2 2 2 2 2 2 2 2 2 2
left_child=1 3 5 6 7 12 13 11 -9 21 22 -3 20 -1 -14 16 -5 -11 -12 -8 -2 -6 27 -20 -7 -26 -17 -4
right_child=2 4 10 15 9 24 19 8 -10 17 18 -13 14 -15 -16 26 -18 -19 23 -21 -22 -23 -24 -25 25 -27 -28 -29
leaf_value=-0.033501269446565375 0.006771979785966397 -0.0057932636935731779 0.041269743777714391 -0.018020896163111404 0.02202547943626515 0.057403227109172936 -0.018115839219382351 0.038470452917953771 -0.046951924521222224 -0.00061542683831669631 0 0.0060186189803086336 -0.0033690113314182989 -0.017143978902102033 0.016418506028478649 -0.01326791641749178 -0.0010379732602419833 0.02080888232319358 0.0070164090066187224 -0.0013217520385834193 0.028367459420961274 0.050749469666974106 -0.0065076640874787896 0.05523435059064169 0.012062027519000205 0.044920550560625543 -0.043951028453535122 0.0058923143447722794
leaf_count=11358 899 6617 625 1583 1883 945 6944 151 584 1806 192 6088 2315 3125 1892 548 6147 1015 272 1065 2769 353 212 9007 705 990 257 231
internal_value=0 -0.116354 0.401343 -0.240575 0.0359494 0.250932 -0.328801 -0.0265069 -0.404143 0.212326 0.67543 -0.00438413 0.183114 -0.418586 0.0711682 -0.0810567 -0.0535144 0.0830064 0.747031 -0.217793 0.31614 0.378282 0.336058 0.768993 0.56904 0.433725 -0.349082 0.455247
internal_count=70578 49524 21054 31027 18497 10515 22492 13440 735 5057 10539 12705 7875 14483 4207 8535 7730 2821 9471 8009 3668 2236 1068 9279 2640 1695 805 856
shrinkage=0.07


Tree=32
num_leaves=28
num_cat=0
split_feature=7 259 8 452 74 115 85 4 3 1 2 72 1 2 19 18 61 331 383 14 79 158 72 2 122 65 261
split_gain=460.942 149.231 92.5053 63.8012 38.8137 35.6966 27.8787 27.7287 23.0387 22.7851 19.5201 18.8544 15.9146 14.929 11.438 11.0537 10.0981 11.1198 8.54102 7.86866 7.80334 6.97398 6.27408 4.07586 2.747 6.51315 0.396469
threshold=1.5000000000000002 0.66715045960328989 4.5000000000000009 2.5000000000000004 8.5000000000000018 74.500000000000014 1.0000000180025095e-35 7.5000000000000009 -1.0000000180025095e-35 1.0000000180025095e-35 33.500000000000007 20.500000000000004 1.0000000180025095e-35 155.50000000000003 -1.4999999999999998 16.500000000000004 6.5000000000000009 162.50000000000003 212.43848098981223 2.4899799195977472 0.0028486017467312694 9.5000000000000018 469.50000000000006 1245.5000000000002 0.0045249795249795262 1.3875000000000002 0.040061728395061731
decision_type=2 2 2 2 2 2 2 2 2 2 2 2 2 2 2 2 2 2 2 2 2 2 2 2 2 2 2
left_child=1 3 5 6 9 7 8 12 -1 14 18 -11 -2 -8 -3 -12 17 -5 -6 22 -18 -9 -7 24 25 -4 -26
right_child=2 4 23 16 10 19 13 21 -10 11 15 -13 -14 -15 -16 -17 20 -19 -20 -21 -22 -23 -24 -25 26 -27 -28
leaf_value=-0.025814681636542307 0.019811254460130115 -0.0012701752983306431 0.052131669142546716 -0.00058463307377774984 0.027541902815193926 0.031986603054727974 0.0033065367834454618 0.018667599819227158 -0.002513548439235761 -0.016768846897310348 0.016021485817017633 -0.0011213571077379083 0.0045256678452110519 -0.021704779689616607 0.011400298648998901 -0.0029850263157819266 -0.045583923175800185 -0.031826363961756705 -0.0082195562805921722 -0 -0.010153703176590905 0.04479603047909371 0.053916787385049542 0.016720098696511997 0.063340524968591411 0.0057526951264472732 0.02754405465519787
leaf_count=19913 3951 3109 2084 6166 2079 1457 1862 703 1000 2867 1251 4285 4347 1102 3179 1570 206 245 157 177 533 1707 1881 263 4071 249 164
internal_value=0 -0.109067 0.381793 -0.226373 0.0335597 0.287117 -0.303833 0.224557 -0.341948 -0.0246682 0.198739 -0.106638 0.165974 -0.082108 0.0688527 0.0773552 -0.0569871 -0.0280919 0.355275 0.582906 -0.291244 0.521482 0.621925 0.788486 0.809635 0.669827 0.889625
internal_count=70578 49524 21054 31027 18497 14223 23877 10708 20913 13440 5057 7152 8298 2964 6288 2821 7150 6411 2236 3515 739 2410 3338 6831 6568 2333 4235
shrinkage=0.07


Tree=33
num_leaves=32
num_cat=0
split_feature=212 8 452 9 450 83 1 9 122 126 115 5 4 330 78 2 2 122 2 452 14 65 406 218 394 80 130 122 392 290 165
split_gain=409.534 127.409 103.912 42.075 38.7792 27.8658 26.7144 25.0153 23.7368 22.7671 21.7694 20.5815 15.7252 15.1004 13.5114 13.4907 13.0294 13.0141 12.7325 11.725 19.4663 11.4951 11.2945 11.1362 9.88561 7.20362 7.04692 5.99303 5.00257 5.47846 3.62351
threshold=11.500000000000002 3.5000000000000004 1.5000000000000002 1.0000000180025095e-35 18.500000000000004 3.5000000000000004 1.0000000180025095e-35 1.5000000000000002 0.0045249795249795262 41.500000000000007 124.50000000000001 1.0000000180025095e-35 8.5000000000000018 217.50000000000003 0.77836444692114803 33.500000000000007 204.50000000000003 0.018543078887906479 1514.5000000000002 9.5000000000000018 0.44095855184409849 2.291666666666667 0.86512901899212624 0.015393729493255561 1.5000000000000002 0.99861111111111123 0.96230362358885302 0.020090411898851687 -0.6021908614588779 22.500000000000004 0.99375000000000013
decision_type=2 2 2 2 2 2 2 2 2 2 2 2 2 2 2 2 2 2 2 2 2 2 2 2 2 2 2 2 2 2 2
