tree
version=v2
num_class=1
num_tree_per_iteration=1
label_index=0
max_feature_idx=461
objective=binary sigmoid:1
feature_names=register_day register_type device_type register_rest_day launch_total_count_x launch_total_count_y launch_total_count_x.1 launch_total_count_y.1 launch_total_count_x.2 launch_total_count_y.2 launch_total_count launch_day_diff_max launch_day_diff_min launch_day_diff_mean launch_day_diff_std launch_day_diff_kurt launch_day_diff_skew launch_day_diff_last launch_last_day launch_rest_day launch_count_max launch_count_min launch_count_mean launch_count_std launch_count_kurt launch_count_skew launch_count_last launch_day_mode most_launch_day most_launch_day_sub_end_day video_total_count_all video_total_count_1 video_total_count_2 video_total_count_3 video_total_count_5 video_total_count_7 video_total_count_10 video_day_diff_max video_day_diff_min video_day_diff_mean video_day_diff_std video_day_diff_kurt video_day_diff_skew video_day_diff_last video_day_unique_diff_max video_day_unique_diff_min video_day_unique_diff_mean video_day_unique_diff_std video_day_unique_diff_kurt video_day_unique_diff_skew video_day_unique_diff_last video_last_day video_rest_day video_count_max video_count_min video_count_mean video_count_std video_count_kurt video_count_skew video_count_last video_day_mode most_video_day most_video_day_sub_end_day activity_day_diff_max activity_day_diff_min activity_day_diff_mean activity_day_diff_std activity_day_diff_kurt activity_day_diff_skew activity_day_diff_last activity_last_day activity_rest_day activity_total_count_x page0_count_x page1_count_x page2_count_x page3_count_x page4_count_x page0_pct_x page1_pct_x page2_pct_x page3_pct_x page4_pct_x action0_count_x action1_count_x action2_count_x action3_count_x action0_pct_x action1_pct_x action2_pct_x action3_pct_x video_id_most_x author_id_most_x author_video_count_all author_get_activity_count_x author_get_activity_count_y author_get_action0_count_x author_get_action1_count_x author_get_action2_count_x author_get_action3_count_x author_get_action0_pct_x author_get_action1_pct_x author_get_action2_pct_x author_get_action3_pct_x author_get_activity_count_x.1 author_get_page0_count_x author_get_page1_count_x author_get_page2_count_x author_get_page3_count_x author_get_page4_count_x author_get_page0_pct_x author_get_page1_pct_x author_get_page2_pct_x author_get_page3_pct_x author_get_page4_pct_x activity_total_count_y page0_count_y page1_count_y page2_count_y page3_count_y page4_count_y page0_pct_y page1_pct_y page2_pct_y page3_pct_y page4_pct_y action0_count_y action1_count_y action2_count_y action3_count_y action0_pct_y action1_pct_y action2_pct_y action3_pct_y video_id_most_y author_id_most_y author_video_count_1 author_get_activity_count_y.1 author_get_activity_count_x.2 author_get_action0_count_y author_get_action1_count_y author_get_action2_count_y author_get_action3_count_y author_get_action0_pct_y author_get_action1_pct_y author_get_action2_pct_y author_get_action3_pct_y author_get_activity_count_y.2 author_get_page0_count_y author_get_page1_count_y author_get_page2_count_y author_get_page3_count_y author_get_page4_count_y author_get_page0_pct_y author_get_page1_pct_y author_get_page2_pct_y author_get_page3_pct_y author_get_page4_pct_y activity_total_count_x.1 page0_count_x.1 page1_count_x.1 page2_count_x.1 page3_count_x.1 page4_count_x.1 page0_pct_x.1 page1_pct_x.1 page2_pct_x.1 page3_pct_x.1 page4_pct_x.1 action0_count_x.1 action1_count_x.1 action2_count_x.1 action3_count_x.1 action0_pct_x.1 action1_pct_x.1 action2_pct_x.1 action3_pct_x.1 video_id_most_x.1 author_id_most_x.1 author_video_count_2 author_get_activity_count_x.3 author_get_activity_count_y.3 author_get_action0_count_x.1 author_get_action1_count_x.1 author_get_action2_count_x.1 author_get_action3_count_x.1 author_get_action0_pct_x.1 author_get_action1_pct_x.1 author_get_action2_pct_x.1 author_get_action3_pct_x.1 author_get_activity_count_x.4 author_get_page0_count_x.1 author_get_page1_count_x.1 author_get_page2_count_x.1 author_get_page3_count_x.1 author_get_page4_count_x.1 author_get_page0_pct_x.1 author_get_page1_pct_x.1 author_get_page2_pct_x.1 author_get_page3_pct_x.1 author_get_page4_pct_x.1 activity_total_count_y.1 page0_count_y.1 page1_count_y.1 page2_count_y.1 page3_count_y.1 page4_count_y.1 page0_pct_y.1 page1_pct_y.1 page2_pct_y.1 page3_pct_y.1 page4_pct_y.1 action0_count_y.1 action1_count_y.1 action2_count_y.1 action3_count_y.1 action0_pct_y.1 action1_pct_y.1 action2_pct_y.1 action3_pct_y.1 video_id_most_y.1 author_id_most_y.1 author_video_count_3 author_get_activity_count_y.4 author_get_activity_count_x.5 author_get_action0_count_y.1 author_get_action1_count_y.1 author_get_action2_count_y.1 author_get_action3_count_y.1 author_get_action0_pct_y.1 author_get_action1_pct_y.1 author_get_action2_pct_y.1 author_get_action3_pct_y.1 author_get_activity_count_y.5 author_get_page0_count_y.1 author_get_page1_count_y.1 author_get_page2_count_y.1 author_get_page3_count_y.1 author_get_page4_count_y.1 author_get_page0_pct_y.1 author_get_page1_pct_y.1 author_get_page2_pct_y.1 author_get_page3_pct_y.1 author_get_page4_pct_y.1 activity_total_count_x.2 page0_count_x.2 page1_count_x.2 page2_count_x.2 page3_count_x.2 page4_count_x.2 page0_pct_x.2 page1_pct_x.2 page2_pct_x.2 page3_pct_x.2 page4_pct_x.2 action0_count_x.2 action1_count_x.2 action2_count_x.2 action3_count_x.2 action0_pct_x.2 action1_pct_x.2 action2_pct_x.2 action3_pct_x.2 video_id_most_x.2 author_id_most_x.2 author_video_count_5 author_get_activity_count_x.6 author_get_activity_count_y.6 author_get_action0_count_x.2 author_get_action1_count_x.2 author_get_action2_count_x.2 author_get_action3_count_x.2 author_get_action0_pct_x.2 author_get_action1_pct_x.2 author_get_action2_pct_x.2 author_get_action3_pct_x.2 author_get_activity_count_x.7 author_get_page0_count_x.2 author_get_page1_count_x.2 author_get_page2_count_x.2 author_get_page3_count_x.2 author_get_page4_count_x.2 author_get_page0_pct_x.2 author_get_page1_pct_x.2 author_get_page2_pct_x.2 author_get_page3_pct_x.2 author_get_page4_pct_x.2 activity_total_count_y.2 page0_count_y.2 page1_count_y.2 page2_count_y.2 page3_count_y.2 page4_count_y.2 page0_pct_y.2 page1_pct_y.2 page2_pct_y.2 page3_pct_y.2 page4_pct_y.2 action0_count_y.2 action1_count_y.2 action2_count_y.2 action3_count_y.2 action0_pct_y.2 action1_pct_y.2 action2_pct_y.2 action3_pct_y.2 video_id_most_y.2 author_id_most_y.2 author_video_count_7 author_get_activity_count_y.7 author_get_activity_count_x.8 author_get_action0_count_y.2 author_get_action1_count_y.2 author_get_action2_count_y.2 author_get_action3_count_y.2 author_get_action0_pct_y.2 author_get_action1_pct_y.2 author_get_action2_pct_y.2 author_get_action3_pct_y.2 author_get_activity_count_y.8 author_get_page0_count_y.2 author_get_page1_count_y.2 author_get_page2_count_y.2 author_get_page3_count_y.2 author_get_page4_count_y.2 author_get_page0_pct_y.2 author_get_page1_pct_y.2 author_get_page2_pct_y.2 author_get_page3_pct_y.2 author_get_page4_pct_y.2 activity_total_count page0_count page1_count page2_count page3_count page4_count page0_pct page1_pct page2_pct page3_pct page4_pct action0_count action1_count action2_count action3_count action0_pct action1_pct action2_pct action3_pct video_id_most author_id_most author_video_count_10 author_get_activity_count_x.9 author_get_activity_count_y.9 author_get_action0_count author_get_action1_count author_get_action2_count author_get_action3_count author_get_action0_pct author_get_action1_pct author_get_action2_pct author_get_action3_pct author_get_activity_count author_get_page0_count author_get_page1_count author_get_page2_count author_get_page3_count author_get_page4_count author_get_page0_pct author_get_page1_pct author_get_page2_pct author_get_page3_pct author_get_page4_pct activity_count_max activity_count_min activity_count_mean activity_count_std activity_count_kurt activity_count_skew activity_count_last activity_count_diff_max activity_count_diff_min activity_count_diff_mean activity_count_diff_std activity_count_diff_kurt activity_count_diff_skew activity_count_diff_last page0_max page0_min page0_mean page0_std page0_kurt page0_skew page0_last page1_max page1_min page1_mean page1_std page1_kurt page1_skew page1_last page2_max page2_min page2_mean page2_std page2_kurt page2_skew page2_last page3_max page3_min page3_mean page3_std page3_kurt page3_skew page3_last page4_max page4_min page4_mean page4_std page4_kurt page4_skew page4_last action0_max action0_min action0_mean action0_std action0_kurt action0_skew action0_last action1_max action1_min action1_mean action1_std action1_kurt action1_skew action1_last action2_max action2_min action2_mean action2_std action2_kurt action2_skew action2_last action3_max action3_min action3_mean action3_std action3_kurt action3_skew action3_last most_activity_day most_activity_day_sub_end_day last_launch_sub_register last_video_sub_register last_activity_sub_register author_video_pct_all author_video_pct_1 author_video_pct_2 author_video_pct_3 author_video_pct_5 author_video_pct_7 author_video_pct_10
feature_infos=[1:23] [0:11] [0:93538] [-22:0] [0:16] [0:1] [0:2] [0:3] [0:5] [0:7] [0:10] [0:15] [0:15] [0:15] [0:9.1923881554251174] [-6:14.000000000000016] [-2.449489742783177:3.7416573867739431] [0:15] [0:23] [-15:0] [0:1] [0:1] [0:1] none none none [0:1] [0:1] [0:23] [-15:0] [0:145] [0:30] [0:47] [0:62] [0:76] [0:76] [0:107] [0:15] [0:15] [0:15] [0:9.8994949366116636] [-6:46.000000000000036] [-2.8284271247461903:6.7823299831252735] [0:15] [0:15] [0:15] [0:15] [0:8.4852813742385695] [-6:14.000000000000016] [-2.4494897427831779:3.7416573867739431] [0:15] [0:23] [-15:0] [0:63] [0:30] [0:30] [0:24.748737341529164] [-6:14.000000000000005] [-2.2360679774997889:3.7416573867739431] [0:30] [0:30] [0:23] none [0:15] [0:15] [0:15] [0:9.1923881554251174] [-6:14.000000000000016] [-2.6457513110645907:3.7416573867739431] [0:15] [0:23] [-15:0] [0:23286] [0:9151] [0:5278] [0:2920] [0:16030] [0:1178] [0:1] [0:1] [0:1] [0:1] [0:1] [0:21653] [0:7490] [0:834] [0:383] [0:1] [0:1] [0:0.83333333333333337] [0:0.75] [0:3666] [0:5614] [0:175] [0:3405] [0:3405] [0:3371] [0:325] none [0:114] [0:1] [0:0.94444444444444442] none [0:1] [0:3405] none [0:951] [0:276] [0:2834] [0:467] none [0:1] [0:1] [0:1] [0:1] [0:2026] [0:1083] [0:595] [0:297] [0:1339] [0:236] [0:1] [0:1] [0:1] [0:1] [0:1] [0:1959] [0:527] [0:257] [0:85] [0:1] [0:1] [0:0.75] [0:0.5] [0:591] [0:682] [0:47] [0:684] [0:684] [0:664] [0:29] none [0:16] [0:1] [0:0.66666666666666663] none [0:0.5] [0:684] none [0:143] [0:26] [0:514] [0:91] none [0:1] [0:1] [0:1] [0:1] [0:3711] [0:1846] [0:1383] [0:505] [0:2586] [0:303] [0:1] [0:1] [0:1] [0:1] [0:1] [0:3016] [0:1201] [0:362] [0:245] [0:1] [0:0.90070921985815589] [0:0.75] [0:0.5] [0:1333] [0:2363] [0:50] [0:1044] [0:1044] [0:989] [0:73] none [0:24] [0:1] [0:0.80000000000000004] none [0:0.5] [0:1044] none [0:328] [0:73] [0:592] [0:161] none [0:1] [0:1] [0:1] [0:1] [0:4198] [0:3559] [0:1460] [0:736] [0:2738] [0:467] [0:1] [0:1] [0:1] [0:1] [0:1] [0:3855] [0:1649] [0:782] [0:245] [0:1] [0:1] [0:0.83333333333333337] [0:0.5] [0:1333] [0:2363] [0:59] [0:1147] [0:1147] [0:1088] [0:146] none [0:28] [0:1] [0:0.84375] none [0:0.5] [0:1147] none [0:406] [0:92] [0:599] [0:214] none [0:1] [0:1] [0:1] [0:1] [0:6827] [0:4230] [0:2148] [0:1920] [0:4594] [0:567] [0:1] [0:1] [0:1] [0:1] [0:1] [0:6289] [0:2203] [0:783] [0:245] [0:1] [0:1] [0:0.83333333333333337] [0:0.66666666666666663] [0:1333] [0:2363] [0:71] [0:1367] [0:1367] [0:1352] [0:236] none [0:49] [0:1] [0:0.90666666666666662] none [0:0.5] [0:1367] none [0:406] [0:215] [0:1119] [0:395] none [0:1] [0:1] [0:1] [0:1] [0:10104] [0:4771] [0:4501] [0:1920] [0:6938] [0:647] [0:1] [0:1] [0:1] [0:1] [0:1] [0:9352] [0:4604] [0:785] [0:245] [0:1] [0:1] [0:0.83333333333333337] [0:0.66666666666666663] [0:3666] [0:4658] [0:134] [0:1658] [0:1658] [0:1642] [0:268] none [0:79] [0:1] [0:0.90666666666666662] none [0:0.5] [0:1658] none [0:483] [0:253] [0:1333] [0:467] none [0:1] [0:1] [0:1] [0:1] [0:15562] [0:5587] [0:4561] [0:1920] [0:11246] [0:986] [0:1] [0:1] [0:1] [0:1] [0:1] [0:14498] [0:4610] [0:831] [0:264] [0:1] [0:1] [0:0.83333333333333337] [0:0.75] [0:3666] [0:4768] [0:141] [0:2388] [0:2388] [0:2359] [0:323] none [0:88] [0:1] [0:0.83333333333333337] none [0:0.5] [0:2388] none [0:697] [0:271] [0:1766] [0:467] none [0:1] [0:1] [0:1] [0:1] [0:3956] [0:2026] [0:2026] [0:2419.0122984391792] [-6:13.123279440068085] [-2.2188116951945447:3.559306924687657] [0:2026] [-3421:3883] [-3421:1254] [-3421:1254] [0:3351.0509296836021] [-5.9954289198075124:11.149644143810846] [-3.0425730858872315:3.1343046770605016] [-3421:1254] [0:2270] [0:1083] [0:1083] [0:1180.8683245815344] [-6:11.983501497450655] [-2.301560357457523:3.3890410386517411] [0:1083] [0:3924] [0:1184] [0:1184] [0:1292.2527595035133] [-6:11.799892331383807] [-2.449489742783177:3.2804311338501617] [0:1184] [0:1917] [0:253] [0:960] [0:1353.402379191052] [-6:14.469462089437235] [-2:3.7769606412280101] [0:1917] [0:1734] [0:1339] [0:1339] [0:1182.9896449250939] [-6:13.948513413201393] [-2.1600657609858018:3.6646132664937503] [0:1339] [0:240] [0:120] [0:141.75] [0:164.04877323527901] [-6:9.6665668454070914] [-2.2360679774997902:2.9730806365775417] [0:236] [0:3415] [0:1959] [0:1959] [0:1951.6147160748712] [-6:13.188480292197996] [-2.2921469347233407:3.5743297076674576] [0:1959] [0:3913] [0:333] [0:577.25] [0:1361.6683831661385] [-6:13.900975563135331] [-2.6457513110645907:3.674239644718448] [0:527] [0:459] [0:403] [0:403] [0:231.93102422918759] [-6:11.610287404938946] [-2.4494897427831801:3.3155073405513864] [0:403] [0:160] [0:85] [0:122.5] [0:57.27564927611035] [-6:9.1876851012883431] [-2.2360679774997898:2.9928842665852016] [0:150] [0:23] [-15:0] [0:22] [0:22] [0:22] [0:11] [0:20] [0:28] [0:21] [0:26] [0:18] [0:18]
tree_sizes=2645 2644 2554 2565 2657 2574 2568 2562 2591 2658 2659 2652 2573 2664 2665 2354 2471 2570 2503 2586 2569 2576 2508 2604 2514 2670 2586 2670 2403 2341 2408 2409 2441 2411 2491 2498 2563 2414 2422 2519 2106 2215 2190 2390 2423 2431 2423 2331 2416 2387 2272 2000 1965 2147 2156 2168 2504 2108 2116 2040 2376 2229 2422 1761 2076 1995 2095 2306 2144 2003 2157 2046 2070 1533 2021 1963 2293 1916 1863 1734 2302 2341 2431 1935 2017 1031 1302 1710 891 1204 1636 1271 1317 1396 1698 1534 1385 1302 1074 899 2142 2213 1610 1609 1656 2089 2034 1701 1699 1242 1299 1214 1523 1004 811 804 893 1046 1220 1529 2285 2022 1426 1683 727 1287 1439 1865 1129 1352 1565 1542 1557 1890 1291 1102 1789 1150 1301 2312 1390 1288 1310 1318 1275 1564 1313 1782 1865

Tree=0
num_leaves=32
num_cat=0
split_feature=216 10 7 72 8 130 130 8 13 10 3 130 383 10 350 83 452 298 5 452 63 9 115 373 9 10 70 92 72 1 9
split_gain=21410.7 3212.7 2380.04 670.693 611.071 343.969 332.546 311.848 276.421 238.996 229.381 186.914 177.054 175.68 171.07 131.534 89.7954 57.288 45.0899 42.836 41.6441 37.6274 29.4551 22.5203 19.6635 14.5135 14.0954 9.62555 6.77791 6.46007 5.35271
threshold=0.57866287339971556 1.5000000000000002 1.5000000000000002 20.500000000000004 2.5000000000000004 0.54377104377104379 0.68596301148961925 1.0000000180025095e-35 1.3875000000000002 1.5000000000000002 -1.0000000180025095e-35 0.60070754716981145 1.0000000180025095e-35 3.5000000000000004 1.5000000000000002 83.500000000000014 4.5000000000000009 78.500000000000014 1.0000000180025095e-35 7.5000000000000009 1.0000000180025095e-35 4.5000000000000009 10.500000000000002 18.500000000000004 2.5000000000000004 5.5000000000000009 4.5000000000000009 19.500000000000004 47.500000000000007 1.5000000000000002 4.5000000000000009
decision_type=2 2 2 2 2 2 2 2 2 2 2 2 2 2 2 2 2 2 2 2 2 2 2 2 2 2 2 2 2 2 2
left_child=1 8 3 11 7 13 9 16 10 -5 14 20 -9 23 -1 24 -3 -8 28 26 -2 -17 -13 -4 -7 -15 -10 -21 -6 -12 -20
right_child=2 4 5 6 18 15 17 12 19 -11 29 22 -14 25 -16 21 -18 -19 30 27 -22 -23 -24 -25 -26 -27 -28 -29 -30 -31 -32
leaf_value=-0.11103869876098468 -0.048865096359743052 -0.066343042071197414 0.015117370892018782 -0.0078686700055648311 0.025277777777777781 0.072507260406582771 0.071329113924050641 -0.019293286219081274 -0.10161290322580646 0.053681528662420389 -0.0411764705882353 0.0092787524366471745 0.031182303585049583 0.087094474153297685 -0.082750929368029746 0.11693747660052416 -0.018139534883720929 0.10795774647887324 0.092941176470588235 -0.039112271540469978 0.0014736842105263158 0.13333574966775402 0.051370967741935489 0.053011556764106058 0.10295384615384617 0.11151271753681394 -0.061841726618705045 -0.0070503597122302166 0.071521739130434803 -0.013023255813953489 0.13096774193548388
leaf_count=18317 1864 2159 422 1793 140 1029 1892 2826 244 3921 710 1022 2618 1118 5645 5338 1200 1700 234 762 376 8273 492 1467 971 1490 1386 274 180 254 461
internal_value=0 -1.03758 1.16942 0.50398 -0.0545714 1.60123 0.791837 -0.224594 -1.38716 0.490381 -1.45287 -0.208622 0.0704846 1.10953 -1.49145 1.7423 -0.703539 1.26919 1.41119 -0.770037 -0.575758 1.81373 0.332016 0.639197 1.2515 1.44717 -0.974296 -0.442308 0.753086 -0.487603 1.70243
internal_count=70578 37410 33168 13060 9818 20108 9306 8803 27592 5714 24926 3754 5444 4497 23962 15611 3359 3592 1015 2666 2240 13611 1514 1889 2000 2608 1630 1036 320 964 695
shrinkage=0.07


Tree=1
num_leaves=32
num_cat=0
split_feature=216 10 9 126 8 10 5 14 452 3 330 255 19 287 3 9 452 83 5 13 158 6 454 18 173 407 350 92 1 9 14
split_gain=18566.3 2791.59 2083.49 967.436 531.307 342.705 329.652 286.012 243.366 201.362 164.192 117.06 90.719 88.331 61.746 53.7235 43.8816 40.8389 39.1913 33.3212 29.2545 28.4484 16.9021 14.2448 11.7131 9.04085 6.1193 5.88022 5.53093 4.52121 0.648052
threshold=0.57866287339971556 1.5000000000000002 2.5000000000000004 11.500000000000002 2.5000000000000004 1.5000000000000002 1.0000000180025095e-35 0.28301261635371383 4.5000000000000009 -1.0000000180025095e-35 1.5000000000000002 1.0000000180025095e-35 -3.4999999999999996 70.500000000000014 -1.0000000180025095e-35 4.5000000000000009 5.5000000000000009 19.500000000000004 1.0000000180025095e-35 1.6458333333333337 59.500000000000007 1.0000000180025095e-35 9.5000000000000018 21.500000000000004 0.85739705134722943 2.5000000000000004 6.5000000000000009 10.500000000000002 1.5000000000000002 4.5000000000000009 0.3892494720807616
decision_type=2 2 2 2 2 2 2 2 2 2 2 2 2 2 2 2 2 2 2 2 2 2 2 2 2 2 2 2 2 2 2
left_child=1 8 3 5 7 14 16 11 9 10 -1 -3 -9 23 -2 20 21 -7 27 26 -8 -4 -21 -5 -18 -15 -10 -6 -11 -20 -17
right_child=2 4 6 13 18 17 15 12 19 28 -12 -13 -14 25 -16 30 24 -19 29 22 -22 -23 -24 -25 -26 -27 -28 -29 -30 -31 -32
leaf_value=-0.10485574179862961 -0.02704210970754627 -0.056206832013560547 0.028643180049488303 0.076234961349379515 0.024886772958156823 0.01109036968984327 0.092060441071418891 -0.0094085960351604058 -0.073913373513343025 -0.038326823346161477 -0.078198084943948198 -0.010621407022172916 0.032032083973933145 0.091382218155484196 0.012019724041951152 0.12630313814673794 0.07112698353938475 0.043485357570928015 0.08673313118857133 -0.045994559777025795 0.11451617143941796 0.067910118255389063 -0.010078475100136491 0.051185550660895147 0.092767561197574261 0.11068513898734093 -0.037006942970088698 0.068008763971673478 -0.01212628024803925 0.1224107501408685 0.1178443293327517
leaf_count=17292 3632 2836 606 905 150 1023 2323 1973 1096 710 6392 1839 2155 1672 1001 6209 1120 3369 234 1357 3185 1070 346 1240 1545 1306 145 170 254 461 2962
internal_value=0 -0.967001 1.09043 0.508531 -0.0505902 0.113967 1.52378 -0.209023 -1.29349 -1.35879 -1.39545 -0.547892 0.173834 1.20339 -0.264823 1.66802 1.03518 0.51454 1.31812 -0.74497 1.50238 0.771084 -0.555706 0.885816 1.19847 1.4297 -0.999361 0.702995 -0.454135 1.59072 1.76649
internal_count=70578 37410 33168 14148 9818 9025 19020 8803 27592 24648 23684 4675 4128 5123 4633 14679 4341 4392 1015 2944 5508 1676 1703 2145 2665 2978 1241 320 964 695 9171
shrinkage=0.07


Tree=2
num_leaves=31
num_cat=0
split_feature=8 302 126 5 63 13 383 9 5 7 72 341 6 66 452 454 201 16 126 376 296 4 70 298 4 10 2 9 244 1
split_gain=16209.2 3134.14 1141.25 1072 457.935 379.426 268.646 191.896 174.502 146.333 105.194 99.4141 96.0323 65.9535 64.673 64.2107 50.1035 31.8749 29.4002 21.4421 20.6724 19.8577 18.9518 18.1782 17.7417 17.4006 15.1912 14.4924 6.62594 5.94456
threshold=1.5000000000000002 0.50294117647058834 4.5000000000000009 1.0000000180025095e-35 1.5000000000000002 1.1602564102564104 2.1407836215144651 3.5000000000000004 1.0000000180025095e-35 1.0000000180025095e-35 40.500000000000007 27.500000000000004 1.0000000180025095e-35 0.6270185462708685 7.5000000000000009 1.0000000180025095e-35 14.500000000000002 0.31396291909149082 62.500000000000007 2.1291482001014623 0.72690874637200276 4.5000000000000009 14.500000000000002 100.50000000000001 3.5000000000000004 5.5000000000000009 382.50000000000006 5.5000000000000009 90.500000000000014 1.5000000000000002
decision_type=2 2 2 2 2 2 2 2 2 2 2 2 2 2 2 2 2 2 2 2 2 2 2 2 2 2 2 2 2 2
left_child=1 5 4 6 9 8 16 10 15 -3 19 20 17 -6 22 -1 24 -8 -12 -5 -4 -16 -7 -13 -2 -14 -18 28 -9 -10
right_child=3 2 11 7 13 14 12 27 29 -11 18 23 25 -15 21 -17 26 -19 -20 -21 -22 -23 -24 -25 -26 -27 -28 -29 -30 -31
leaf_value=-0.098040736151369892 -0.010990155452236371 -0.060138591476733685 0.038655557036641121 0.034101316776691176 -0.0087207022642923834 -0.062979138871698551 0.023199766537061725 0.096063065282404561 -0.038971939867759223 -0.024303316546384839 0.082837393899586845 0.068251120745858818 0.068721578142738562 0.025736342019454198 -0.028535258083121795 -0.075726824700545939 0.037554679150345369 0.055720426690271517 0.105994257348393 0.068786732090092936 -0.0084701636170955077 0.0095260567645509692 -0.028398796245398122 0.095962606692288302 0.030452006184971226 0.092153795810809833 0 0.11846070736196551 0.11104089632708644 -0.011723059392184935
leaf_count=17911 1503 5088 1138 813 1916 1975 1131 1490 674 4078 2771 1366 1808 2493 956 3216 1113 1363 2272 716 205 358 420 943 228 1280 279 7158 3663 253
internal_value=0 -0.769809 -0.108731 1.20291 -0.376029 -1.21409 0.620911 1.47336 -1.31462 -0.631452 1.19239 0.88596 0.884575 0.152913 -0.618584 -1.35236 0.149281 0.587695 1.33403 0.723524 0.446405 -0.256487 -0.815425 1.14007 -0.0759408 1.12301 0.43206 1.62352 1.52622 -0.455869
internal_count=70578 42990 17227 27588 13575 25763 8705 18883 22054 9166 6572 3652 5582 4409 3709 21127 3123 2494 5043 1529 1343 1314 2395 2309 1731 3088 1392 12311 5153 927
shrinkage=0.07


Tree=3
num_leaves=31
num_cat=0
split_feature=8 259 5 115 452 4 4 9 3 173 9 330 83 201 6 4 298 68 330 126 345 376 83 66 8 2 2 65 116 1
split_gain=14171.5 2757.45 963.635 794.498 607.81 289.845 237.238 176.954 167.61 121.777 121.04 116.217 94.9499 64.4505 61.3828 49.4738 44.7592 29.6516 29.2285 22.9952 21.2887 20.6304 18.4896 18.228 14.0938 12.6246 12.3297 6.76902 4.29281 3.96735
threshold=1.5000000000000002 0.58387445887445899 1.0000000180025095e-35 10.500000000000002 2.5000000000000004 2.5000000000000004 3.5000000000000004 3.5000000000000004 -1.0000000180025095e-35 0.66755083996463316 1.0000000180025095e-35 5.5000000000000009 47.500000000000007 69.500000000000014 1.0000000180025095e-35 3.5000000000000004 57.500000000000007 0.40948923528366832 8.5000000000000018 39.500000000000007 0.66728395061728396 2.1291482001014623 32.500000000000007 0.2723056700125196 4.5000000000000009 33.500000000000007 182.50000000000003 2.1547619047619051 93.500000000000014 1.5000000000000002
decision_type=2 2 2 2 2 2 2 2 2 2 2 2 2 2 2 2 2 2 2 2 2 2 2 2 2 2 2 2 2 2
left_child=1 4 6 5 8 9 13 12 11 -3 20 -1 21 18 23 -12 26 -7 -2 -14 -6 -4 -16 -8 27 -15 -5 -9 -18 -10
right_child=2 3 7 16 10 17 14 24 29 -11 15 -13 19 25 22 -17 28 -19 -20 -21 -22 -23 -24 -25 -26 -27 -28 -29 -30 -31
leaf_value=-0.092930145284180574 -0.026505622161409472 -0.043105717992813951 0.033485221447129489 0.056223718695374562 -0.065032317041602464 0.012454215275581113 0.020161944850985603 0.10331673003365523 -0.033055946148726298 -0.0055632165306843881 -0.033667219811776672 -0.067322243270678997 0.075950534252371596 0.063565832737067396 0.030662923960074809 0.0003515349111729841 0.07573254086561855 0.044143760403715225 0.0099499174225914505 0.097642026552839614 -0.040921668242714267 0.065065491644621554 0.078359556831454513 0.050679695380789487 0.11262058276046383 0.030199090089169576 0.026355503838239147 0.081643290799706753 0.097735783950353608 -0.010557603715796423
leaf_count=17673 530 4822 849 1203 2064 1447 567 4931 716 2652 1799 4596 1934 411 200 1543 987 1010 2213 2854 1302 935 2583 1562 6824 639 421 556 501 254
internal_value=0 -0.721473 1.13194 0.0468447 -1.05997 -0.228766 0.580026 1.39117 -1.21557 -0.425524 -0.527024 -1.25182 1.1204 0.202654 0.87238 -0.255351 0.935148 0.366279 0.0394966 1.27102 -0.797221 0.717855 1.07226 0.610266 1.53694 0.624494 0.696258 1.44611 1.19374 -0.392966
internal_count=70578 42990 27588 13043 29947 9931 8705 18883 23239 7474 6708 22269 6572 3793 4912 3342 3112 2457 2743 4788 3366 1784 2783 2129 12311 1050 1624 5487 1488 970
shrinkage=0.07


Tree=4
num_leaves=32
num_cat=0
split_feature=212 10 9 126 6 5 10 10 66 4 5 4 298 8 452 19 9 450 2 336 4 10 158 173 388 174 18 6 450 78 83
split_gain=12460.7 2165.07 1294.5 555.219 401.203 219.4 201.311 184.251 182.121 125.789 123.924 122.643 76.1401 73.1688 56.6641 46.3888 38.3398 35.118 31.7933 28.441 27.0842 25.7981 20.294 15.0281 14.4074 14.1079 12.2338 9.77119 9.33899 4.78401 1.37543
threshold=2.5000000000000004 1.5000000000000002 2.5000000000000004 10.500000000000002 1.0000000180025095e-35 1.0000000180025095e-35 1.0000000180025095e-35 1.5000000000000002 0.28301261635371383 3.5000000000000004 1.0000000180025095e-35 1.5000000000000002 57.500000000000007 1.0000000180025095e-35 2.5000000000000004 -5.4999999999999991 4.5000000000000009 19.500000000000004 234.50000000000003 0.22620116269128837 5.5000000000000009 5.5000000000000009 59.500000000000007 0.93342967244701358 8.5000000000000018 0.22245564892623718 22.500000000000004 1.0000000180025095e-35 3.5000000000000004 0.55567907605210343 313.50000000000006
decision_type=2 2 2 2 2 2 2 2 2 2 2 2 2 2 2 2 2 2 2 2 2 2 2 2 2 2 2 2 2 2 2
left_child=1 6 3 7 8 20 14 17 13 19 11 -8 25 -3 24 -10 22 -2 -9 -6 23 -11 -7 -4 -1 -5 -14 -22 -12 -16 -18
right_child=2 4 5 12 9 16 10 18 15 21 28 -13 26 -15 29 -17 30 -19 -20 -21 27 -23 -24 -25 -26 -27 -28 -29 -30 -31 -32
leaf_value=-0.093989839071485171 0.0016973738538967095 -0.049184833515199013 0.037231062391873522 0.049805220174262609 -0.0093700378187987939 0.07749479805008519 -0.073731390510560019 0.037079781233658619 -0.022839773271200924 0.058046688345043493 -0.029749097642488159 -0.039502912469156305 0.095027539840879832 -0.015382034043935063 -0.067884473263275527 0.021427169165754729 0.097539616278357513 -0.025027540941568015 0.0066686457414729585 0.038446646370056133 0.056260471460521863 0.097683649237331888 0.096988692395376122 0.063226854343171685 -0.077895903374875605 0.0015934589184412446 0.074238576590307234 0.080493870692478431 -0.0033561177279302964 -0.047003831301466084 0.10712424308849328
leaf_count=9425 1740 2352 1089 1939 569 2218 11598 3039 568 843 874 2611 1178 2819 1091 2395 1882 2119 906 416 627 669 3192 910 1744 141 2050 1449 414 483 7228
internal_value=0 -0.766924 0.946733 0.464326 0.00308616 1.2967 -1.06338 0.125566 -0.211416 0.711689 -0.907399 -0.962704 0.972477 -0.4392 -1.25501 0.183157 1.41689 -0.184495 0.431048 0.151441 0.87986 1.08162 1.27225 0.70375 -1.30758 0.6666 1.17183 1.04771 -0.307144 -0.88276 1.5031
internal_count=70578 38871 31707 13112 10631 18595 28240 7804 8134 2497 15497 14209 5308 5171 12743 2963 14520 3859 3945 985 4075 1512 5410 1999 11169 2080 3228 2076 1288 1574 9110
shrinkage=0.07


Tree=5
num_leaves=31
num_cat=0
split_feature=8 302 5 126 452 454 383 9 3 207 126 424 6 19 330 8 212 83 4 2 452 18 4 11 8 201 90 303 201 2
split_gain=11076.9 2220.84 793.572 702.052 321.006 311.724 205.587 173.677 150.311 112.518 80.0089 72.4623 68.3255 56.2465 48.0644 47.2975 38.2502 33.3723 23.8098 18.3492 17.9032 16.3873 15.1691 14.1553 12.8882 9.13124 6.74197 5.25276 4.81214 3.49678
threshold=1.5000000000000002 0.60050505050505065 1.0000000180025095e-35 2.5000000000000004 2.5000000000000004 1.5000000000000002 2.1407836215144651 3.5000000000000004 -1.0000000180025095e-35 0.015898291375998384 39.500000000000007 56.866071428571431 1.0000000180025095e-35 -8.4999999999999982 8.5000000000000018 1.0000000180025095e-35 10.500000000000002 18.500000000000004 4.5000000000000009 97.500000000000014 1.5000000000000002 21.500000000000004 5.5000000000000009 1.5000000000000002 4.5000000000000009 12.500000000000002 0.0043509812582823255 0.00287150183875064 215.50000000000003 29.500000000000004
decision_type=2 2 2 2 2 2 2 2 2 2 2 2 2 2 2 2 2 2 2 2 2 2 2 2 2 2 2 2 2 2
left_child=1 4 6 5 8 9 16 10 14 -3 17 21 23 26 -1 -7 20 -4 -15 -18 -2 -5 -14 -8 25 -9 -6 -13 -12 -10
right_child=2 3 7 11 13 15 12 24 29 -11 28 27 22 18 -16 -17 19 -19 -20 -21 -22 -23 -24 -25 -26 -27 -28 -29 -30 -31
leaf_value=-0.084688710735962375 -0.022435518607891086 -0.051190689904274 0.031290322957330627 0.047554717593427241 -0.059034571979710813 -0.015003103033593604 0.018608075178525092 0.0746356496557979 -0.034844427183913097 -0.014907647356257062 0.078079256421330082 0.087264652660881029 0.054644564361417035 -0.032992069076811584 -0.06310170240208042 0.014083282078443381 0.037036722030720337 0.063161955981772142 -0.0020186952827887703 0.0046590576536287964 0.0065425437784884027 0.022672072604404573 0.07639137357298216 0.042280159740469087 0.10338631395015008 0.095126237548457296 -0.025090188233326097 0.064875278899066677 0.094275996272481441 -0.015593960652366949
leaf_count=17651 793 5116 932 938 1990 1557 794 778 379 2575 1227 550 1389 2182 2586 3714 860 2755 658 615 858 1397 1721 1693 6860 4714 167 922 1648 559
internal_value=0 -0.64359 1.01634 -0.0739279 -1.01957 -0.296094 0.515808 1.25863 -1.13173 -0.556074 0.987757 0.691989 0.74952 -0.558235 -1.16999 0.0778907 0.103646 0.786702 -0.369944 0.339259 -0.103412 0.469222 0.953685 0.4977 1.40684 1.31868 -0.80833 1.05257 1.25096 -0.33977
internal_count=70578 42941 27637 16769 26172 12962 8723 18914 21175 7691 6562 3807 5597 4997 20237 5271 3126 3687 2840 1475 1651 2335 3110 2487 12352 5492 2157 1472 2875 938
shrinkage=0.07


Tree=6
num_leaves=31
num_cat=0
split_feature=6 302 72 376 452 8 6 130 7 9 4 244 130 383 9 14 72 397 2 83 2 244 115 71 334 9 4 378 346 13
split_gain=9772.9 1471.8 1369.61 458.601 305.082 271.219 267.367 174.795 98.0597 93.6937 71.7443 64.6119 63.3804 53.4987 46.3731 37.4482 35.8557 32.6129 28.7876 23.971 22.1809 21.8827 20.2945 20.2942 20.1098 14.878 11.6338 9.76098 6.16522 5.49292
threshold=1.0000000180025095e-35 0.58387445887445899 45.500000000000007 0.72556529516469637 1.5000000000000002 2.5000000000000004 1.5000000000000002 0.66710992907801425 1.0000000180025095e-35 1.5000000000000002 4.5000000000000009 14.500000000000002 0.81794507575757591 1.0000000180025095e-35 3.5000000000000004 0.29509323958628836 8.5000000000000018 1.0000000180025095e-35 955.50000000000011 8.5000000000000018 23.500000000000004 146.50000000000003 22.500000000000004 -3.4999999999999996 62.500000000000007 1.0000000180025095e-35 5.5000000000000009 -0.32160298230648171 0.0048005129287123334 1.4142857142857144
decision_type=2 2 2 2 2 2 2 2 2 2 2 2 2 2 2 2 2 2 2 2 2 2 2 2 2 2 2 2 2 2
left_child=1 4 5 11 16 7 10 9 13 -2 12 18 -4 -5 22 24 25 -10 -3 -9 -17 -13 -8 -7 -6 -1 -25 -12 -18 -16
right_child=2 3 6 8 15 23 14 19 17 -11 27 21 -14 -15 29 20 28 -19 -20 -21 -22 -23 -24 26 -26 -27 -28 -29 -30 -31
leaf_value=-0.087248514736001592 -0.02858052111783781 -0.048950399023203625 0.033172575179661816 -0.023534239869039915 -0.052684607518937804 0.1004340948666648 0.056615505896822134 0.010164811083080186 0.014092537328687664 0.014770829483678529 0.043079439231588371 -0.027789570378034301 0.06486857600113996 0.0072825686509337363 0.098227940776820247 -0.0067402037927573929 -0.072611307816145929 0.043135370765931394 -0.091211366533494362 0.038284023759524423 -0.038087600729436691 0.014153311091719186 0.083106773749247659 0.047842017411408262 0 -0.07431926944165769 0.085165498880603291 0.075715696098741431 -0.058311695287797852 0.084960983558221626
leaf_count=10181 3274 3583 2786 1703 3620 380 934 926 1610 1403 267 1834 2527 3185 8746 770 3979 1545 383 1899 1173 275 2815 752 151 3087 290 3851 1195 1454
internal_value=0 -0.696922 0.840118 -0.183752 -1.01149 0.170126 1.11058 0.0192492 0.128917 -0.219628 0.844547 -0.605854 0.685707 -0.0481318 1.29933 -0.601137 -1.14397 0.405719 -0.760011 0.415273 -0.369226 -0.316571 1.09313 0.998548 -0.722 -1.2039 0.835715 1.05294 -0.990726 1.37688
internal_count=70578 38274 32304 14118 24156 8924 23380 7502 8043 4677 9431 6075 5313 4888 13949 5714 18442 3155 3966 2825 1943 2109 3749 1422 3771 13268 1042 4118 5174 10200
shrinkage=0.07


Tree=7
num_leaves=31
num_cat=0
split_feature=8 287 5 126 452 454 383 9 216 3 341 298 19 19 72 66 428 0 425 452 18 2 2 8 0 65 201 19 1 88
split_gain=8641.25 1756.6 677.026 561.326 267.219 251.707 163.604 160.844 109.314 98.9692 70.6207 56.0902 54.7481 44.5532 40.7191 40.5924 29.2394 23.3347 20.9455 20.0979 17.1606 14.7615 13.7279 13.2952 12.8772 11.8365 8.96268 6.18147 3.67335 3.1466
threshold=1.5000000000000002 1.0000000180025095e-35 1.0000000180025095e-35 4.5000000000000009 2.5000000000000004 1.5000000000000002 3.5705425906983637 3.5000000000000004 0.66685606060606062 -1.0000000180025095e-35 90.500000000000014 84.500000000000014 -1.4999999999999998 -8.4999999999999982 13.500000000000002 0.6270185462708685 13.500000000000002 18.500000000000004 2.0246950765959606 5.5000000000000009 21.500000000000004 141.50000000000003 72.500000000000014 4.5000000000000009 8.5000000000000018 2.7750000000000004 12.500000000000002 -12.499999999999998 1.5000000000000002 0.0028968723513171034
decision_type=2 2 2 2 2 2 2 2 2 2 2 2 2 2 2 2 2 2 2 2 2 2 2 2 2 2 2 2 2 2
left_child=1 4 6 5 9 8 16 10 -3 14 18 20 24 27 -1 -7 21 -18 -4 -15 -5 -2 -14 26 -8 -12 -9 -6 -11 -13
right_child=2 3 7 11 13 15 12 23 -10 28 25 29 22 19 -16 -17 17 -19 -20 -21 -22 -23 -24 -25 -26 -27 -28 -29 -30 -31
leaf_value=-0.078863587203574559 0.0019541512893859613 -0.047921909427816878 0.025746287053220161 0.047181646359608566 -0.066653233413098006 -0.0065594695262141452 0.042054008835673708 0.067015570605383296 -0.015018023779921912 -0.029420670389218813 0.078837948896820262 0.087995455655969543 0.068076702599714392 -0.040912221619018349 -0.062932623998457685 0.017580445077771786 0.033539882650310084 -0 0.053324050112449131 -0.014052528796684909 0.022525028153005049 -0.02727071298322804 0.046598407552033566 0.095977116428274195 0.020780008256929581 0.050818605932858238 0.087439122007493694 -0.045597042392503742 -0.0061716521972878923 0.06427962507461589
leaf_count=14733 1025 5047 879 1011 492 3021 1166 778 3441 569 3326 345 1896 843 4955 2505 966 693 1886 1820 1519 495 1187 6860 1295 471 4714 1665 222 753
internal_value=0 -0.572991 0.917737 -0.087517 -0.930829 -0.269268 0.455252 1.15025 -0.490311 -1.03824 0.886716 0.631708 0.669507 -0.500344 -1.06889 0.0620343 0.0925717 0.277853 0.635603 -0.32378 0.464458 -0.106136 0.856797 1.29856 0.442693 1.07824 1.2085 -0.722845 -0.332448 1.03274
internal_count=70578 42941 27637 17642 25299 14014 8723 18914 8488 20479 6562 3628 5544 4820 19688 5526 3179 1659 2765 2663 2530 1520 3083 12352 2461 3797 5492 2157 791 1098
shrinkage=0.07


Tree=8
num_leaves=31
num_cat=0
split_feature=8 298 5 130 452 454 9 383 212 3 126 424 19 19 8 7 330 425 452 337 2 8 2 68 374 201 19 18 201 2
split_gain=7629.72 1571.17 630.868 493.655 249.035 219.186 156.749 144.546 102.896 95.2643 68.8788 66.7611 49.6025 47.7692 35.4588 28.2298 27.0765 25.2977 23.8186 21.2914 18.2239 13.6874 12.4163 12.1825 10.6693 8.7303 8.39136 5.32737 5.22669 2.25358
threshold=1.5000000000000002 1.0000000180025095e-35 1.0000000180025095e-35 0.70071942446043167 1.5000000000000002 1.5000000000000002 3.5000000000000004 3.5705425906983637 5.5000000000000009 -1.0000000180025095e-35 39.500000000000007 56.866071428571431 -1.4999999999999998 -8.4999999999999982 1.0000000180025095e-35 1.0000000180025095e-35 13.500000000000002 2.0246950765959606 5.5000000000000009 0.021363892213278252 135.50000000000003 4.5000000000000009 72.500000000000014 0.31256995960238737 13.500000000000002 12.500000000000002 -11.499999999999998 22.500000000000004 471.50000000000006 29.500000000000004
decision_type=2 2 2 2 2 2 2 2 2 2 2 2 2 2 2 2 2 2 2 2 2 2 2 2 2 2 2 2 2 2
left_child=1 4 7 5 9 8 10 15 -3 16 17 19 23 26 -7 24 -1 -4 -15 -5 -17 25 -14 -9 -2 -8 -6 -13 -12 -11
right_child=2 3 6 11 13 14 21 12 -10 29 28 27 22 18 -16 20 -18 -19 -20 -21 -22 -23 -24 -25 -26 -27 -28 -29 -30 -31
leaf_value=-0.074385514044256307 -0.040375941515561335 -0.044398718475880131 0.024167443149700315 0.016746720408650748 -0.061297214632628508 -0.014285350096732728 0.06376904502983817 0.018547131583674908 -0.0098821797253161193 -0.031933801670194113 0.071850902138348272 0.077900945119679682 0.064493426015159505 -0.039296840811798989 0.010665388736642391 0.020490888872477367 -0.05407227495490697 0.052732185967774618 -0.01309114901723246 0.046098267196507281 -0.003534244612758699 0.092855971414185653 0.043879646922412641 0.039232927525166335 1.2424611006238738e-05 0.084071266118699889 -0.043034413825308149 0.055312898992138489 0.090994747408313439 -0.014364336348309022
leaf_count=16958 306 5653 882 1912 1029 1593 778 1232 2534 311 2177 532 1896 1196 3790 1730 1716 2805 1820 706 947 6860 1187 1229 196 4714 1789 922 698 480
internal_value=0 -0.540729 0.872984 -0.0817528 -0.883968 -0.265872 1.10233 0.426659 -0.47787 -1.00278 0.84067 0.545983 0.6297 -0.513784 0.046279 0.0861259 -1.03521 0.653066 -0.335397 0.353991 0.169553 1.25203 0.809929 0.413772 -0.345042 1.16028 -0.711467 0.913763 1.09573 -0.310591
internal_count=70578 42941 27637 17642 25299 13570 18914 8723 8187 19465 6562 4072 5544 5834 5383 3179 18674 3687 3016 2618 2677 12352 3083 2461 502 5492 2818 1454 2875 791
shrinkage=0.07


Tree=9
num_leaves=32
num_cat=0
split_feature=6 10 9 83 70 255 6 126 255 452 13 130 452 380 130 9 2 9 2 373 452 126 302 3 4 0 13 296 80 15 2
split_gain=6787.64 1222.24 1057.33 395.624 200.767 152.507 115.495 93.9006 88.7887 73.8054 64.5005 64.3763 47.4751 37.0982 30.7588 29.8524 27.0906 26.3261 22.0045 20.4737 17.4583 14.9246 14.4698 14.4343 14.2643 13.0496 8.50549 8.27272 5.51446 4.8586 0.773264
threshold=1.0000000180025095e-35 1.5000000000000002 2.5000000000000004 19.500000000000004 4.5000000000000009 1.5000000000000002 1.5000000000000002 83.500000000000014 14.500000000000002 4.5000000000000009 1.4722222222222225 0.79971346704871071 6.5000000000000009 17.500000000000004 0.93686286722723999 1.5000000000000002 143.50000000000003 4.5000000000000009 382.50000000000006 143.50000000000003 4.5000000000000009 36.500000000000007 0.48050974512743633 -5.4999999999999991 5.5000000000000009 12.500000000000002 2.7083333333333335 0.72070480538698922 0.0040281978355817391 -1.7091428571428566 191.50000000000003
decision_type=2 2 2 2 2 2 2 2 2 2 2 2 2 2 2 2 2 2 2 2 2 2 2 2 2 2 2 2 2 2 2
left_child=1 4 3 11 20 9 13 14 10 22 -6 15 16 24 -5 -2 -7 21 -11 -10 23 -8 -3 -1 -4 -14 -15 -13 -9 -19 -22
right_child=2 5 6 7 8 12 17 28 19 18 -12 27 25 26 -16 -17 -18 29 -20 -21 30 -23 -24 -25 -26 -27 -28 -29 -30 -31 -32
leaf_value=-0.077420792343592518 -0.025442730405490329 -0.047722078005949367 0.02862768094068913 0.024500631812978443 -0.056570392769457953 0.011019854625535905 0.06285226547018942 0.059854482188701999 -0.025759978265421667 0.0052368801750847923 -0.028568935808466239 0.01929783984530237 0.030945923190016728 0.066287450496161235 0.046025609580248095 0.0039506340340297371 -0.015545290333474094 0.058736121699978452 -0.035682142702035499 0.012915160556700713 -0.036364674923263958 0.082443642995871411 -0.025660176900466906 -0.062649423412417318 0.062133785901563696 -0.0013574535661621803 0.026615274545422785 -0.01024743228647919 0.079441760439632636 0.08928871106763954 -0.057900544673243445
leaf_count=9405 2998 1326 1138 3711 11195 2335 2085 986 1711 1745 2072 1370 2360 3973 2336 870 1117 232 301 315 333 2245 1334 2307 404 261 158 202 1022 8574 157
internal_value=0 -0.590331 0.723815 0.295318 -0.835867 -0.0208136 1.07007 0.59116 -0.678065 -0.296259 -0.742534 -0.122969 0.188909 0.817266 0.466344 -0.265387 0.0331594 1.18883 -0.00990805 -0.27908 -1.0466 1.04173 -0.523516 -1.06496 0.534981 0.394586 0.926453 0.218384 1.0014 1.26481 -0.632918
internal_count=70578 38274 32304 13495 27495 10779 18809 8055 15293 4706 13267 5440 6073 5673 6047 3868 3452 13136 2046 2026 12202 4330 2660 11712 1542 2621 4131 1572 2008 8806 490
shrinkage=0.07


Tree=10
num_leaves=32
num_cat=0
split_feature=6 10 9 72 341 383 6 126 19 130 13 72 246 1 10 454 9 2 216 9 83 19 4 126 383 1 87 130 396 65 3
split_gain=5948.64 1032.61 939.722 353.484 201.944 130 120.206 79.5517 61.1585 57.5464 56.0466 52.332 51.0965 33.1402 32.0469 31.7903 29.7006 26.5394 24.8453 22.7739 20.5511 20.4091 17.6933 15.1857 12.9498 12.8099 11.0418 7.20308 7.05092 6.83206 5.01454
threshold=1.0000000180025095e-35 1.5000000000000002 2.5000000000000004 23.500000000000004 1.0000000180025095e-35 1.0000000180025095e-35 1.5000000000000002 83.500000000000014 -2.4999999999999996 0.58411949685534603 1.2361111111111114 43.500000000000007 2.5000000000000004 2.5000000000000004 4.5000000000000009 9.5000000000000018 4.5000000000000009 92.500000000000014 0.864225462264678 1.5000000000000002 8.5000000000000018 -3.4999999999999996 4.5000000000000009 38.500000000000007 14.146553660907932 2.5000000000000004 0.97569888462631427 0.88467529355379837 2.0500000000000003 1.6458333333333337 -16.499999999999996
decision_type=2 2 2 2 2 2 2 2 2 2 2 2 2 2 2 2 2 2 2 2 2 2 2 2 2 2 2 2 2 2 2
left_child=1 4 3 9 10 12 14 17 15 19 20 13 21 -6 24 -7 23 -5 -13 -2 -1 -3 -10 -8 -4 -11 -14 -16 -9 -18 -12
right_child=2 5 6 7 11 8 16 28 22 25 30 18 26 -15 27 -17 29 -19 -20 -21 -22 -23 -24 -25 -26 -27 -28 -29 -30 -31 -32
leaf_value=-0.071241043956304873 -0.024118213533778257 -0.035666873430025552 0.023716107293909317 0.039142444092820534 -0.042710161872448402 -0.0073987628196738198 0.058965496859237604 0.055169151465983231 0.013865505294903387 0.015526739219237484 -0.019734087892006719 -0.028966305522880886 0.02510782594361826 -0.079308883082060924 0.056997165179559169 0.022486290152090464 0.087146015040497626 0.018897687354744175 0.0047580833606544071 0.0022691768404450433 -0.057343775380951353 -0.014810663753686332 0.040171064025392167 0.078920149357940103 0.047749827821114851 -0.026057682165658999 -0.011716490604685888 0.074440152797737705 0.076556935260200368 0.066765730922772937 -0.04244250886045238
leaf_count=12606 2864 2299 795 3694 6121 2793 2146 963 907 1797 328 2600 511 614 2205 940 8049 2245 506 817 3614 1727 1353 2158 1560 152 220 1144 1039 700 1111
internal_value=0 -0.560907 0.680271 0.278749 -0.79001 -0.0370829 1.01515 0.566867 0.159728 -0.105739 -0.93399 -0.553522 -0.288595 -0.658846 0.757086 0.00118639 1.14004 0.450507 -0.329769 -0.257039 -0.973141 -0.379707 0.424015 0.983087 0.564712 0.172439 0.19494 0.898568 0.950513 1.22223 -0.535129
internal_count=70578 38250 32328 13571 27500 10750 18757 7941 5993 5630 17659 9841 4757 6735 5704 3733 13053 5939 3106 3681 16220 4026 2260 4304 2355 1949 731 3349 2002 8749 1439
shrinkage=0.07


Tree=11
num_leaves=32
num_cat=0
split_feature=212 10 8 126 6 10 126 9 452 6 72 10 452 1 383 2 4 78 9 74 83 4 78 126 450 2 78 2 13 339 13
split_gain=5264.76 976.62 755.814 226.429 164.395 133.871 114.87 105.708 82.9231 54.1184 71.802 52.5561 45.0302 43.3368 36.9413 29.9748 25.4691 21.8598 21.7468 20.4715 18.5478 16.8755 13.4646 12.426 12.158 11.9516 7.96671 7.81093 7.54119 3.84055 3.46884
threshold=2.5000000000000004 1.5000000000000002 2.5000000000000004 27.500000000000004 1.0000000180025095e-35 1.0000000180025095e-35 1.5000000000000002 1.5000000000000002 9.5000000000000018 1.0000000180025095e-35 13.500000000000002 3.5000000000000004 2.5000000000000004 2.5000000000000004 2.1407836215144651 361.50000000000006 6.5000000000000009 0.23687491796823731 4.5000000000000009 2.5000000000000004 11.500000000000002 5.5000000000000009 0.99967824967824981 38.500000000000007 16.500000000000004 37.500000000000007 0.11114751711081988 14.500000000000002 2.6333333333333337 0.57650890975282632 1.5857142857142861
decision_type=2 2 2 2 2 2 2 2 2 2 2 2 2 2 2 2 2 2 2 2 2 2 2 2 2 2 2 2 2 2 2
left_child=1 5 3 7 8 12 16 13 14 10 -7 17 20 -2 -3 -9 25 -6 23 24 -1 -10 -13 -8 -5 -4 -11 -14 -21 -18 -20
right_child=2 4 6 19 11 9 18 15 21 26 -12 22 27 -15 -16 -17 29 -19 30 28 -22 -23 -24 -25 -26 -27 -28 -29 -30 -31 -32
leaf_value=-0.071720621103451107 0.0010935619828869713 -0.026390238065129589 0.049858962970188728 0.057390831027319705 -0.0045481465519539984 -0.055634930725666429 0.0576499848456817 0.031097287688027771 0.0027946690008799888 -0.026780703586505351 -0.032655870570357355 0.04557901108433314 -0.022410661214373632 -0.055555057038532661 -0.0048388410675072385 0.0020642548573280603 0.065886784734854889 0.032859132613632595 0.08416326223046193 0.069551898476905058 -0.05608914521313705 0.03316789479043443 0.085262682625961123 0.076610107350679385 0.03326036575491028 0.027715334274279593 -0.0049704385612624443 -0.047187442671331958 0.03864040334123478 0.040121171337804247 0.061341626828353396
leaf_count=8410 4892 3698 1102 882 663 8293 1845 4621 682 1884 4862 935 475 282 2892 894 1588 569 8041 1680 2791 834 330 2359 1357 1276 454 1072 285 258 372
internal_value=0 -0.524773 0.655152 0.328049 -0.00426067 -0.743932 0.99724 0.176515 -0.141176 -0.612882 -0.668273 0.469039 -0.916046 -0.0281672 -0.240628 0.37684 0.692607 0.177973 1.11383 0.761531 -0.968333 0.281244 0.793259 0.973563 0.613422 0.544502 -0.321567 -0.56949 0.931918 0.893587 1.18868
internal_count=70578 38844 31734 14893 10603 28241 16841 10689 8106 15493 13155 2497 12748 5174 6590 5515 4224 1232 12617 4204 11201 1516 1265 4204 2239 2378 2338 1547 1965 1846 8413
shrinkage=0.07


Tree=12
num_leaves=31
num_cat=0
split_feature=6 10 8 72 70 244 6 126 255 13 452 115 397 4 9 4 7 288 10 16 2 76 126 130 3 452 2 64 296 0
split_gain=4665.8 829.067 808.527 312.298 184.284 104.149 78.9785 67.552 65.5658 59.3061 51.8096 47.1902 37.2287 31.2836 27.8901 27.4404 22.0426 19.3229 18.8285 18.0391 17.7439 16.8644 15.826 13.3459 11.6106 12.5837 9.42817 7.82426 6.33612 3.07613
threshold=1.0000000180025095e-35 1.5000000000000002 2.5000000000000004 20.500000000000004 3.5000000000000004 3.5000000000000004 1.5000000000000002 83.500000000000014 14.500000000000002 1.2361111111111114 4.5000000000000009 2.5000000000000004 1.0000000180025095e-35 5.5000000000000009 5.5000000000000009 1.5000000000000002 1.0000000180025095e-35 29.500000000000004 5.5000000000000009 0.37798375641900012 129.50000000000003 90.500000000000014 38.500000000000007 0.88738491555392984 -5.4999999999999991 4.5000000000000009 513.50000000000011 1.5000000000000002 0.55036158368451182 12.500000000000002
decision_type=2 2 2 2 2 2 2 2 2 2 2 2 2 2 2 2 2 2 2 2 2 2 2 2 2 2 2 2 2 2
left_child=1 4 3 11 24 10 18 13 9 -6 17 15 19 -5 22 -2 -14 -3 23 -7 -12 -10 -8 -4 25 -1 -13 -9 -20 -26
right_child=2 5 6 7 8 12 14 27 21 -11 20 26 16 -15 -16 -17 -18 -19 28 -21 -22 -23 -24 -25 29 -27 -28 -29 -30 -31
leaf_value=-0.069633500113867833 -0.023141126611877682 -0.035766131061297127 0.033108198877770854 0.026058505166132954 -0.048390246217466265 -0.0054034004371938159 0.058289519114429103 0.064383068747107308 -0.019856087484060966 -0.022383889020058473 0.0064312091220802923 0.019525796432454959 0.0081640543084218475 0.053729058443829282 0.083279320320340314 0.0019946596784669451 0.035004240851495477 -0 0.066897730172174805 0.020384684652456291 -0.02050050841395977 0.02526461822171764 0.076175597235665485 0.060221999827140542 -0.067760870712997592 -0.041944100974355039 -0.011753219022168459 0.028258326442823258 0.039611756888760369 -0.049933257881851788
leaf_count=8979 2777 2391 1620 6521 11399 2443 2998 1957 1883 2304 1564 1240 1128 1093 6786 1246 1458 371 1620 700 695 175 3018 675 521 463 213 209 355 1776
internal_value=0 -0.502696 0.616818 0.283792 -0.714894 -0.0344065 0.978938 0.515911 -0.567515 -0.623943 -0.249904 -0.099817 0.150759 0.427079 1.07694 -0.215122 0.331734 -0.442295 0.720201 0.00251125 -0.0248331 -0.225244 0.958166 0.582215 -0.934932 -0.973364 0.210037 0.872786 0.889846 -0.775285
internal_count=70578 38250 32328 15256 27500 10750 17072 9780 15761 13703 5021 5476 5729 7614 12802 4023 2586 2762 4270 3143 2259 2058 6016 2295 11739 9442 1453 2166 1975 2297
shrinkage=0.07


Tree=13
num_leaves=32
num_cat=0
split_feature=6 10 9 83 70 6 454 246 126 298 13 130 9 4 1 7 2 212 9 341 452 70 126 388 3 452 75 65 130 396 0
split_gain=4121.68 744.566 744.55 244.867 174.985 114.832 90.1421 62.8062 60.2077 56.0894 53.9399 47.3759 32.2668 28.0001 26.9261 22.1436 21.8868 19.4262 18.3794 17.1578 16.9902 14.6942 14.3993 11.7453 11.1013 12.2961 8.90351 7.668 6.96354 6.65108 2.90428
threshold=1.0000000180025095e-35 1.5000000000000002 2.5000000000000004 25.500000000000004 3.5000000000000004 1.5000000000000002 6.5000000000000009 3.5000000000000004 83.500000000000014 14.500000000000002 1.2361111111111114 0.70071942446043167 4.5000000000000009 5.5000000000000009 1.0000000180025095e-35 1.0000000180025095e-35 92.500000000000014 52.500000000000007 1.5000000000000002 32.500000000000007 16.500000000000004 18.500000000000004 38.500000000000007 40.500000000000007 -5.4999999999999991 4.5000000000000009 2.5000000000000004 1.6458333333333337 0.90019920318725111 2.0500000000000003 12.500000000000002
decision_type=2 2 2 2 2 2 2 2 2 2 2 2 2 2 2 2 2 2 2 2 2 2 2 2 2 2 2 2 2 2 2
left_child=1 4 3 11 24 13 7 14 16 10 -6 18 22 19 -3 20 -5 -11 -2 -4 -8 -17 -7 -9 25 -1 -13 -14 -15 -10 -26
right_child=2 6 5 8 9 12 15 23 29 17 -12 26 27 28 -16 21 -18 -19 -20 -21 -22 -23 -24 -25 30 -27 -28 -29 -30 -31 -32
leaf_value=-0.067077985956624772 -0.019216517948539368 -0.0071025817539315354 0.0078323509387301822 0.034315958138135573 -0.046720315176329942 0.051113209709907785 0.0022233662743396995 0.010359772067569316 0.047619666877564901 -0.024481226101254736 -0.021019564140101102 0.0072932367373442645 0.080801387444589867 0.050057970515820852 -0.026737092006571699 0.043599521090172538 0.015035013314622455 0.0070139144934914894 0.0031583279197049076 0.039804014368694296 0.050845050892605034 0.015038793459885309 0.071281918166329339 0.048570698293367229 -0.065152295692116433 -0.039578700926901425 0.029788896971371839 0.058893965219283424 0.068595980225010386 0.068918029439436659 -0.047576515102678102
leaf_count=8979 3104 2654 460 3433 10719 2146 1855 1102 963 2419 2173 1520 8049 1996 3209 755 2086 450 935 2215 153 828 2158 194 521 463 491 700 1033 1039 1776
internal_value=0 -0.47532 0.586688 0.231336 -0.679816 0.90579 -0.0320748 -0.164743 0.493551 -0.535883 -0.599974 -0.0678875 1.03749 0.648911 -0.255659 0.229484 0.386396 -0.273445 -0.196874 0.486304 0.0878026 0.412992 0.869343 0.23472 -0.898313 -0.936589 0.184472 1.1292 0.803693 0.840318 -0.740452
internal_count=70578 38250 32328 13571 27500 18757 10750 7159 7521 15761 12892 6050 13053 5704 5863 3591 5519 2869 4039 2675 2008 1583 4304 1296 11739 9442 2011 8749 3029 2002 2297
shrinkage=0.07


Tree=14
num_leaves=32
num_cat=0
split_feature=8 298 5 126 452 9 14 10 3 207 126 422 28 72 19 7 383 341 70 2 76 2 3 65 15 28 349 246 1 28 65
split_gain=3666.9 814.117 450.99 229.438 173.875 128.282 90.7409 81.5192 66.9523 57.0182 56.5076 36.1945 34.0293 32.6816 24.3334 22.0038 21.412 20.9848 16.5856 15.4772 15.3894 12.7881 11.978 9.9175 6.49048 6.02717 5.74081 5.23639 5.22313 3.50622 2.81212
threshold=1.5000000000000002 1.0000000180025095e-35 1.0000000180025095e-35 10.500000000000002 1.5000000000000002 4.5000000000000009 0.29509323958628836 3.5000000000000004 -1.0000000180025095e-35 0.045028301089803165 39.500000000000007 21.500000000000004 12.500000000000002 13.500000000000002 -10.499999999999998 1.0000000180025095e-35 1.0000000180025095e-35 100.50000000000001 19.500000000000004 55.500000000000007 80.500000000000014 20.500000000000004 -6.4999999999999991 2.9000000000000004 -1.4878892733564009 10.500000000000002 4.5000000000000009 8.5000000000000018 1.5000000000000002 22.500000000000004 2.291666666666667
decision_type=2 2 2 2 2 2 2 2 2 2 2 2 2 2 2 2 2 2 2 2 2 2 2 2 2 2 2 2 2 2 2
left_child=1 4 7 6 8 10 9 11 13 -3 16 21 -8 -1 25 26 -4 22 -13 -17 -16 -2 -5 -12 27 -6 -9 -7 -10 -19 -26
right_child=2 3 5 17 14 24 12 15 28 -11 23 18 -14 -15 20 19 -18 29 -20 -21 -22 -23 -24 -25 30 -27 -28 -29 -30 -31 -32
leaf_value=-0.059969999221214258 0.0043879937296757475 -0.025041839708802676 0.027171698380705926 -0.0037015029327779987 -0.051330676601797104 0.024589420140673186 -0.021013996164183292 0.025282850816200825 -0.02078168128050777 -0.0029028981112799103 0.066361587845531173 0.024680355410544641 0.015193679405690689 -0.043621801023111403 -0.022388663276018919 0.047158441670660266 0.047464795453538489 0.068583152731091085 0.0033795869026330043 0.027078857414281527 0.0013211646210225059 -0.023945632788919344 0.029236023043853164 0.034869504098230093 0.077687470945780476 -0.02869609545867334 -0.0042078230743089655 0.071157814606728723 0.0033541975830970747 0.043891836101029022 0.043918714133386966
leaf_count=14440 482 7685 2254 254 821 183 619 204 569 3493 3733 1584 2817 4211 3731 2146 2952 350 1492 1692 653 841 1802 353 9079 592 328 174 234 661 149
internal_value=0 -0.388705 0.650838 -0.0591732 -0.659117 0.874556 -0.162794 0.276038 -0.769786 -0.254885 0.69251 0.0837521 0.121461 -0.80141 -0.343732 0.487513 0.544512 0.478222 0.207277 0.547817 -0.268027 -0.191848 0.357284 0.908927 1.08738 -0.599775 0.0950989 0.698975 -0.189977 0.756176 1.10241
internal_count=70578 42932 27646 17681 25251 18877 14614 8769 19454 11178 9292 4399 3436 18651 5797 4370 5206 3067 3076 3838 4384 1323 2056 4086 9585 1413 532 357 803 1011 9228
shrinkage=0.07


Tree=15
num_leaves=28
num_cat=0
split_feature=6 8 10 330 83 16 8 126 246 130 19 115 454 9 1 450 452 1 452 2 10 11 64 452 2 74 380
split_gain=3305.95 646.957 634.154 203.933 159.877 76.3998 71.9511 56.1729 53.8623 48.1766 44.8157 42.8937 41.4265 30.5218 29.5616 29.1397 26.2187 20.5652 20.4557 18.9966 18.4 17.4255 13.7142 11.7263 7.89506 7.88077 6.76209
threshold=1.0000000180025095e-35 2.5000000000000004 1.5000000000000002 20.500000000000004 3.5000000000000004 0.079433133209177401 4.5000000000000009 82.500000000000014 2.5000000000000004 0.70071942446043167 -3.4999999999999996 13.500000000000002 2.5000000000000004 1.0000000180025095e-35 2.5000000000000004 14.500000000000002 1.0000000180025095e-35 2.5000000000000004 17.500000000000004 667.50000000000011 5.5000000000000009 4.5000000000000009 1.5000000000000002 4.5000000000000009 105.50000000000001 2.5000000000000004 13.500000000000002
decision_type=2 2 2 2 2 2 2 2 2 2 2 2 2 2 2 2 2 2 2 2 2 2 2 2 2 2 2
left_child=2 3 4 9 13 8 11 14 17 16 12 20 -6 23 -5 -12 -2 -4 22 -10 -3 -15 -7 -1 -11 -9 -13
right_child=1 6 5 7 10 18 -8 25 19 24 15 26 -14 21 -16 -17 -18 -19 -20 -21 -22 -23 -24 -25 -26 -27 -28
leaf_value=-0.063052129287208242 -0.020989881275173993 0.035782166970698977 -0.013878950946086445 0.027118389830500876 -0.042440678196817419 0.016889210566744434 0.077147426093385221 0.043234130232972949 0.01887545292566923 0.023023449108398732 -0.0025734027388330137 0.044367054603974131 -0.019797369876229209 -0.046811043575021784 -0.03168404514072843 -0.032794724515465008 0.0025733659118936025 -0.052934913643363446 0.068173274249855281 -0.029185119597438053 0.055880466128613741 0.0032371600864479324 -0.015636324066720442 -0.034296787287382856 0.0028887380491693058 0.065383120647868512 0.067942009653027463
leaf_count=9364 2602 3041 5552 6846 8242 2902 6846 1020 1432 1159 1587 516 2427 4125 178 1183 1504 300 151 178 2190 140 273 415 649 1174 4582
internal_value=0 0.542091 -0.427083 0.244023 -0.622373 -0.0199647 0.887658 0.45127 -0.135252 -0.046306 -0.457159 0.768124 -0.526183 -0.803593 0.364515 -0.223046 -0.171256 -0.227618 0.236024 0.190063 0.625124 -0.639201 0.199159 -0.880817 0.227704 0.787412 0.935959
internal_count=70578 32307 38271 15132 27483 10788 17175 9218 7462 5914 13439 10329 10669 14044 7024 2770 4106 5852 3326 1610 5231 4265 3175 9779 1808 2194 5098
shrinkage=0.07


Tree=16
num_leaves=30
num_cat=0
split_feature=6 8 10 83 83 8 66 130 130 126 19 246 11 9 450 341 2 4 382 4 66 11 217 1 8 2 380 3 9
split_gain=2919.64 602.005 569.214 180.677 150.421 72.8002 68.4396 50.121 48.3348 41.992 40.4936 39.095 35.2663 29.5726 25.5087 21.9232 20.7003 19.6074 18.249 18.1473 17.1102 15.7997 13.1641 12.8426 12.2038 11.2349 9.60338 4.86553 0.245503
threshold=1.0000000180025095e-35 2.5000000000000004 1.5000000000000002 27.500000000000004 3.5000000000000004 4.5000000000000009 0.28301261635371383 0.81794507575757591 0.70071942446043167 5.5000000000000009 -3.4999999999999996 2.5000000000000004 2.5000000000000004 1.0000000180025095e-35 14.500000000000002 253.50000000000003 139.50000000000003 5.5000000000000009 -71.583333333333329 1.5000000000000002 0.40638410397090419 4.5000000000000009 0.0083402893711741807 2.5000000000000004 1.0000000180025095e-35 652.50000000000011 23.500000000000004 -15.499999999999998 5.5000000000000009
decision_type=2 2 2 2 2 2 2 2 2 2 2 2 2 2 2 2 2 2 2 2 2 2 2 2 2 2 2 2 2
left_child=2 3 4 8 13 9 11 20 19 18 12 16 -6 27 -12 -9 -4 22 -3 -2 -5 -15 -8 -10 -19 -13 -11 -1 -7
right_child=1 5 6 7 10 28 17 15 23 26 14 25 -14 21 -16 -17 -18 24 -20 -21 -22 -23 -24 -25 -26 -27 -28 -29 -30
leaf_value=-0.054250859409744404 -0.017381145742832935 -0.0073076057425898733 -0.0098577552794826464 0.0099224936100287056 -0.03856582745868898 0.064694244102838763 -0 0.035717629195412909 0.018944052235413431 0.045886939408450907 -0.002395150137085353 0.016603158756736722 -0.012747320729187694 -0.044553998579325897 -0.030750765639520568 0.06166462697573491 -0.029442567848087593 -0 0.042016698929646393 0.0020725565785592323 0.031248175723220785 0.0030148181779926131 0.03124906784240165 -0.02227554671851106 0.028909913119340928 -0.023224894299233995 0.06542854719071596 -0.063497593830300875 0.077021092257154838
leaf_count=4444 2863 174 3475 2182 9319 893 2120 3899 1995 1090 1587 1103 1350 4125 1183 1224 1705 353 4223 1444 1371 140 314 154 1565 153 4842 5335 5953
internal_value=0 0.515513 -0.403582 0.228991 -0.59174 0.85706 -0.0186088 0.441693 -0.0235661 0.736031 -0.43113 -0.153556 -0.49759 -0.770848 -0.208397 0.592029 -0.233681 0.177542 0.569498 -0.15056 0.25523 -0.607733 0.055424 0.224955 0.333456 0.163385 0.880697 -0.848415 1.07876
internal_count=70578 32307 38271 15132 27483 17175 10788 8676 6456 10329 13439 6436 10669 14044 2770 5123 5180 4352 4397 4307 3553 4265 2434 2149 1918 1256 5932 9779 6846
shrinkage=0.07


Tree=17
num_leaves=31
num_cat=0
split_feature=8 298 5 115 452 9 14 10 3 298 1 422 452 72 452 1 1 383 336 173 13 298 385 2 218 83 15 2 303 13
split_gain=2594.21 621.299 364.41 185.782 143.72 120.949 85.3008 63.5879 57.4386 46.6381 36.7 29.3103 26.9639 25.8735 24.4801 24.0969 20.6067 17.3053 17.1693 15.2269 14.4843 12.9839 12.8222 11.9999 9.24141 8.06182 8.60718 3.58714 2.38466 1.30569
threshold=1.5000000000000002 1.0000000180025095e-35 1.0000000180025095e-35 2.5000000000000004 1.5000000000000002 4.5000000000000009 0.29509323958628836 3.5000000000000004 -1.0000000180025095e-35 80.500000000000014 1.0000000180025095e-35 110.50000000000001 8.5000000000000018 6.5000000000000009 10.500000000000002 2.5000000000000004 2.5000000000000004 72.27217895732575 0.15379561305973924 0.85739705134722943 1.3693181818181819 451.50000000000006 0.46625291459648599 219.50000000000003 0.0073385536156019664 304.50000000000006 -1.4878892733564009 86.500000000000014 0.00287150183875064 1.6458333333333337
decision_type=2 2 2 2 2 2 2 2 2 2 2 2 2 2 2 2 2 2 2 2 2 2 2 2 2 2 2 2 2 2
left_child=1 4 7 6 8 9 10 15 13 18 -3 16 -8 -1 22 17 -5 -2 -4 21 -16 -9 -6 -11 -21 26 -7 -10 -13 -27
right_child=2 3 5 11 14 25 12 19 27 23 -12 28 -14 -15 20 -17 -18 -19 -20 24 -22 -23 -24 -25 -26 29 -28 -29 -30 -31
leaf_value=-0.054250480571895444 0.0035363454460448341 -0.0071131387024264432 0.014961025078303439 0.022141490960679924 -0.026136417450258399 0.019185069742520461 -0.0044086479079912195 0.026335194717027867 -0.018584419119591983 0.056854652339506234 -0.024853677383479159 0.066437184890107914 0.020925383913232072 -0.040228253732381966 -0.024652953747821175 -0.042874731668545871 -0.030483142421509631 0.031473240079370253 0.037700798082507744 0.047003903017270858 0.015580050161497935 -0.005380975296567201 0.0056651776182612421 0.036809870905370363 0.017550412377658163 0.074991332725115739 0.063238708646531361 0 0.043049885517371732 0.049231544356182835
leaf_count=13296 3662 4366 1350 2894 4618 181 1583 2122 436 4542 6033 326 1750 5364 290 199 153 543 2056 1522 556 299 272 1298 389 7180 2101 360 613 224
internal_value=0 -0.328527 0.572348 -0.0416547 -0.576096 0.788261 -0.153171 0.235961 -0.682312 0.607657 -0.248993 0.369082 0.124917 -0.713696 -0.285792 0.0671523 0.274526 0.101397 0.408312 0.428632 0.0325252 0.317722 -0.345881 0.749893 0.589002 1.01088 0.85198 -0.140918 0.742271 1.06091
internal_count=70578 42910 27668 17718 25192 18932 13732 8736 19456 9246 10399 3986 3333 18660 5736 4404 3047 4205 3406 4332 846 2421 4890 5840 1911 9686 2282 796 939 7404
shrinkage=0.07


Tree=18
num_leaves=30
num_cat=0
split_feature=6 8 4 330 19 287 8 126 397 115 87 450 201 1 450 452 5 10 0 1 76 1 0 3 5 380 13 9 74
split_gain=2297.93 517.87 464.822 143.31 121.301 112.965 73.5317 46.5705 42.025 40.2636 33.8592 25.8707 22.1255 20.8787 19.796 18.7375 18.7297 17.4564 16.5147 16.367 13.5541 11.7447 11.688 10.144 7.39177 6.86129 4.07495 0.632673 0.532853
threshold=1.0000000180025095e-35 2.5000000000000004 1.5000000000000002 20.500000000000004 -5.4999999999999991 4.5000000000000009 4.5000000000000009 111.50000000000001 1.0163977794943224 13.500000000000002 0.71452540747842774 20.500000000000004 70.500000000000014 2.5000000000000004 3.5000000000000004 11.500000000000002 1.0000000180025095e-35 5.5000000000000009 13.500000000000002 2.5000000000000004 114.50000000000001 2.5000000000000004 20.500000000000004 -5.4999999999999991 1.0000000180025095e-35 13.500000000000002 2.7083333333333335 5.5000000000000009 17.500000000000004
decision_type=2 2 2 2 2 2 2 2 2 2 2 2 2 2 2 2 2 2 2 2 2 2 2 2 2 2 2 2 2
left_child=2 3 5 10 15 14 9 11 13 17 24 -5 19 -6 23 20 -12 -3 -10 -7 -4 -16 -14 -1 -2 -11 -9 28 -8
right_child=1 6 4 7 8 12 27 26 18 25 16 -13 22 -15 21 -17 -18 -19 -20 -21 -22 -23 -24 -25 -26 -27 -28 -29 -30
leaf_value=-0.055860813240223468 -0.026586713789895848 0.029721755734011517 -0.028380471664035772 0.030042679958308626 -0.0021804208373001296 -0.020475648492624145 0.046482161322782177 0.05656906613451039 0.020673253108082802 0.037901993873371211 -0.0064703245170661229 0.012036196250939508 0.038587756627572266 -0.042441139290455655 -0.038948655969551271 0.011662363928535422 0.014448228627212956 0.04986812732559015 -0.0057083148387324697 -0.060350487518661206 -0.0063260406525567298 -0.064117357243482859 -0.011725511760608631 -0.041825491294288537 -0.009299701649224501 0.062135696097576222 0.022475011602456955 0.074159734009729625 0.068817246636986004
leaf_count=8845 1052 3041 5317 4284 5831 3534 355 1497 2715 516 1450 3277 178 276 6642 278 2111 2190 566 264 758 608 171 2288 1301 4582 160 5953 538
internal_value=0 0.468364 -0.361671 0.204141 -0.0999673 -0.594364 0.800382 0.382293 0.0411443 0.677332 -0.0391883 0.316421 -0.282498 -0.0577479 -0.684838 -0.338031 0.0829511 0.536701 0.228398 -0.333087 -0.365294 -0.587773 0.191712 -0.755835 -0.237261 0.850742 0.763696 1.03597 0.869904
internal_count=70578 32307 38271 15132 15741 22530 17175 9218 9388 10329 5914 7561 4147 6107 18383 6353 3561 5231 3281 3798 6075 7250 349 11133 2353 5098 1657 6846 893
shrinkage=0.07


Tree=19
num_leaves=31
num_cat=0
split_feature=8 298 8 130 130 4 72 5 4 2 380 424 8 2 11 1 87 388 92 126 411 13 339 18 337 253 1 9 117 382
split_gain=2042.65 497.306 330.148 142.27 124.049 114.599 59.9446 51.269 33.956 33.1325 26.6813 25.679 25.431 22.5032 21.8004 17.4103 17.006 15.1079 13.4192 12.6967 11.3906 10.9632 10.4778 10.1805 6.82097 6.48832 3.42181 0.751083 0.955277 0.118006
threshold=1.5000000000000002 1.0000000180025095e-35 3.5000000000000004 0.79971346704871071 0.45049019607843149 1.5000000000000002 44.500000000000007 1.0000000180025095e-35 5.5000000000000009 933.50000000000011 21.500000000000004 42.038461538461547 4.5000000000000009 28.500000000000004 2.5000000000000004 1.0000000180025095e-35 0.92148731660715921 4.5000000000000009 17.500000000000004 44.500000000000007 14.145670274195075 1.9375000000000002 0.72269671537450475 4.5000000000000009 0.024632789184135782 0.70314751440922196 1.5000000000000002 5.5000000000000009 1.0000000180025095e-35 -28.966666666666661
decision_type=2 2 2 2 2 2 2 2 2 2 2 2 2 2 2 2 2 2 2 2 2 2 2 2 2 2 2 2 2 2
left_child=1 5 4 6 8 7 9 17 16 -3 15 22 19 -8 23 -6 -2 -1 -16 25 -10 -12 -5 -7 -13 -4 -9 28 -14 -21
right_child=2 3 12 11 10 14 13 26 20 -11 21 24 27 -15 18 -17 -18 -19 -20 29 -22 -23 -24 -25 -26 -27 -28 -29 -30 -31
leaf_value=-0.048821981108882924 -0.0034825140037225565 -0.014956607600527373 0.04744801811669877 0.017235036828014562 0.042909296735534473 -0.056577409802498167 0.011622190237161522 -0.014722632102457094 0.038904461865640144 -0.048896329046344278 0.057877238100014168 0.030708092518920031 0.04474029980063636 -0.0060627705420573021 -0.015614309303055931 0.017973641982525546 0.012450745969530526 -0.034648445821520435 0.0085512807497430485 0.041956397454841532 0.017167024690455751 0.03629302362350785 -0.01201608923993488 -0.024684419609411958 0.054554688674838002 0.0051977710647434418 0.0049700041475336252 0.072799462607227902 0.068480503301022538 0.06873616058878762
leaf_count=14880 2018 7061 3060 1870 1445 328 2492 583 1249 713 2824 1122 383 3600 1737 1593 4386 2780 646 152 1220 1158 278 4009 582 140 229 5953 510 1577
internal_value=0 -0.293639 0.521012 -0.0374964 0.33568 -0.521657 -0.133118 -0.629969 0.181972 -0.258225 0.588302 0.333212 0.892529 0.0161463 -0.284701 0.428106 0.104757 -0.663323 -0.126447 0.750719 0.404967 0.733065 0.189429 -0.384283 0.557693 0.653408 -0.124071 1.01569 0.8455 0.954809
internal_count=70578 42910 27668 17718 15893 25192 13866 18472 8873 7774 7020 3852 11775 6092 6720 3038 6404 17660 2383 4929 2469 3982 2148 4337 1704 3200 812 6846 893 1729
shrinkage=0.07


Tree=20
num_leaves=31
num_cat=0
split_feature=212 452 83 9 19 5 130 6 0 341 8 18 452 1 2 2 345 2 373 9 389 70 78 13 74 126 295 2 427 13
split_gain=1867.77 407.719 332.386 129.206 110.996 97.4335 73.7654 52.3443 44.3518 40.3437 37.207 34.1553 29.1441 21.8443 20.9933 19.5118 18.3234 17.8894 17.2983 16.0091 14.6174 13.9199 12.7153 12.0857 12.0671 10.4385 8.45395 8.28509 7.13016 1.45886
threshold=5.5000000000000009 1.5000000000000002 282.50000000000006 1.0000000180025095e-35 -5.4999999999999991 1.0000000180025095e-35 0.6388210673177539 1.5000000000000002 19.500000000000004 10.500000000000002 2.5000000000000004 12.500000000000002 9.5000000000000018 1.0000000180025095e-35 361.50000000000006 1247.5000000000002 0.88619042662688374 50.500000000000007 11.500000000000002 4.5000000000000009 159.08333333333334 7.5000000000000009 0.98202430785048112 2.2250000000000005 1.5000000000000002 7.5000000000000009 0.11770203408466191 31.500000000000004 1.6882017983707438 1.5857142857142861
decision_type=2 2 2 2 2 2 2 2 2 2 2 2 2 2 2 2 2 2 2 2 2 2 2 2 2 2 2 2 2 2
left_child=1 3 5 9 16 8 20 12 18 24 14 26 -6 -10 -7 -13 28 -18 -2 25 27 -11 -9 -12 -1 -8 -5 -4 -3 -21
right_child=2 4 6 11 7 10 19 22 13 21 23 15 -14 -15 -16 -17 17 -19 -20 29 -22 -23 -24 -25 -26 -27 -28 -29 -30 -31
leaf_value=-0.051492858613218132 -0.013983681333715902 -0.03007218005344953 0.048544145669417824 -0.045717926512448229 -0.001853974269436191 0.026745570271550344 0.008287877470309582 0.031512610112550792 0.0072128175957908288 0.0034877811870036449 0.047210858998831644 -0.016129754152994114 0.015915685952997357 -0.023761551862494089 0.0011532292763491965 -0.041849403172452691 0.0023891301338653881 -0.024107129155510276 0.016680036575540857 0.07151146478637127 -0 -0.030404327909829738 0.080236600290145052 0.0061039727567039105 -0.032007743991447048 0.056075794554107466 -0.019671181719259263 0.029541162480248042 0.00045443078387313385 0.046369513684671501
leaf_count=12141 403 2901 1190 1833 5397 4926 163 497 725 381 3693 8180 3003 1226 930 799 1146 1003 4151 6868 253 1366 337 250 1183 3210 434 1556 169 264
internal_value=0 -0.30645 0.463457 -0.49456 -0.0320121 0.269069 0.791147 0.102494 0.0813121 -0.657094 0.427623 -0.323493 0.0617254 -0.172884 0.323544 -0.263368 -0.287839 -0.140348 0.196638 0.920215 0.490335 -0.326759 0.721139 0.634597 -0.70956 0.765993 -0.578791 0.540778 -0.403198 1.00872
internal_count=70578 40770 29808 26317 14453 16304 13504 9234 6505 15071 9799 11246 8400 1951 5856 8979 5219 2149 4554 10505 2999 1747 834 3943 13324 3373 2267 2746 3070 7132
shrinkage=0.07


Tree=21
num_leaves=31
num_cat=0
split_feature=212 452 83 3 19 5 130 331 6 0 246 378 2 13 5 1 2 92 9 345 2 373 389 3 2 126 0 1 1 13
split_gain=1646.81 364.037 310.453 122.692 96.8033 86.9217 73.4135 55.2733 47.3096 38.4266 37.0127 30.4145 29.4662 26.9378 24.9849 18.9504 18.0778 17.5411 16.6471 16.2826 15.6373 15.0465 13.0686 12.558 10.2929 9.72583 8.0823 7.09079 6.65601 1.54925
threshold=5.5000000000000009 1.5000000000000002 282.50000000000006 -5.4999999999999991 -5.4999999999999991 1.0000000180025095e-35 0.6388210673177539 4.5000000000000009 1.5000000000000002 19.500000000000004 2.5000000000000004 0.19975283299687693 197.50000000000003 2.6333333333333337 1.0000000180025095e-35 1.0000000180025095e-35 1247.5000000000002 1.5000000000000002 4.5000000000000009 0.88619042662688374 50.500000000000007 11.500000000000002 159.08333333333334 -9.4999999999999982 167.50000000000003 7.5000000000000009 15.500000000000002 1.0000000180025095e-35 2.5000000000000004 1.5857142857142861
decision_type=2 2 2 2 2 2 2 2 2 2 2 2 2 2 2 2 2 2 2 2 2 2 2 2 2 2 2 2 2 2
left_child=1 3 5 7 19 9 22 17 11 21 12 -6 -7 -12 16 -11 -5 -1 25 27 -21 -2 26 -9 -10 -8 -4 -3 -16 -20
right_child=2 4 6 14 8 10 18 23 24 15 13 -13 -14 -15 28 -17 -18 -19 29 20 -22 -23 -24 -25 -26 -27 -28 -29 -30 -31
leaf_value=-0.052175837011462001 -0.013029792255664432 -0.01706159933934135 0.039851913273230517 -0.021147813842361998 -0.0033066770059557637 0.026192485515291488 0.0077641227734347503 0.021459203663673914 0.022905814806909411 0.0067105756064439982 0.044687330832851063 0.014241220923457554 -0.0013713461488728269 0.00069749213678323347 -0.00011071129549816148 -0.022127579462599769 -0.049491099494374302 -0.03887986143047293 0.070206332375523317 0.0022211608538504446 -0.022577139876275215 0.015562916480556362 -0 -0.022210684983725269 0.066709136917655107 0.054130111797262334 0.015073025226290412 -0.033241509776205276 -0.028475005758693221 0.044621784535179607
leaf_count=9338 403 1287 2310 7300 4818 3999 163 171 328 725 4120 3582 1269 411 1460 1226 664 5301 6868 1146 1003 4151 253 1897 506 3210 436 1783 186 264
internal_value=0 -0.288943 0.439966 -0.46911 -0.0298104 0.252792 0.763928 -0.609948 0.0956956 0.0757429 0.404223 0.0574153 0.276037 0.573281 -0.278245 -0.160778 -0.335368 -0.671366 0.896943 -0.269915 -0.130812 0.183358 0.463206 -0.262882 0.693107 0.738289 0.511635 -0.379645 -0.0514207 0.989585
internal_count=70578 40770 29808 26317 14453 16304 13504 16707 9234 6505 9799 8400 5268 4531 9610 1951 7964 14639 10505 5219 2149 4554 2999 2068 834 3373 2746 3070 1646 7132
shrinkage=0.07


Tree=22
num_leaves=30
num_cat=0
split_feature=7 6 452 72 10 341 345 4 70 115 4 130 1 452 2 8 11 1 173 1 2 2 13 13 414 83 85 454 87
split_gain=1453.03 469.352 216.547 164.67 84.3814 58.3476 53.9692 37.2369 35.4213 32.5369 28.4118 27.6745 24.2092 23.7265 18.2204 16.8083 15.9484 14.103 11.9385 11.4952 8.28949 18.1502 7.00384 6.98186 5.93065 4.88681 3.54071 2.43757 1.53046
threshold=1.0000000180025095e-35 1.5000000000000002 1.0000000180025095e-35 47.500000000000007 5.5000000000000009 1.5000000000000002 0.8615923481072344 6.5000000000000009 19.500000000000004 82.500000000000014 5.5000000000000009 0.79291026755529803 2.5000000000000004 15.500000000000002 887.50000000000011 2.5000000000000004 3.5000000000000004 1.0000000180025095e-35 0.88908112264513661 1.0000000180025095e-35 43.500000000000007 4.5000000000000009 2.3666666666666667 1.2928571428571431 19.500000000000004 537.50000000000011 1.5000000000000002 10.500000000000002 0.89749228761271971
decision_type=2 2 2 2 2 2 2 2 2 2 2 2 2 2 2 2 2 2 2 2 2 2 2 2 2 2 2 2 2
left_child=2 3 5 10 9 20 16 8 -5 15 11 -2 17 14 -8 -3 19 -7 -9 -4 21 -1 -11 -6 -18 -25 -22 -12 -14
right_child=1 4 6 7 23 12 13 18 -10 22 27 -13 28 -15 -16 -17 24 -19 -20 -21 26 -23 -24 25 -26 -27 -28 -29 -30
leaf_value=-0.056059815820573212 -0.0087682985175470528 0.017310537755568418 -0.017918159378777113 0.028116978743024254 0.0694283218740534 -0.012380523604166808 -0.0034794851364082519 0.025931690346660555 0.009046401402718349 0.058005379729683691 0.024552013096347886 0.0093779690781900828 -0.040384193960837748 0.037191599302197731 -0.030719057385527854 0.038145175295509835 -0.01200796278071356 -0.030009600292966312 0.04775791163753295 -0.035094689258902342 -0.051781522387332093 -0.034635368913695161 0.0099499288780887599 0.039938188603579589 0.018903852515729763 0.066906300148045633 -0.022473438532593985 0.06081042529018138 -0.075313093440500078
leaf_count=2034 7967 1775 1794 4207 6637 2297 6522 1228 5180 2445 146 2303 140 269 575 3071 851 2611 1988 2721 6497 4923 140 859 144 658 198 142 256
internal_value=0 0.308897 -0.368821 0.140163 0.709881 -0.555927 -0.16873 0.318804 0.252747 0.527715 -0.0478111 -0.0656492 -0.357103 -0.0575316 -0.0813707 0.415905 -0.342814 -0.312079 0.548803 -0.405364 -0.655928 -0.585536 0.791932 0.940346 -0.101188 0.73753 -0.727529 0.632795 -0.923779
internal_count=70578 38746 31832 23161 15585 18956 12876 12603 9387 7431 10558 10270 5304 7366 7097 4846 5510 4908 3216 4515 13652 6957 2585 8154 995 1517 6695 288 396
shrinkage=0.07


Tree=23
num_leaves=31
num_cat=0
split_feature=212 9 8 4 454 126 450 8 70 452 1 2 130 18 72 422 6 330 19 454 2 9 336 160 2 80 221 167 386 289
split_gain=1290.75 316.667 237.276 147.609 74.9182 69.8329 52.58 40.5738 39.9623 34.3921 34.0723 31.42 28.2079 21.2685 19.6295 16.7432 16.5255 16.0676 13.9429 13.8154 11.4852 11.2851 9.42522 8.00732 7.95515 7.04336 8.19784 5.64053 5.27848 4.09739
threshold=11.500000000000002 1.0000000180025095e-35 3.5000000000000004 2.5000000000000004 1.0000000180025095e-35 39.500000000000007 18.500000000000004 3.5000000000000004 12.500000000000002 9.5000000000000018 1.0000000180025095e-35 955.50000000000011 0.54377104377104379 22.500000000000004 13.500000000000002 182.50000000000003 1.0000000180025095e-35 222.50000000000003 -11.499999999999998 4.5000000000000009 44.500000000000007 5.5000000000000009 0.26089670520544977 16.500000000000004 473.50000000000006 0.00065563024216730881 19.500000000000004 0.52340246210392449 -1.0000000180025095e-35 13.500000000000002
decision_type=2 2 2 2 2 2 2 2 2 2 2 2 2 2 2 2 2 2 2 2 2 2 2 2 2 2 2 2 2 2
left_child=1 4 5 8 14 6 17 9 16 -5 -8 -10 25 29 24 -15 -3 -2 19 -6 -20 23 -16 -14 -1 26 -4 -27 -9 -7
right_child=2 3 12 7 18 13 10 28 11 -11 -12 -13 21 15 22 -17 -18 -19 20 -21 -22 -23 -24 -25 -26 27 -28 -29 -30 -31
leaf_value=-0.043178743669513048 0.018870340338952744 -0.029980722130415988 0.033546941281352709 -0.00079418809071508923 -0.045350994392561163 0.046808006537598958 0.017456083658700088 0.02518945967135254 -0.0054719273154100849 0.018837835212912941 -0.0078965552716392089 -0.037586180005120741 0.042264204000357145 0.019206004147221695 -0.034917845222520338 0.045971921149889287 -0.01252447385950178 0.036646984747694483 -0.0040591704986033348 -0.004095420587364982 -0.02154141642665959 0.067956149800050422 -0.012295651956532903 0.066582922351617682 -0.058477263515852702 0.046065934000432317 -0.020579213697767662 0.0066313989537228942 0.057490353953683369 0.06910335737833137
leaf_count=9532 4444 5059 185 5087 897 1252 2084 359 7313 3051 2776 760 1931 1906 2416 1430 1852 1873 1755 319 1975 6334 737 1069 1696 864 148 166 668 640
internal_value=0 -0.233606 0.438859 -0.0810725 -0.487301 0.293582 0.206466 0.12969 -0.217646 0.0905491 0.0398207 -0.120688 0.813979 0.550433 -0.593842 0.423151 -0.351774 0.340934 -0.255637 -0.486608 -0.190218 0.884573 -0.419037 0.72749 -0.650885 0.465958 0.118529 0.572788 0.654984 0.775202
internal_count=70578 43476 27102 24149 19327 16405 11177 9165 14984 8138 4860 8073 10697 5228 14381 3336 6911 6317 4946 1216 3730 9334 3153 3000 11228 1363 333 1030 1027 1892
shrinkage=0.07


Tree=24
num_leaves=30
num_cat=0
split_feature=212 8 7 454 10 72 1 18 331 8 9 32 130 13 345 1 90 130 115 452 70 427 1 115 14 386 72 130 250
split_gain=1138.06 285.917 227.751 106.444 94.4324 60.7013 34.9229 37.3935 32.1836 29.2381 26.8677 24.4104 23.3243 23.1676 21.7251 20.4622 14.6115 13.706 13.6558 13.2747 10.0119 8.55255 8.22698 7.1002 6.62533 5.0134 4.88006 1.15544 0.727529
threshold=11.500000000000002 1.0000000180025095e-35 2.5000000000000004 1.0000000180025095e-35 2.5000000000000004 287.50000000000006 1.0000000180025095e-35 19.500000000000004 2.5000000000000004 3.5000000000000004 5.5000000000000009 1.0000000180025095e-35 0.85010121457489884 1.6904761904761907 0.85728236607142871 1.0000000180025095e-35 0.0050384885521591117 0.93254980354311712 1.5000000000000002 4.5000000000000009 15.500000000000002 1.6937378748530947 1.0000000180025095e-35 79.500000000000014 2.2267118800540682 -1.0000000180025095e-35 126.50000000000001 0.54377104377104379 0.94378511235955076
decision_type=2 2 2 2 2 2 2 2 2 2 2 2 2 2 2 2 2 2 2 2 2 2 2 2 2 2 2 2 2
left_child=1 3 5 8 11 6 17 -8 19 15 18 13 20 -3 21 -6 -16 -2 26 -1 -7 -5 -10 -20 -14 -11 -4 -12 -29
right_child=2 4 10 14 9 12 7 -9 22 25 27 -13 24 -15 16 -17 -18 -19 23 -21 -22 -23 -24 -25 -26 -27 -28 28 -30
leaf_value=-0.041936767379700098 0.016072446446592975 -0.014717171742334749 0.032546454367723625 -0.025802011502867428 0.018789783415108039 0.038164591175831521 0.020191048433352326 -0.0047216618553097417 -0.0068664265428099976 0.023835409850709342 0.039848567656780569 0.032627791047614568 0.053434916804075805 0 -0.0097533318011866557 0.00047282623945466538 0.018410890709800769 0.032964576370267652 0.040306649855107568 -0.01391941926843927 0.01766680955212362 0.007611727467554434 -0.028098712026352769 0.058958210181611841 0.014635973586822199 0.055708661768825295 -0.0062065842851579634 0.068549502628729303 0.042676738219010336
leaf_count=14551 2966 9559 163 3128 2609 1055 2345 3539 978 359 236 267 2330 2918 3423 2796 439 2261 2363 485 1734 176 1120 1849 189 668 217 5580 275
internal_value=0 -0.219916 0.416554 -0.40918 -0.0333495 0.275534 0.189139 0.0733769 -0.534004 0.183342 0.794415 -0.139974 0.502657 -0.154798 -0.195561 0.133228 -0.0915844 0.323348 0.634334 -0.581894 0.368547 -0.338927 -0.260806 0.686215 0.716658 0.629525 0.150088 0.950113 0.964629
internal_count=70578 43476 27102 24300 19176 16419 11111 5884 17134 6432 10683 12744 5308 12477 7166 5405 3862 5227 4592 15036 2789 3304 2098 4212 2519 1027 380 6091 5855
shrinkage=0.07


Tree=25
num_leaves=32
num_cat=0
split_feature=5 341 9 9 298 452 2 1 255 4 387 72 9 1 13 1 117 2 4 9 66 115 13 454 89 379 18 6 160 303 250
split_gain=999.364 345.517 234.299 109.151 62.3711 60.0765 45.2731 43.6393 24.5898 24.3657 24.2414 23.6927 21.1634 19.5833 19.1102 17.6852 12.8339 12.0527 11.5391 10.899 9.73139 8.72309 6.83311 11.0039 5.93553 5.83234 5.23359 2.50519 1.95841 1.58376 1.30328
threshold=1.0000000180025095e-35 1.0000000180025095e-35 3.5000000000000004 1.5000000000000002 90.500000000000014 4.5000000000000009 382.50000000000006 2.5000000000000004 160.50000000000003 5.5000000000000009 15.500000000000002 1.5000000000000002 5.5000000000000009 1.0000000180025095e-35 4.416666666666667 1.5000000000000002 1.0000000180025095e-35 801.50000000000011 1.5000000000000002 1.0000000180025095e-35 1.8913959068231139 8.5000000000000018 1.9375000000000002 6.5000000000000009 0.0062253582261539977 136.50000000000003 4.5000000000000009 1.5000000000000002 13.500000000000002 0.0090863223557471808 0.93854895104895109
decision_type=2 2 2 2 2 2 2 2 2 2 2 2 2 2 2 2 2 2 2 2 2 2 2 2 2 2 2 2 2 2 2
left_child=1 5 4 7 13 18 9 10 -8 -5 -3 -9 16 14 -2 -15 20 21 19 -1 -4 -6 24 -24 -7 -19 -20 29 -18 -14 -29
right_child=2 3 12 6 17 22 8 11 -10 -11 -12 -13 27 15 -16 -17 28 25 26 -21 -22 -23 23 -25 -26 -27 -28 30 -30 -31 -32
leaf_value=-0.042657012918813596 0.021513900524333097 -0.014926134136178045 0.038703352006954496 0.006745857559361342 0.011752986692710386 -0.011543089970524559 -0.022822806851940512 0.013309069310962551 0.016663199201820619 0.023130883711395194 -0.0022438489081903394 -0.0543442084597286 0.0525860070076581 -0.0062297859928712469 -0.018736030804198955 0.014194678688066276 0.04703438866756194 -0.016367906481493725 -0.048535592896238468 -0.030208639876711137 -0.00021471998187374129 0.041136685277560835 -0.0057941116047957909 0.038364338413072692 -0.047639446287486752 0.029147150303197193 -0.02262157534212075 0.066301309257666877 0.063347903416168805 0.014091782329695636 0.040755410661481209
leaf_count=11269 3218 8753 2366 6653 350 867 1402 149 463 3212 5716 847 194 2220 271 1640 1176 192 330 3468 220 3876 810 140 141 165 2086 6463 1455 140 326
internal_value=0 -0.184342 0.445125 -0.0455449 0.24878 -0.471082 0.107139 -0.167399 -0.191428 0.165474 -0.137998 -0.631001 0.782768 0.139916 0.258693 0.034325 0.645165 0.506372 -0.530605 -0.563289 0.497978 0.546294 -0.110741 0.00759359 -0.248139 0.0302032 -0.370877 0.912678 0.799311 0.556071 0.931713
internal_count=70578 46306 24272 27195 11932 19111 11730 15465 1865 9865 14469 996 12340 7349 3489 3860 5217 4583 17153 14737 2586 4226 1958 950 1008 357 2416 7123 2631 334 6789
shrinkage=0.07


Tree=26
num_leaves=31
num_cat=0
split_feature=8 298 452 130 169 2 6 296 2 387 8 10 18 331 248 78 409 13 2 1 70 201 2 2 6 414 178 83 2 386
split_gain=889.841 366.361 93.6088 92.207 91.9989 43.2687 40.9091 35.7515 31.0564 28.4033 26.6443 23.7014 22.0881 13.8265 13.011 12.6792 11.5332 11.1795 10.6203 14.8521 13.6111 8.87498 8.55534 7.89701 7.61046 7.11668 4.80101 1.60477 4.61214 1.37429
threshold=2.5000000000000004 1.0000000180025095e-35 3.5000000000000004 0.54377104377104379 18.500000000000004 1464.5000000000002 1.0000000180025095e-35 0.99804687500000011 47.500000000000007 8.5000000000000018 4.5000000000000009 5.5000000000000009 21.500000000000004 57.500000000000007 121.50000000000001 0.98202430785048112 1.5000000000000002 2.291666666666667 24.500000000000004 1.0000000180025095e-35 14.500000000000002 16.500000000000004 761.50000000000011 129.50000000000003 1.0000000180025095e-35 36.500000000000007 14.500000000000002 564.50000000000011 652.50000000000011 -312.49999999999994
decision_type=2 2 2 2 2 2 2 2 2 2 2 2 2 2 2 2 2 2 2 2 2 2 2 2 2 2 2 2 2 2
left_child=1 2 6 11 5 7 9 -3 13 -1 17 15 -10 -6 24 21 -7 22 20 -20 -4 -2 -5 -8 -13 -16 -19 28 -12 -29
right_child=3 4 18 10 8 16 23 -9 12 -11 27 14 -14 -15 25 -17 -18 26 19 -21 -22 -23 -24 -25 -26 -27 -28 29 -30 -31
leaf_value=-0.037547150230617422 -0.0028766098021070804 0.00066167643250537725 -0.0030486660814253489 0.04731901344050609 0.019596257994632615 -0.046524148154171066 -0.015908822844100948 -0.025563926088644124 0.025376638821585081 -0.02063059818719748 0.057575440614016739 0.017783142377890433 -0.0012338174402436845 0.040365028698515618 -0.021619837682878288 0.047511864135200282 -0.014544085847445709 -0.004940703738186095 0.0017221273668319786 -0.021647835194509229 0.029440901038899056 0.016277019754124256 0.017492909437635332 0.0056085978489494957 0.048592154876580147 0.02428570998260679 0.035560429132163771 0.03401053630146246 0.0065616311376007251 0.068832868227065247
leaf_count=15956 896 17087 1394 5880 1962 577 1071 1260 1197 3897 1699 275 2411 1759 153 249 506 216 1042 1446 332 1571 493 580 1719 277 168 197 140 4168
internal_value=0 -0.131026 -0.359737 0.56671 0.0314268 -0.0391658 -0.440561 -0.014932 0.257188 -0.480587 0.731697 0.314233 0.104824 0.408063 0.515213 0.17751 -0.450868 0.61202 -0.0751766 -0.166346 0.0514098 0.126884 0.643769 -0.114599 0.608959 0.103591 0.145676 0.90893 0.773386 0.964757
internal_count=70578 52477 25718 18101 26759 19430 21504 18347 7329 19853 12961 5140 3608 3721 2424 2716 1083 6757 4214 2488 1726 2467 6373 1651 1994 430 384 6204 1839 4365
shrinkage=0.07


Tree=27
num_leaves=32
num_cat=0
split_feature=5 341 9 397 298 1 452 255 2 9 72 401 336 4 117 13 11 4 3 2 296 115 13 0 79 374 18 6 126 346 250
split_gain=795.71 276.272 206.044 90.7656 51.4021 51.2099 50.7561 39.9443 27.3496 21.6368 19.4666 17.1753 13.4686 13.1826 12.6413 12.4552 11.4567 10.6858 12.4857 10.4368 9.76307 8.02198 6.01694 10.0295 5.55721 5.38701 5.0052 2.71811 2.36027 1.73934 1.58903
threshold=1.0000000180025095e-35 1.0000000180025095e-35 3.5000000000000004 0.60911010682564093 90.500000000000014 2.5000000000000004 4.5000000000000009 5.5000000000000009 34.500000000000007 5.5000000000000009 1.5000000000000002 2.5000000000000004 0.022279495990836201 5.5000000000000009 1.0000000180025095e-35 3.5833333333333335 6.5000000000000009 1.5000000000000002 -5.4999999999999991 801.50000000000011 0.24269282401757386 8.5000000000000018 1.9375000000000002 6.5000000000000009 0.31040707083281471 91.500000000000014 4.5000000000000009 1.5000000000000002 38.500000000000007 0.010852363204526439 0.93854895104895109
decision_type=2 2 2 2 2 2 2 2 2 2 2 2 2 2 2 2 2 2 2 2 2 2 2 2 2 2 2 2 2 2 2
left_child=1 6 4 5 11 7 17 -3 16 14 -7 12 -2 -10 20 -13 -5 18 -1 21 -4 -6 24 -24 -8 -21 -19 29 -16 -11 -29
right_child=2 3 9 8 19 10 22 -9 13 27 -12 15 -14 -15 28 -17 -18 26 -20 25 -22 -23 23 -25 -26 -27 -28 30 -30 -31 -32
leaf_value=-0.039453690943871779 -0.0044596883933876799 -0.013344482478344284 0.041807511450937238 0.0250548225492103 0.0096399534516475906 0.0097367102031152147 -0.020850658300463742 0.00049664087931261894 -0.0038927388055796791 0.049851743950215341 -0.047666412571559402 0.025710658613807603 0.010821297064328965 0.013983860489955128 0.043232776260618978 -0.0076448265051218588 -0.0064365902534665505 -0.04554222175722708 -0.025486682146336526 -0.014808533458004008 0.015439652634363371 0.038085679420386369 0.01471556027653393 -0.015663576712246666 0.011921915078595299 0.029886793699661858 -0.019785952837069375 0.064109457891529387 0.060680447397265913 0.010221234726697177 0.037031832481710818
leaf_count=11699 2092 9790 1518 2936 350 164 866 9172 2190 194 1040 1851 3127 1650 1095 279 253 330 3038 216 1068 3876 532 418 142 141 2086 6463 1536 140 326
internal_value=0 -0.164515 0.406561 -0.0413201 0.22461 -0.115483 -0.42759 -0.0888736 0.169061 0.739902 -0.568508 0.126563 0.06147 0.0460322 0.598237 0.297742 0.317955 -0.484541 -0.517025 0.464499 0.449854 0.503059 -0.095991 0.014703 -0.226176 0.0191708 -0.329209 0.878523 0.757068 0.508684 0.899084
internal_count=70578 46306 24272 27195 11932 20166 19111 18962 7029 12340 1204 7349 5219 3840 5217 2130 3189 17153 14737 4583 2586 4226 1958 950 1008 357 2416 7123 2631 334 6789
shrinkage=0.07


Tree=28
num_leaves=29
num_cat=0
split_feature=8 70 8 5 452 13 130 3 261 298 2 452 337 12 388 2 10 13 78 2 400 12 160 2 83 2 341 386
split_gain=714.431 285.729 83.5414 80.4241 62.5372 46.156 37.9481 37.7371 26.2363 25.1723 23.4859 21.4111 16.237 15.8512 14.4751 13.0105 12.2307 12.0086 11.5006 10.7935 8.60179 8.58032 7.32503 6.57298 2.26906 3.1537 1.65723 1.39556
threshold=2.5000000000000004 12.500000000000002 4.5000000000000009 1.0000000180025095e-35 1.0000000180025095e-35 1.1742424242424245 0.45049019607843149 -1.4999999999999998 0.0054694667145307333 82.500000000000014 361.50000000000006 7.5000000000000009 0.040183848362039865 6.5000000000000009 98.500000000000014 24.500000000000004 5.5000000000000009 2.291666666666667 0.98202430785048112 226.50000000000003 8.5000000000000018 3.5000000000000004 9.5000000000000018 493.50000000000006 564.50000000000011 910.50000000000011 452.50000000000006 -312.49999999999994
decision_type=2 2 2 2 2 2 2 2 2 2 2 2 2 2 2 2 2 2 2 2 2 2 2 2 2 2 2 2
left_child=1 4 6 5 7 8 16 14 -3 13 -7 12 -6 -5 -1 -11 18 20 -2 -18 -8 -13 -19 -9 25 26 -4 -26
right_child=2 3 24 9 11 10 17 23 -10 15 -12 21 -14 -15 -16 -17 19 22 -20 -21 -22 -23 -24 -25 27 -27 -28 -29
leaf_value=-0.034625600928562261 0.0074783464170879652 -0.012938354159537606 0.057389213491071317 0.01065619335696351 -0.020612411652207851 0.0087052395537297635 0.035978220044906022 -0.012350296356682828 0.005172666370727351 0.043863202181579936 -0.013598636327755183 -0.0020279345334847602 0 -0.034645532012785946 0.018397734741971213 0.018880824706358403 0.036217172329817082 -0.01143599938615995 0.044800930644235869 0.0019758877647612625 0.053632268352277988 0.024973709957881882 0.040576140319198352 0.013196546772688843 0.031243155339950812 0.011401186658857915 0.027820230503982295 0.06648227821460119
leaf_count=15192 2387 10241 1899 5176 4791 6393 4115 1203 2030 1254 1166 1142 1038 164 145 1955 1465 240 248 373 2291 311 152 276 201 160 293 4277
internal_value=0 -0.116367 0.523593 0.0203694 -0.331769 -0.0508266 0.405781 -0.4349 -0.136386 0.210597 0.0741758 -0.168995 -0.233775 0.129855 -0.485194 0.407826 0.251619 0.565136 0.15585 0.417519 0.599572 0.0544545 0.0873274 -0.103254 0.863375 0.737089 0.773961 0.930583
internal_count=70578 52477 18101 28379 24098 19830 11271 16816 12271 8549 7559 7282 5829 5340 15337 3209 4473 6798 2635 1838 6406 1453 392 1479 6830 2352 2192 4478
shrinkage=0.07


Tree=29
num_leaves=28
num_cat=0
split_feature=8 8 8 454 83 115 115 5 2 0 73 10 18 90 347 337 78 81 2 70 166 13 0 83 2 346 386
split_gain=634.988 258.08 81.3083 81.2524 68.227 35.7175 35.5848 25.8855 23.1042 18.1204 17.4586 14.915 13.6464 12.995 12.5488 12.468 12.4491 10.8909 10.5687 8.79427 8.69143 4.9082 3.6958 2.39304 2.98873 1.54689 1.42762
threshold=2.5000000000000004 1.0000000180025095e-35 4.5000000000000009 1.0000000180025095e-35 22.500000000000004 40.500000000000007 40.500000000000007 1.0000000180025095e-35 355.50000000000006 6.5000000000000009 8.5000000000000018 5.5000000000000009 22.500000000000004 0.001552192705597772 0.058890222755768981 0.12116844007227466 0.97433960802540887 0.96862696850393715 206.50000000000003 17.500000000000004 0.35740354535974977 2.2250000000000005 15.500000000000002 564.50000000000011 910.50000000000011 0.010422097671185264 -331.49999999999994
decision_type=2 2 2 2 2 2 2 2 2 2 2 2 2 2 2 2 2 2 2 2 2 2 2 2 2 2 2
left_child=1 3 6 10 7 8 11 9 -6 -3 14 20 -7 19 -1 -15 -12 -9 -13 -5 -2 22 -8 24 25 -4 -25
right_child=2 4 23 13 5 12 21 17 -10 -11 16 18 -14 15 -16 -17 -18 -19 -20 -21 -22 -23 -24 26 -26 -27 -28
leaf_value=-0.033933662533555578 0.012514838036426511 0.011943366791769225 0.060829211836936126 -0.013620559960813221 0.0077800666733090591 0.040289433491357989 0.055652104030897889 0.0052205480018167258 -0.0089575453306752172 -0.014260877244927864 -0.023935328330130311 0.037830332394467266 0.016154125426329657 -0.0017997866453847323 0.01038168249351671 0.03880847204684839 0.0031014379352876319 -0.026517635797806947 0.0096272389801154677 0.0059853009546425896 0.037699392153798722 0.012614400575088211 0.036810537639330503 0.027083926210071933 0.010751714425903851 0.040756194673559322 0.065361870817373394
leaf_count=14328 4069 585 1238 5675 10403 1278 2161 3252 2099 7982 2014 2481 2286 788 181 201 672 228 648 505 497 219 1196 171 160 954 4307
internal_value=0 -0.109129 0.501216 -0.314323 0.0215246 0.115234 0.385238 -0.102407 0.069515 -0.172863 -0.431734 0.301071 0.351407 -0.128067 -0.474299 0.100307 -0.244268 0.0423492 0.45559 -0.167 0.216521 0.666148 0.700455 0.846073 0.716613 0.753893 0.915832
internal_count=70578 52477 18101 24364 28113 16066 11271 12047 12502 8567 17195 7695 3564 7169 14509 989 2686 3480 3129 6180 4566 3576 3357 6830 2352 2192 4478
shrinkage=0.07


Tree=30
num_leaves=29
num_cat=0
split_feature=8 259 8 452 122 1 0 130 3 388 65 452 13 72 19 2 2 78 204 14 207 81 92 342 2 74 117 210
split_gain=567.605 214.537 86.1383 78.0195 51.146 46.4977 52.0139 34.9779 29.5942 25.7057 25.1301 21.79 21.5067 14.1985 13.0012 11.6111 11.5576 13.5705 9.71727 8.30766 7.17011 7.04927 6.6768 3.47226 1.93239 4.17248 1.46791 3.88705
threshold=2.5000000000000004 0.66715045960328989 4.5000000000000009 1.0000000180025095e-35 0.0043956256279465188 1.0000000180025095e-35 17.500000000000004 0.66710992907801425 -3.4999999999999996 4.5000000000000009 3.5833333333333335 10.500000000000002 5.2500000000000009 396.50000000000006 -11.499999999999998 313.50000000000006 9.5000000000000018 0.98202430785048112 5.5000000000000009 0.42163702135578401 0.68255614832378331 0.29539409767097774 17.500000000000004 4.5000000000000009 1110.5000000000002 63.500000000000007 6.5000000000000009 0.60873713906405591
decision_type=2 2 2 2 2 2 2 2 2 2 2 2 2 2 2 2 2 2 2 2 2 2 2 2 2 2 2 2
left_child=1 3 7 8 5 12 -7 16 9 -1 15 14 -3 18 -5 -6 22 -18 -9 -13 -10 -12 -2 -15 26 -26 27 -4
right_child=2 4 24 11 10 6 -8 13 20 -11 21 19 -14 23 -16 -17 17 -19 -20 -21 -22 -23 -24 -25 25 -27 -28 -29
leaf_value=-0.033940888958591889 0.0098665591851277053 0.010918477515727375 0.057373359524358035 -0.026247199341598342 0.036049895332569137 0.0018786949441043648 -0.020794618576832034 0.019278556935798025 -0.014253663290356464 -0.015344574286812041 0.0041387635107053896 -0.0052931418409504685 -0.025285514895285157 0.058304409196528087 -0.0086535375877020738 0.0045015539805138031 0.0075288047419531916 0.047416970323829695 0.042732633901300936 0.016323127317941853 0.014756559724294084 -0.041006863966264531 0.041903045663002264 0.039484689316056545 0 0.058393550811788042 0.067139463231837476 0.022861665609493206
leaf_count=13140 302 8005 3203 1564 2213 6430 3468 2261 3420 3219 171 623 351 1438 8215 437 3384 263 1243 922 188 155 659 1703 147 156 2934 364
internal_value=0 -0.107931 0.475945 -0.249059 0.0510527 0.0131667 -0.0848796 0.357141 -0.363431 -0.422192 0.353939 -0.113453 0.131747 0.519474 -0.154946 0.440031 0.21253 0.149736 0.393795 0.112053 -0.175624 -0.227057 0.452352 0.69262 0.841782 0.425069 0.859272 0.774931
internal_count=70578 52521 18057 31291 21230 18254 9898 11253 19967 16359 2976 11324 8356 6645 9779 2650 4608 3647 3504 1545 3608 326 961 3141 6804 303 6501 3567
shrinkage=0.07


Tree=31
num_leaves=29
num_cat=0
split_feature=6 259 452 83 10 1 18 3 388 115 454 11 452 0 2 397 205 432 15 2 331 0 14 117 174 307 382 307
split_gain=506.084 216.146 69.2427 67.2477 60.7782 30.7584 40.9549 27.0693 23.6412 20.3263 18.3429 18.2628 18.1312 15.9507 14.0172 12.0696 10.8129 10.3166 9.98675 9.36531 8.10691 6.51694 7.11195 7.05361 6.36827 5.04618 4.90752 2.29867
threshold=1.5000000000000002 0.66715045960328989 1.0000000180025095e-35 408.50000000000006 3.5000000000000004 1.0000000180025095e-35 16.500000000000004 -3.4999999999999996 4.5000000000000009 12.500000000000002 8.5000000000000018 6.5000000000000009 10.500000000000002 20.500000000000004 127.50000000000001 2.0818859324849073 5.5000000000000009 2.6333462198294471 -1.1659928656361471 473.50000000000006 24.500000000000004 18.500000000000004 1.7416204395553521 6.5000000000000009 0.43405797101449278 52.500000000000007 -53.899999999999991 267.50000000000006
decision_type=2 2 2 2 2 2 2 2 2 2 2 2 2 2 2 2 2 2 2 2 2 2 2 2 2 2 2 2
left_child=1 2 7 11 5 9 -7 8 -1 -3 14 13 15 18 -6 -4 -13 -12 -2 -15 -14 22 27 26 -9 -24 -23 -5
right_child=3 4 12 21 10 6 -8 24 -10 -11 17 16 20 19 -16 -17 -18 -19 -20 -21 -22 23 25 -25 -26 -27 -28 -29
leaf_value=-0.032367447836051652 -0.00052453715976736269 0.0032174234673205734 -0.012895625235349217 0.061776644499273621 0.016669644741912369 0.0049148169943846395 -0.014921949475831718 -0.013256913897702779 -0.014410394464092136 0.0237653863908312 0.031754160538869917 0.012770152441751555 0.012035721724724849 0.018521005696201992 -0.0051647866286701101 0.00085486338810503344 -0.048918671047624242 0.0074718433214064073 0.035941723608260978 -0.016415909605466326 -0.014228697624817195 -0.014043175202079978 0 0.056480865708565246 0.015457345331370746 0.053478288436829745 0.030360087900608339 0.020262073326897098
leaf_count=13140 289 5850 7969 6453 2363 4209 5141 3445 3219 1660 2802 164 1279 1514 1063 1788 156 728 5183 237 292 142 186 457 163 150 343 193
internal_value=0 -0.0888655 -0.235085 0.525159 0.0602669 -0.00345393 -0.085255 -0.344091 -0.4012 0.0985994 0.254105 0.356539 -0.107252 0.390436 0.13546 -0.145537 -0.202738 0.38519 0.481958 0.186909 0.0971593 0.787448 0.834859 0.49896 -0.164197 0.345206 0.20452 0.869088
internal_count=70578 55111 31295 15467 23816 16860 9350 19967 16359 7510 6956 7543 11328 7223 3426 9757 320 3530 5472 1751 1571 7924 6982 942 3608 336 485 6646
shrinkage=0.07


Tree=32
num_leaves=29
num_cat=0
split_feature=8 302 8 165 1 4 115 0 3 296 65 90 289 1 450 452 392 414 85 74 450 14 174 167 117 131 2 385
split_gain=451.338 167.852 80.3467 53.0477 47.7892 43.1157 31.1905 31.0956 24.4585 19.1671 17.5384 14.9523 14.4323 13.4707 13.1613 11.4705 10.1988 8.22967 5.64264 5.28439 6.28338 4.52936 3.93593 3.91007 2.24616 5.86697 5.37628 4.08837
threshold=2.5000000000000004 0.62178642056690847 4.5000000000000009 1.0000000180025095e-35 1.0000000180025095e-35 1.5000000000000002 45.500000000000007 16.500000000000004 -1.4999999999999998 0.83178646797881062 4.416666666666667 0.010757138788008264 17.500000000000004 1.0000000180025095e-35 19.500000000000004 10.500000000000002 1.5091246869852455 36.500000000000007 1.0000000180025095e-35 23.500000000000004 16.500000000000004 0.42163702135578401 0.43405797101449278 0.67207843550682622 9.5000000000000018 0.039972451790633613 57.500000000000007 -1.3805543694578422
decision_type=2 2 2 2 2 2 2 2 2 2 2 2 2 2 2 2 2 2 2 2 2 2 2 2 2 2 2 2
left_child=1 5 6 4 9 8 13 -6 11 -3 12 -1 -5 17 -15 16 -7 -2 -12 20 -8 -17 -10 -21 25 27 -27 -4
right_child=2 3 24 10 7 15 19 -9 22 -11 18 -13 -14 14 -16 21 -18 -19 -20 23 -22 -23 -24 -25 -26 26 -28 -29
leaf_value=-0.027033695119094273 0.028525158607070025 0.0080362030456404207 0.010008732275248485 0.014306836160767574 -0.0026204308416938249 -0.011918793458350199 0.048628859362415011 -0.019344226238973177 -0.0087942646745796521 -0.01700322260506637 -0.027090320440935897 0.0077366362622969852 0.035808077172178591 0.016437676828256788 -0.0059973876769665955 -0.0070796400066791866 0.016799207109151532 0.0032431994256255643 0.006962443816842777 0.057477060052051658 0.01750263292644148 0.014626032028157376 0.014354848283741549 0.015953184322009744 0.065613952975556999 0.043926415520654155 -0.01420873697195677 0.056633142760839715
leaf_count=17094 3407 8967 194 2870 7371 6434 722 3879 1603 736 224 403 1431 2836 1125 284 292 515 199 1546 884 571 163 218 2602 222 177 3609
internal_value=0 -0.0952908 0.436119 0.0193156 -0.0234595 -0.250459 0.322234 -0.118257 -0.330918 0.0870107 0.247198 -0.372022 0.296353 0.247027 0.14038 -0.115255 -0.150085 0.358641 -0.163322 0.611919 0.455291 0.102887 -0.0888221 0.756927 0.809055 0.729001 0.220076 0.777534
internal_count=70578 52521 18057 25677 20953 26844 11253 11250 19263 9703 4724 17497 4301 7883 3961 7581 6726 3922 423 3370 1606 855 1766 1764 6804 4202 399 3803
shrinkage=0.07


Tree=33
num_leaves=29
num_cat=0
split_feature=6 7 72 83 74 1 336 450 2 397 2 14 0 393 123 452 19 70 210 15 2 66 0 334 18 400 307 307
split_gain=407.561 172.31 73.3999 62.6828 53.4788 32.6243 28.959 31.1348 22.232 18.0665 17.399 16.7892 16.2357 15.6519 15.2382 15.0251 13.6685 10.0188 9.17569 9.11348 8.41344 6.95859 8.4254 6.3284 6.11983 5.75143 4.51752 2.59374
threshold=1.5000000000000002 1.0000000180025095e-35 4.5000000000000009 408.50000000000006 11.500000000000002 1.0000000180025095e-35 0.013351158645276294 20.500000000000004 92.500000000000014 4.5862097778857214 46.500000000000007 1.538359285067457 20.500000000000004 22.500000000000004 0.33205128205128215 1.0000000180025095e-35 -10.499999999999998 20.500000000000004 0.56952157514922941 -1.1659928656361471 62.500000000000007 1.8631765719870674 18.500000000000004 9.5000000000000018 8.5000000000000018 8.5000000000000018 52.500000000000007 267.50000000000006
